{"value_loss": 0.10093975588679313, "_timestamp": 1665407753.0290873, "_runtime": 13173.454468250275, "policy_loss": -0.0004869436973040209, "dist_entropy": 1.0292428374290465, "actor_grad_norm": 0.024199441075325012, "critic_grad_norm": 0.06445685029029846, "ratio": 1.000019907951355, "sm3_ratio_mean": 0.25860289115646684, "drop_ratio_mean": 0.0054618800058960915, "drop_ratio_std": 0.05881151556968689, "drop_ratio_min": 0.0, "drop_ratio_max": 1.0, "ue_drop_ratio_mean": 0.00698791911224202, "ue_drop_ratio_std": 0.06587318621885466, "ue_drop_ratio_min": 0.0, "ue_drop_ratio_max": 0.9999996666667778, "delay_ratio_mean": 0.15029729902744293, "delay_ratio_std": 0.15337210893630981, "delay_ratio_min": 0.0, "delay_ratio_max": 1.0, "qos_reward_mean": -0.0004408935341757489, "qos_reward_std": 0.03525148504961006, "qos_reward_min": -0.9999990000010001, "qos_reward_max": 0.003933329396526999, "pc_kw_mean": 0.2287850630602761, "pc_kw_std": 0.05338027871542442, "pc_kw_min": 0.09596575927734376, "pc_kw_max": 0.6646948852539063, "reward_mean": -0.23098953073115483, "reward_std": 0.1828274008813819, "reward_min": -5.245493779301875, "reward_max": -0.09596575927734376, "_step": 2520000, "gradients/act.action_outs.2.linear.bias": {"_type": "histogram", "values": [1.0, 0.0, 0.0, 0.0, 0.0, 0.0, 0.0, 0.0, 0.0, 0.0, 0.0, 0.0, 0.0, 0.0, 0.0, 0.0, 0.0, 0.0, 0.0, 0.0, 0.0, 0.0, 0.0, 0.0, 0.0, 0.0, 0.0, 0.0, 0.0, 0.0, 0.0, 0.0, 0.0, 0.0, 0.0, 0.0, 0.0, 0.0, 0.0, 0.0, 0.0, 0.0, 0.0, 0.0, 0.0, 0.0, 0.0, 0.0, 0.0, 0.0, 0.0, 0.0, 0.0, 0.0, 0.0, 0.0, 1.0, 0.0, 0.0, 0.0, 0.0, 0.0, 0.0, 1.0], "bins": [-0.0005018297815695405, -0.0004892842844128609, -0.00047673884546384215, -0.000464193377410993, -0.0004516479093581438, -0.00043910244130529463, -0.00042655697325244546, -0.0004140115051995963, -0.0004014660371467471, -0.00038892056909389794, -0.00037637510104104877, -0.0003638296329881996, -0.0003512841649353504, -0.00033873869688250124, -0.00032619322882965207, -0.0003136477607768029, -0.0003011022927239537, -0.00028855682467110455, -0.0002760113566182554, -0.0002634658885654062, -0.00025092042051255703, -0.00023837495245970786, -0.00022582948440685868, -0.0002132840163540095, -0.00020073851919732988, -0.0001881930511444807, -0.00017564758309163153, -0.00016310211503878236, -0.00015055664698593318, -0.000138011178933084, -0.00012546571088023484, -0.00011292023555142805, -0.00010037477477453649, -8.782930672168732e-05, -7.528383866883814e-05, -6.273837061598897e-05, -5.019289892516099e-05, -3.764742723433301e-05, -2.5101959181483835e-05, -1.2556491128634661e-05, -1.102307578548789e-08, 1.2534445886558387e-05, 2.5079914848902263e-05, 3.762538472074084e-05, 5.017085277359001e-05, 6.2716324464418e-05, 7.526179251726717e-05, 8.780726057011634e-05, 0.00010035272862296551, 0.00011289819667581469, 0.00012544366472866386, 0.00013798913278151304, 0.0001505346008343622, 0.0001630800834391266, 0.00017562555149197578, 0.00018817101954482496, 0.00020071648759767413, 0.0002132619556505233, 0.00022580742370337248, 0.00023835289175622165, 0.0002508983598090708, 0.00026344382786192, 0.00027598929591476917, 0.00028853476396761835, 0.0003010802320204675]}, "gradients/act.action_outs.2.linear.weight": {"_type": "histogram", "values": [1.0, 0.0, 1.0, 0.0, 0.0, 0.0, 1.0, 0.0, 1.0, 0.0, 1.0, 2.0, 0.0, 1.0, 1.0, 0.0, 0.0, 4.0, 3.0, 1.0, 7.0, 3.0, 2.0, 5.0, 1.0, 4.0, 2.0, 4.0, 7.0, 6.0, 3.0, 9.0, 14.0, 7.0, 8.0, 11.0, 7.0, 8.0, 11.0, 6.0, 5.0, 5.0, 4.0, 3.0, 8.0, 3.0, 5.0, 1.0, 1.0, 2.0, 2.0, 5.0, 0.0, 0.0, 1.0, 0.0, 2.0, 0.0, 0.0, 0.0, 0.0, 1.0, 1.0, 1.0], "bins": [-0.0024973556865006685, -0.0024241977371275425, -0.002351039554923773, -0.0022778816055506468, -0.0022047236561775208, -0.002131565473973751, -0.002058407524600625, -0.001985249575227499, -0.0019120915094390512, -0.0018389334436506033, -0.0017657754942774773, -0.0016926174284890294, -0.0016194593627005816, -0.0015463014133274555, -0.0014731433475390077, -0.0013999852817505598, -0.0013268273323774338, -0.001253669266588986, -0.0011805113172158599, -0.001107353251427412, -0.001034195302054286, -0.0009610372362658381, -0.0008878791704773903, -0.0008147211628966033, -0.0007415631553158164, -0.0006684051477350295, -0.0005952471401542425, -0.0005220890743657947, -0.0004489310667850077, -0.00037577305920422077, -0.00030261502251960337, -0.00022945698583498597, -0.00015629874542355537, -8.31407232908532e-05, -9.98270115815103e-06, 6.317532097455114e-05, 0.0001363333431072533, 0.00020949135068804026, 0.00028264938737265766, 0.00035580742405727506, 0.000428965431638062, 0.0005021234392188489, 0.0005752814467996359, 0.0006484395125880837, 0.0007215975201688707, 0.0007947555277496576, 0.0008679135935381055, 0.0009410716011188924, 0.0010142296086996794, 0.0010873876744881272, 0.0011605456238612533, 0.0012337036896497011, 0.0013068616390228271, 0.001380019704811275, 0.0014531777705997229, 0.001526335719972849, 0.0015994937857612967, 0.0016726518515497446, 0.0017458098009228706, 0.0018189678667113185, 0.0018921259324997663, 0.0019652838818728924, 0.0020384418312460184, 0.002111600013449788, 0.002184757962822914]}, "gradients/act.action_outs.1.linear.bias": {"_type": "histogram", "values": [1.0, 0.0, 0.0, 0.0, 1.0, 1.0, 0.0, 0.0, 0.0, 0.0, 0.0, 0.0, 0.0, 0.0, 0.0, 0.0, 0.0, 0.0, 0.0, 0.0, 0.0, 0.0, 0.0, 0.0, 0.0, 0.0, 0.0, 0.0, 0.0, 0.0, 0.0, 0.0, 0.0, 0.0, 0.0, 0.0, 0.0, 0.0, 0.0, 0.0, 0.0, 0.0, 0.0, 0.0, 0.0, 0.0, 0.0, 0.0, 0.0, 0.0, 0.0, 0.0, 0.0, 0.0, 0.0, 0.0, 0.0, 0.0, 0.0, 0.0, 0.0, 0.0, 0.0, 1.0], "bins": [-0.0004348374786786735, -0.000411185494158417, -0.00038753350963816047, -0.00036388152511790395, -0.00034022954059764743, -0.0003165775560773909, -0.00029292554245330393, -0.0002692735579330474, -0.0002456215734127909, -0.00022196958889253438, -0.00019831760437227786, -0.0001746656053001061, -0.0001510136207798496, -0.00012736163625959307, -0.00010370963718742132, -8.00576526671648e-05, -5.640566814690828e-05, -3.275367998867296e-05, -9.10169183043763e-06, 1.4550299965776503e-05, 3.820228448603302e-05, 6.185426900628954e-05, 8.550626807846129e-05, 0.00010915825259871781, 0.00013281023711897433, 0.00015646222163923085, 0.00018011420615948737, 0.00020376620523165911, 0.00022741818975191563, 0.0002510701888240874, 0.0002747221733443439, 0.0002983741578646004, 0.00032202620059251785, 0.00034567818511277437, 0.0003693301696330309, 0.0003929821541532874, 0.00041663413867354393, 0.00044028612319380045, 0.0004639381368178874, 0.00048759012133814394, 0.00051124207675457, 0.0005348940612748265, 0.000558546045795083, 0.0005821980303153396, 0.0006058500148355961, 0.0006295019993558526, 0.0006531539838761091, 0.0006768059683963656, 0.0007004580111242831, 0.0007241099956445396, 0.0007477619801647961, 0.0007714139646850526, 0.0007950659492053092, 0.0008187179337255657, 0.0008423699764534831, 0.0008660219609737396, 0.0008896739454939961, 0.0009133259300142527, 0.0009369779145345092, 0.0009606298990547657, 0.0009842818835750222, 0.0010079338680952787, 0.0010315858526155353, 0.0010552378371357918, 0.0010788898216560483]}, "gradients/act.action_outs.1.linear.weight": {"_type": "histogram", "values": [1.0, 0.0, 0.0, 0.0, 0.0, 0.0, 1.0, 0.0, 0.0, 0.0, 0.0, 0.0, 0.0, 2.0, 0.0, 0.0, 0.0, 0.0, 1.0, 1.0, 0.0, 1.0, 2.0, 2.0, 4.0, 3.0, 8.0, 10.0, 10.0, 10.0, 5.0, 9.0, 11.0, 9.0, 15.0, 17.0, 12.0, 24.0, 36.0, 22.0, 5.0, 6.0, 4.0, 3.0, 3.0, 2.0, 3.0, 4.0, 0.0, 0.0, 1.0, 2.0, 3.0, 1.0, 0.0, 0.0, 0.0, 0.0, 0.0, 0.0, 1.0, 0.0, 0.0, 2.0], "bins": [-0.004124815575778484, -0.004008696414530277, -0.0038925770204514265, -0.0037764576263725758, -0.0036603384651243687, -0.0035442193038761616, -0.003428099909797311, -0.00331198051571846, -0.003195861354470253, -0.003079742193222046, -0.002963622799143195, -0.0028475034050643444, -0.0027313842438161373, -0.0026152650825679302, -0.0024991456884890795, -0.0023830262944102287, -0.0022669071331620216, -0.0021507879719138145, -0.002034668577834964, -0.0019185493001714349, -0.001802430022507906, -0.001686310744844377, -0.0015701914671808481, -0.0014540721895173192, -0.0013379529118537903, -0.0012218336341902614, -0.0011057143565267324, -0.0009895950788632035, -0.0008734758011996746, -0.0007573565235361457, -0.0006412372458726168, -0.0005251179682090878, -0.0004089989233762026, -0.00029287964571267366, -0.00017676036804914474, -6.0641090385615826e-05, 5.5478187277913094e-05, 0.000171597464941442, 0.00028771674260497093, 0.00040383602026849985, 0.0005199552979320288, 0.0006360745755955577, 0.0007521938532590866, 0.0008683131309226155, 0.0009844324085861444, 0.0011005516862496734, 0.0012166709639132023, 0.0013327902415767312, 0.0014489095192402601, 0.001565028796903789, 0.001681148074567318, 0.0017972673522308469, 0.0019133866298943758, 0.0020295060239732265, 0.0021456251852214336, 0.0022617443464696407, 0.0023778637405484915, 0.0024939831346273422, 0.0026101022958755493, 0.0027262214571237564, 0.002842340851202607, 0.002958460245281458, 0.003074579406529665, 0.003190698567777872, 0.003306817961856723]}, "gradients/act.action_outs.0.linear.bias": {"_type": "histogram", "values": [1.0, 0.0, 0.0, 0.0, 0.0, 0.0, 0.0, 0.0, 0.0, 0.0, 0.0, 1.0, 0.0, 0.0, 0.0, 0.0, 0.0, 0.0, 0.0, 0.0, 0.0, 0.0, 0.0, 0.0, 0.0, 0.0, 0.0, 0.0, 0.0, 0.0, 0.0, 0.0, 0.0, 0.0, 0.0, 0.0, 0.0, 0.0, 0.0, 0.0, 0.0, 0.0, 0.0, 0.0, 0.0, 0.0, 0.0, 0.0, 0.0, 0.0, 0.0, 0.0, 0.0, 0.0, 0.0, 0.0, 0.0, 0.0, 0.0, 0.0, 0.0, 0.0, 0.0, 1.0], "bins": [-0.00027141193277202547, -0.00026064322446472943, -0.0002498745161574334, -0.00023910579329822212, -0.00022833707043901086, -0.00021756836213171482, -0.00020679965382441878, -0.00019603094551712275, -0.00018526222265791148, -0.00017449351435061544, -0.00016372479149140418, -0.00015295608318410814, -0.0001421873748768121, -0.00013141865201760083, -0.0001206499437103048, -0.00010988122812705114, -9.911251254379749e-05, -8.834379696054384e-05, -7.757508137729019e-05, -6.680637306999415e-05, -5.60376574867405e-05, -4.526894190348685e-05, -3.450023359619081e-05, -2.373151801293716e-05, -1.2962802429683506e-05, -2.194088665419258e-06, 8.57462509884499e-06, 1.9343337044119835e-05, 3.0112052627373487e-05, 4.088076821062714e-05, 5.1649476517923176e-05, 6.241819210117683e-05, 7.318693678826094e-05, 8.395565237151459e-05, 9.472436795476824e-05, 0.00010549307626206428, 0.00011626179184531793, 0.00012703050742857158, 0.00013779921573586762, 0.00014856792404316366, 0.00015933664690237492, 0.00017010535520967096, 0.00018087407806888223, 0.00019164278637617826, 0.0002024114946834743, 0.00021318021754268557, 0.0002239489258499816, 0.00023471764870919287, 0.0002454863570164889, 0.00025625506532378495, 0.000267023773631081, 0.0002777925110422075, 0.0002885612193495035, 0.00029932992765679955, 0.0003100986359640956, 0.00032086734427139163, 0.00033163605257868767, 0.0003424047608859837, 0.00035317346919327974, 0.0003639421775005758, 0.0003747109149117023, 0.0003854796232189983, 0.00039624833152629435, 0.0004070170398335904, 0.0004177857772447169]}, "gradients/act.action_outs.0.linear.weight": {"_type": "histogram", "values": [1.0, 0.0, 0.0, 0.0, 0.0, 0.0, 0.0, 0.0, 0.0, 0.0, 0.0, 0.0, 0.0, 1.0, 2.0, 2.0, 1.0, 3.0, 3.0, 6.0, 7.0, 2.0, 2.0, 2.0, 8.0, 8.0, 4.0, 7.0, 9.0, 10.0, 6.0, 4.0, 5.0, 5.0, 6.0, 9.0, 10.0, 12.0, 6.0, 8.0, 2.0, 10.0, 2.0, 2.0, 3.0, 0.0, 3.0, 2.0, 3.0, 0.0, 1.0, 2.0, 1.0, 1.0, 0.0, 2.0, 1.0, 2.0, 2.0, 0.0, 0.0, 1.0, 2.0, 1.0], "bins": [-0.001720135798677802, -0.001668970799073577, -0.0016178057994693518, -0.0015666407998651266, -0.0015154759166762233, -0.0014643109170719981, -0.001413145917467773, -0.0013619809178635478, -0.0013108160346746445, -0.0012596510350704193, -0.0012084860354661942, -0.001157321035861969, -0.0011061561526730657, -0.0010549911530688405, -0.0010038261534646153, -0.0009526611538603902, -0.000901496154256165, -0.0008503311546519399, -0.0007991662132553756, -0.0007480012136511505, -0.0006968362722545862, -0.0006456712726503611, -0.0005945062730461359, -0.0005433412734419107, -0.0004921763320453465, -0.0004410113615449518, -0.0003898463910445571, -0.00033868139144033194, -0.00028751642093993723, -0.00023635145043954253, -0.00018518645083531737, -0.00013402148033492267, -8.28566262498498e-05, -3.169164847349748e-05, 1.9473329302854836e-05, 7.063831435516477e-05, 0.00012180328485555947, 0.00017296825535595417, 0.00022413325496017933, 0.00027529822546057403, 0.00032646319596096873, 0.00037762816646136343, 0.00042879313696175814, 0.0004799581365659833, 0.0005311231361702085, 0.0005822880775667727, 0.0006334530771709979, 0.0006846180185675621, 0.0007357830181717873, 0.0007869480177760124, 0.0008381129591725767, 0.0008892779587768018, 0.0009404429001733661, 0.0009916078997775912, 0.0010427728993818164, 0.0010939378989860415, 0.0011451027821749449, 0.00119626778177917, 0.0012474327813833952, 0.0012985977809876204, 0.0013497626641765237, 0.0014009276637807488, 0.001452092663384974, 0.0015032576629891992, 0.0015544226625934243]}, "gradients/base.mlp.fc2.0.2.weight": {"_type": "histogram", "values": [1.0, 0.0, 0.0, 0.0, 0.0, 1.0, 1.0, 0.0, 1.0, 1.0, 1.0, 0.0, 2.0, 1.0, 1.0, 3.0, 1.0, 2.0, 1.0, 1.0, 4.0, 1.0, 0.0, 2.0, 3.0, 6.0, 5.0, 5.0, 8.0, 1.0, 1.0, 2.0, 0.0, 0.0, 1.0, 0.0, 1.0, 0.0, 0.0, 0.0, 0.0, 1.0, 0.0, 0.0, 1.0, 0.0, 1.0, 0.0, 0.0, 0.0, 0.0, 1.0, 1.0, 0.0, 0.0, 0.0, 0.0, 0.0, 0.0, 0.0, 0.0, 0.0, 0.0, 1.0], "bins": [-0.00017041954561136663, -0.00016418614541180432, -0.00015795275976415724, -0.00015171935956459492, -0.0001454859593650326, -0.00013925257371738553, -0.00013301917351782322, -0.0001267857733182609, -0.00012055238039465621, -0.00011431898747105151, -0.0001080855872714892, -0.0001018521943478845, -9.561880142427981e-05, -8.93854012247175e-05, -8.31520083011128e-05, -7.69186153775081e-05, -7.068521517794579e-05, -6.44518222543411e-05, -5.8218422054778785e-05, -5.198502913117409e-05, -4.5751632569590583e-05, -3.951823600800708e-05, -3.328484308440238e-05, -2.7051446522818878e-05, -2.0818049961235374e-05, -1.4584654309146572e-05, -8.35125865705777e-06, -2.117863914463669e-06, 4.115532647119835e-06, 1.0348929208703339e-05, 1.6582322132308036e-05, 2.281571869389154e-05, 2.9049115255475044e-05, 3.528251181705855e-05, 4.151590837864205e-05, 4.774930130224675e-05, 5.3982697863830253e-05, 6.021609442541376e-05, 6.644948734901845e-05, 7.268288754858077e-05, 7.891628047218546e-05, 8.514967339579016e-05, 9.138307359535247e-05, 9.761646651895717e-05, 0.00010384985944256186, 0.00011008325964212418, 0.00011631665256572887, 0.00012255004548933357, 0.00012878344568889588, 0.0001350168458884582, 0.00014125023153610528, 0.00014748363173566759, 0.0001537170319352299, 0.0001599504321347922, 0.0001661838177824393, 0.0001724172179820016, 0.00017865060362964869, 0.000184884003829211, 0.00019111738947685808, 0.0001973507896764204, 0.0002035841898759827, 0.00020981757552362978, 0.0002160509757231921, 0.0002222843759227544, 0.00022851777612231672]}, "gradients/base.mlp.fc2.0.2.bias": {"_type": "histogram", "values": [2.0, 0.0, 0.0, 2.0, 0.0, 0.0, 0.0, 1.0, 2.0, 1.0, 1.0, 1.0, 2.0, 1.0, 2.0, 0.0, 1.0, 1.0, 3.0, 1.0, 0.0, 0.0, 3.0, 3.0, 5.0, 3.0, 3.0, 3.0, 2.0, 2.0, 1.0, 1.0, 2.0, 3.0, 0.0, 1.0, 1.0, 0.0, 1.0, 0.0, 2.0, 0.0, 0.0, 1.0, 1.0, 1.0, 0.0, 0.0, 1.0, 0.0, 0.0, 0.0, 0.0, 0.0, 0.0, 1.0, 0.0, 0.0, 0.0, 0.0, 0.0, 1.0, 0.0, 1.0], "bins": [-5.664389027515426e-05, -5.427070937003009e-05, -5.189752482692711e-05, -4.952434392180294e-05, -4.715115937869996e-05, -4.4777978473575786e-05, -4.240479756845161e-05, -4.0031613025348634e-05, -3.7658428482245654e-05, -3.528524757712148e-05, -3.29120630340185e-05, -3.053888212889433e-05, -2.816569758579135e-05, -2.5792516680667177e-05, -2.34193339565536e-05, -2.1046151232440025e-05, -1.8672970327315852e-05, -1.6299787603202276e-05, -1.39266048790887e-05, -1.1553423064469825e-05, -9.18024034035625e-06, -6.807057616242673e-06, -4.433875801623799e-06, -2.060693077510223e-06, 3.124896466033533e-07, 2.685672143343254e-06, 5.058854640083155e-06, 7.43203690944938e-06, 9.805219633562956e-06, 1.2178402357676532e-05, 1.4551584172295406e-05, 1.6924766896408983e-05, 1.929794962052256e-05, 2.1671132344636135e-05, 2.404431506874971e-05, 2.6417495973873883e-05, 2.8790680516976863e-05, 3.1163861422101036e-05, 3.353704232722521e-05, 3.591022687032819e-05, 3.828341141343117e-05, 4.065659231855534e-05, 4.302977686165832e-05, 4.540295776678249e-05, 4.777614230988547e-05, 5.0149323215009645e-05, 5.252250412013382e-05, 5.48956886632368e-05, 5.726886956836097e-05, 5.964205047348514e-05, 6.201523501658812e-05, 6.43884195596911e-05, 6.676159682683647e-05, 6.913478136993945e-05, 7.150796591304243e-05, 7.38811504561454e-05, 7.625432772329077e-05, 7.862751226639375e-05, 8.100068953353912e-05, 8.33738740766421e-05, 8.574705861974508e-05, 8.812024316284806e-05, 9.049342042999342e-05, 9.28666049730964e-05, 9.523978951619938e-05]}, "gradients/base.mlp.fc2.0.0.bias": {"_type": "histogram", "values": [1.0, 0.0, 0.0, 0.0, 0.0, 0.0, 0.0, 0.0, 0.0, 0.0, 0.0, 0.0, 0.0, 0.0, 0.0, 0.0, 0.0, 0.0, 0.0, 1.0, 0.0, 1.0, 1.0, 0.0, 1.0, 2.0, 1.0, 1.0, 2.0, 1.0, 0.0, 3.0, 2.0, 3.0, 4.0, 4.0, 5.0, 6.0, 4.0, 5.0, 2.0, 2.0, 1.0, 2.0, 0.0, 1.0, 0.0, 1.0, 1.0, 1.0, 0.0, 1.0, 0.0, 1.0, 0.0, 0.0, 0.0, 0.0, 0.0, 2.0, 0.0, 0.0, 0.0, 1.0], "bins": [-0.00016707758186385036, -0.00016254806541837752, -0.0001580185635248199, -0.0001534890616312623, -0.00014895954518578947, -0.00014443002874031663, -0.00013990052684675902, -0.0001353710249532014, -0.00013084150850772858, -0.00012631199206225574, -0.00012178249016869813, -0.00011725298099918291, -0.00011272347182966769, -0.00010819396266015247, -0.00010366445349063724, -9.913494432112202e-05, -9.46054351516068e-05, -9.007592598209158e-05, -8.554641681257635e-05, -8.101690764306113e-05, -7.648739847354591e-05, -7.195788930403069e-05, -6.742838013451546e-05, -6.289887096500024e-05, -5.836936179548502e-05, -5.38398526259698e-05, -4.9310343456454575e-05, -4.478083428693935e-05, -4.025132511742413e-05, -3.572181594790891e-05, -3.1192306778393686e-05, -2.6662797608878464e-05, -2.213328843936324e-05, -1.760377926984802e-05, -1.3074270100332797e-05, -8.544760930817574e-06, -4.015251761302352e-06, 5.142574082128704e-07, 5.043766577728093e-06, 9.573275747243315e-06, 1.4102784916758537e-05, 1.863229408627376e-05, 2.3161803255788982e-05, 2.7691312425304204e-05, 3.2220821594819427e-05, 3.675033076433465e-05, 4.127983993384987e-05, 4.5809349103365093e-05, 5.0338858272880316e-05, 5.486836744239554e-05, 5.939787661191076e-05, 6.392738578142598e-05, 6.84568949509412e-05, 7.298640412045643e-05, 7.751591328997165e-05, 8.204542245948687e-05, 8.65749316290021e-05, 9.110444079851732e-05, 9.563394996803254e-05, 0.00010016345913754776, 0.00010469296830706298, 0.0001092224774765782, 0.00011375198664609343, 0.00011828149581560865, 0.00012281100498512387]}, "gradients/base.mlp.fc2.0.0.weight": {"_type": "histogram", "values": [1.0, 0.0, 1.0, 0.0, 0.0, 0.0, 0.0, 0.0, 0.0, 0.0, 0.0, 2.0, 2.0, 2.0, 2.0, 1.0, 1.0, 7.0, 6.0, 8.0, 10.0, 3.0, 9.0, 9.0, 7.0, 10.0, 23.0, 32.0, 31.0, 55.0, 92.0, 106.0, 148.0, 224.0, 315.0, 563.0, 951.0, 471.0, 306.0, 227.0, 111.0, 75.0, 53.0, 48.0, 40.0, 42.0, 26.0, 15.0, 11.0, 11.0, 8.0, 10.0, 5.0, 3.0, 1.0, 2.0, 2.0, 1.0, 0.0, 2.0, 2.0, 0.0, 1.0, 2.0], "bins": [-0.0005049910396337509, -0.0004910914576612413, -0.0004771919338963926, -0.0004632923810277134, -0.00044939282815903425, -0.0004354932752903551, -0.0004215937224216759, -0.0004076941404491663, -0.0003937946166843176, -0.0003798950638156384, -0.00036599551094695926, -0.0003520959580782801, -0.0003381964052096009, -0.00032429685234092176, -0.0003103972994722426, -0.00029649771749973297, -0.0002825981646310538, -0.00026869861176237464, -0.0002547990588936955, -0.0002408995060250163, -0.00022699995315633714, -0.00021310040028765798, -0.00019920083286706358, -0.00018530127999838442, -0.00017140172712970525, -0.00015750217426102608, -0.00014360262139234692, -0.00012970305397175252, -0.00011580350837903097, -0.00010190395551035181, -8.800439536571503e-05, -7.410484249703586e-05, -6.0205289628356695e-05, -4.630573675967753e-05, -3.2406180253019556e-05, -1.8506623746361583e-05, -4.607070877682418e-06, 9.292481990996748e-06, 2.3192042135633528e-05, 3.7091595004312694e-05, 5.099114787299186e-05, 6.489070074167103e-05, 7.879025361035019e-05, 9.268981375498697e-05, 0.00010658936662366614, 0.0001204889194923453, 0.00013438847963698208, 0.00014828803250566125, 0.00016218758537434042, 0.00017608713824301958, 0.00018998669111169875, 0.0002038862439803779, 0.00021778579684905708, 0.00023168534971773624, 0.00024558493169024587, 0.0002594844554550946, 0.0002733840374276042, 0.00028728359029628336, 0.00030118314316496253, 0.0003150826960336417, 0.00032898224890232086, 0.00034288180177100003, 0.0003567813546396792, 0.0003706809366121888, 0.0003845804603770375]}, "gradients/base.mlp.fc1.2.weight": {"_type": "histogram", "values": [1.0, 0.0, 0.0, 0.0, 0.0, 0.0, 0.0, 0.0, 0.0, 0.0, 0.0, 0.0, 0.0, 0.0, 0.0, 0.0, 0.0, 0.0, 0.0, 0.0, 0.0, 0.0, 0.0, 0.0, 0.0, 0.0, 1.0, 0.0, 1.0, 0.0, 0.0, 0.0, 0.0, 0.0, 1.0, 0.0, 0.0, 1.0, 3.0, 1.0, 4.0, 2.0, 1.0, 2.0, 6.0, 6.0, 0.0, 1.0, 5.0, 3.0, 4.0, 1.0, 4.0, 3.0, 3.0, 1.0, 0.0, 2.0, 1.0, 0.0, 1.0, 0.0, 3.0, 2.0], "bins": [-0.0005485981819219887, -0.0005370013532228768, -0.0005254044663161039, -0.000513807637616992, -0.0005022108089178801, -0.0004906139220111072, -0.00047901709331199527, -0.00046742026461288333, -0.00045582340680994093, -0.00044422654900699854, -0.0004326297203078866, -0.0004210328625049442, -0.0004094360047020018, -0.00039783917600288987, -0.0003862423181999475, -0.0003746454603970051, -0.00036304863169789314, -0.00035145177389495075, -0.0003398549451958388, -0.0003282580873928964, -0.000316661229589954, -0.0003050644008908421, -0.0002934675430878997, -0.00028187071438878775, -0.0002702738274820149, -0.0002586769696790725, -0.00024708014097996056, -0.00023548328317701817, -0.000223886439925991, -0.00021228959667496383, -0.00020069273887202144, -0.00018909589562099427, -0.0001774990523699671, -0.00016590220911893994, -0.00015430535131599754, -0.00014270850806497037, -0.0001311116648139432, -0.00011951481428695843, -0.00010791796375997365, -9.632112050894648e-05, -8.47242699819617e-05, -7.312741945497692e-05, -6.153057620394975e-05, -4.993372567696497e-05, -3.8336878787958995e-05, -2.674003189895302e-05, -1.514318137196824e-05, -3.5463381209410727e-06, 8.050512406043708e-06, 1.9647359295049682e-05, 3.1244206184055656e-05, 4.284105671104044e-05, 5.443790360004641e-05, 6.603475048905239e-05, 7.763160101603717e-05, 8.922844426706433e-05, 0.00010082529479404911, 0.0001124221453210339, 0.00012401898857206106, 0.00013561584637500346, 0.00014721268962603062, 0.0001588095328770578, 0.00017040639068000019, 0.00018200321937911212, 0.00019360007718205452]}, "gradients/base.mlp.fc1.2.bias": {"_type": "histogram", "values": [1.0, 0.0, 0.0, 1.0, 0.0, 0.0, 0.0, 1.0, 0.0, 0.0, 0.0, 1.0, 2.0, 0.0, 0.0, 2.0, 2.0, 0.0, 0.0, 0.0, 2.0, 2.0, 3.0, 1.0, 2.0, 3.0, 4.0, 1.0, 1.0, 1.0, 1.0, 0.0, 0.0, 2.0, 3.0, 0.0, 5.0, 2.0, 3.0, 6.0, 1.0, 1.0, 2.0, 1.0, 3.0, 1.0, 1.0, 1.0, 0.0, 0.0, 0.0, 0.0, 0.0, 0.0, 0.0, 0.0, 0.0, 0.0, 0.0, 0.0, 0.0, 0.0, 0.0, 1.0], "bins": [-0.00019020152103621513, -0.00018420067499391735, -0.00017819982895161957, -0.00017219898290932178, -0.00016619815141893923, -0.00016019730537664145, -0.00015419645933434367, -0.0001481956132920459, -0.0001421947672497481, -0.00013619392120745033, -0.00013019307516515255, -0.00012419224367477, -0.0001181913903565146, -0.00011219055159017444, -0.00010618970554787666, -0.00010018885950557888, -9.418802073923871e-05, -8.818717469694093e-05, -8.218633593060076e-05, -7.618548988830298e-05, -7.01846438460052e-05, -6.418379780370742e-05, -5.8182959037367254e-05, -5.2182112995069474e-05, -4.61812705907505e-05, -4.018042818643153e-05, -3.417958214413375e-05, -2.8178739739814773e-05, -2.2177895516506396e-05, -1.617705129319802e-05, -1.0176208888879046e-05, -4.175362846581265e-06, 1.825479557737708e-06, 7.826323781046085e-06, 1.382716709485976e-05, 1.9828010408673435e-05, 2.5828854631981812e-05, 3.182969885529019e-05, 3.783054125960916e-05, 4.383138730190694e-05, 4.983222970622592e-05, 5.583307211054489e-05, 6.183391815284267e-05, 6.783475691918284e-05, 7.383560296148062e-05, 7.98364490037784e-05, 8.583729504607618e-05, 9.183814108837396e-05, 9.783897985471413e-05, 0.0001038398258970119, 0.00010984066466335207, 0.00011584151070564985, 0.00012184235674794763, 0.00012784320279024541, 0.00013384403428062797, 0.00013984489487484097, 0.00014584572636522353, 0.0001518465724075213, 0.0001578474184498191, 0.00016384824994020164, 0.00016984909598249942, 0.0001758499420247972, 0.00018185078806709498, 0.00018785163410939276, 0.00019385248015169054]}, "gradients/base.mlp.fc1.0.bias": {"_type": "histogram", "values": [1.0, 0.0, 0.0, 0.0, 1.0, 0.0, 1.0, 0.0, 0.0, 0.0, 0.0, 0.0, 0.0, 1.0, 1.0, 0.0, 1.0, 1.0, 1.0, 3.0, 1.0, 1.0, 1.0, 1.0, 1.0, 1.0, 1.0, 3.0, 5.0, 3.0, 4.0, 3.0, 6.0, 0.0, 2.0, 1.0, 1.0, 1.0, 0.0, 1.0, 1.0, 2.0, 2.0, 0.0, 1.0, 1.0, 1.0, 1.0, 0.0, 1.0, 1.0, 0.0, 0.0, 0.0, 0.0, 0.0, 1.0, 0.0, 1.0, 0.0, 2.0, 0.0, 0.0, 1.0], "bins": [-0.00017885553825180978, -0.00017305869550909847, -0.00016726183821447194, -0.00016146499547176063, -0.0001556681381771341, -0.0001498712954344228, -0.00014407443813979626, -0.00013827759539708495, -0.00013248075265437365, -0.00012668390991166234, -0.0001208870526170358, -0.0001150902098743245, -0.00010929335257969797, -0.00010349650983698666, -9.769965981831774e-05, -9.190280979964882e-05, -8.610595250502229e-05, -8.030910248635337e-05, -7.451225246768445e-05, -6.871540972497314e-05, -6.291855243034661e-05, -5.7121706049656495e-05, -5.132485966896638e-05, -4.552800965029746e-05, -3.973115963162854e-05, -3.393430961295962e-05, -2.8137461413280107e-05, -2.234061321360059e-05, -1.654376319493167e-05, -1.0746913176262751e-05, -4.9500667955726385e-06, 8.467832230962813e-07, 6.643633241765201e-06, 1.2440482350939419e-05, 1.8237331460113637e-05, 2.4034179659793153e-05, 2.9831029678462073e-05, 3.562787969713099e-05, 4.1424726077821106e-05, 4.7221576096490026e-05, 5.3018426115158945e-05, 5.8815276133827865e-05, 6.461212615249678e-05, 7.04089761711657e-05, 7.620581891387701e-05, 8.200267620850354e-05, 8.779951895121485e-05, 9.359636896988377e-05, 9.939321898855269e-05, 0.00010519006900722161, 0.00011098691902589053, 0.00011678376176860183, 0.00012258061906322837, 0.00012837746180593967, 0.00013417430454865098, 0.00013997116184327751, 0.00014576801913790405, 0.00015156486188061535, 0.0001573617191752419, 0.0001631585619179532, 0.00016895541921257973, 0.00017475226195529103, 0.00018054910469800234, 0.00018634596199262887, 0.00019214280473534018]}, "gradients/base.mlp.fc1.0.weight": {"_type": "histogram", "values": [1.0, 0.0, 1.0, 0.0, 1.0, 1.0, 1.0, 0.0, 2.0, 1.0, 3.0, 2.0, 3.0, 3.0, 5.0, 5.0, 5.0, 13.0, 15.0, 14.0, 20.0, 20.0, 27.0, 41.0, 58.0, 46.0, 85.0, 433.0, 794.0, 2522.0, 2112.0, 448.0, 195.0, 83.0, 62.0, 56.0, 47.0, 32.0, 23.0, 21.0, 23.0, 15.0, 12.0, 7.0, 8.0, 9.0, 8.0, 4.0, 3.0, 0.0, 0.0, 2.0, 0.0, 1.0, 0.0, 1.0, 0.0, 0.0, 1.0, 0.0, 0.0, 0.0, 0.0, 1.0], "bins": [-0.0008616871782578528, -0.0008329005213454366, -0.0008041138062253594, -0.0007753271493129432, -0.000746540492400527, -0.0007177537772804499, -0.0006889671203680336, -0.0006601804634556174, -0.0006313937483355403, -0.0006026070914231241, -0.0005738203763030469, -0.0005450337193906307, -0.0005162470624782145, -0.0004874603764619678, -0.00045867369044572115, -0.00042988703353330493, -0.0004011003766208887, -0.00037231369060464203, -0.0003435270336922258, -0.00031474034767597914, -0.0002859536907635629, -0.00025716700474731624, -0.00022838031873106956, -0.00019959364726673812, -0.00017080697580240667, -0.00014202030433807522, -0.00011323362559778616, -8.44469468574971e-05, -5.566027539316565e-05, -2.68736039288342e-05, 1.9130820874124765e-06, 3.0699753551743925e-05, 5.9486483223736286e-05, 8.827315468806773e-05, 0.0001170598334283568, 0.00014584651216864586, 0.0001746331836329773, 0.00020341985509730875, 0.00023220654111355543, 0.00026099319802597165, 0.00028977988404221833, 0.000318566570058465, 0.0003473532269708812, 0.0003761399129871279, 0.0004049265990033746, 0.0004337132559157908, 0.00046249994193203747, 0.0004912866279482841, 0.0005200732848607004, 0.0005488599417731166, 0.0005776466568931937, 0.0006064333138056099, 0.0006352199707180262, 0.0006640066858381033, 0.0006927933427505195, 0.0007215799996629357, 0.0007503667147830129, 0.0007791533716954291, 0.0008079400868155062, 0.0008367267437279224, 0.0008655134006403387, 0.0008943000575527549, 0.000923086772672832, 0.0009518734295852482, 0.0009806600864976645]}, "gradients/base.feature_norm.weight": {"_type": "histogram", "values": [1.0, 0.0, 0.0, 0.0, 1.0, 0.0, 0.0, 0.0, 0.0, 0.0, 1.0, 1.0, 0.0, 0.0, 0.0, 2.0, 0.0, 0.0, 1.0, 1.0, 1.0, 1.0, 0.0, 0.0, 1.0, 2.0, 2.0, 10.0, 19.0, 23.0, 20.0, 11.0, 3.0, 2.0, 1.0, 3.0, 2.0, 2.0, 0.0, 0.0, 0.0, 1.0, 1.0, 0.0, 0.0, 0.0, 0.0, 0.0, 0.0, 0.0, 0.0, 0.0, 0.0, 0.0, 0.0, 0.0, 0.0, 0.0, 0.0, 0.0, 0.0, 0.0, 0.0, 1.0], "bins": [-0.000540325534529984, -0.0005217553698457778, -0.0005031852051615715, -0.0004846150113735348, -0.0004660448175854981, -0.00044747465290129185, -0.0004289044882170856, -0.0004103342944290489, -0.0003917641006410122, -0.00037319393595680594, -0.00035462374216876924, -0.000336053577484563, -0.0003174833836965263, -0.00029891321901232004, -0.0002803430543281138, -0.0002617728605400771, -0.00024320269585587084, -0.00022463251661974937, -0.0002060623373836279, -0.00018749217269942164, -0.00016892197891138494, -0.0001503518142271787, -0.00013178163499105722, -0.00011321145575493574, -9.464127651881427e-05, -7.607109728269279e-05, -5.750092168455012e-05, -3.893074608640745e-05, -2.0360566850285977e-05, -1.7903876141645014e-06, 1.677978434599936e-05, 3.5349963582120836e-05, 5.392014281824231e-05, 7.249032205436379e-05, 9.106050129048526e-05, 0.00010963067325064912, 0.00012820085976272821, 0.00014677102444693446, 0.00016534120368305594, 0.0001839113829191774, 0.0002024815621552989, 0.00022105174139142036, 0.00023962192062754184, 0.0002581920998636633, 0.00027676226454786956, 0.00029533245833590627, 0.0003139026230201125, 0.00033247278770431876, 0.00035104298149235547, 0.0003696131461765617, 0.0003881833399645984, 0.00040675350464880466, 0.00042532369843684137, 0.0004438938631210476, 0.0004624640569090843, 0.00048103422159329057, 0.0004996043862774968, 0.0005181745509617031, 0.0005367447156459093, 0.0005553149385377765, 0.0005738851032219827, 0.000592455267906189, 0.0006110254325903952, 0.0006295955972746015, 0.0006481658201664686]}, "gradients/base.feature_norm.bias": {"_type": "histogram", "values": [1.0, 0.0, 0.0, 1.0, 0.0, 0.0, 0.0, 1.0, 1.0, 0.0, 0.0, 0.0, 0.0, 2.0, 0.0, 1.0, 1.0, 0.0, 3.0, 2.0, 7.0, 1.0, 2.0, 9.0, 3.0, 4.0, 8.0, 2.0, 5.0, 4.0, 6.0, 4.0, 9.0, 1.0, 4.0, 2.0, 5.0, 1.0, 6.0, 1.0, 5.0, 3.0, 1.0, 3.0, 1.0, 0.0, 0.0, 1.0, 0.0, 0.0, 0.0, 0.0, 0.0, 0.0, 0.0, 0.0, 0.0, 1.0, 0.0, 0.0, 1.0, 0.0, 0.0, 1.0], "bins": [-0.0002786114055197686, -0.00026988121680915356, -0.0002611510280985385, -0.0002524208393879235, -0.0002436906361253932, -0.00023496044741477817, -0.0002262302441522479, -0.00021750005544163287, -0.00020876986673101783, -0.0002000396780204028, -0.00019130948930978775, -0.00018257928604725748, -0.00017384909733664244, -0.0001651189086260274, -0.00015638870536349714, -0.0001476585166528821, -0.00013892832794226706, -0.00013019813923165202, -0.00012146794324507937, -0.00011273774725850672, -0.00010400755854789168, -9.527736983727664e-05, -8.654717385070398e-05, -7.781697786413133e-05, -6.908678915351629e-05, -6.0356596804922447e-05, -5.16264044563286e-05, -4.2896212107734755e-05, -3.416601975914091e-05, -2.5435827410547063e-05, -1.6705635061953217e-05, -7.975439075380564e-06, 7.547205314040184e-07, 9.484912879997864e-06, 1.821510522859171e-05, 2.6945297577185556e-05, 3.56754899257794e-05, 4.440568227437325e-05, 5.3135874622967094e-05, 6.186607060953975e-05, 7.059625932015479e-05, 7.932644803076982e-05, 8.805664401734248e-05, 9.678684000391513e-05, 0.00010551702871453017, 0.00011424721742514521, 0.00012297742068767548, 0.00013170760939829051, 0.00014043779810890555, 0.0001491679868195206, 0.00015789817553013563, 0.0001666283787926659, 0.00017535856750328094, 0.00018408875621389598, 0.00019281895947642624, 0.00020154914818704128, 0.00021027933689765632, 0.00021900952560827136, 0.0002277397143188864, 0.00023646991758141667, 0.00024520012084394693, 0.00025393030955456197, 0.000262660498265177, 0.00027139068697579205, 0.0002801208756864071]}, "gradients/graph_1v_out.bias": {"_type": "histogram", "values": [0.0, 0.0, 0.0, 0.0, 0.0, 0.0, 0.0, 0.0, 0.0, 0.0, 0.0, 0.0, 0.0, 0.0, 0.0, 0.0, 0.0, 0.0, 0.0, 0.0, 0.0, 0.0, 0.0, 0.0, 0.0, 0.0, 0.0, 0.0, 0.0, 0.0, 0.0, 0.0, 1.0, 0.0, 0.0, 0.0, 0.0, 0.0, 0.0, 0.0, 0.0, 0.0, 0.0, 0.0, 0.0, 0.0, 0.0, 0.0, 0.0, 0.0, 0.0, 0.0, 0.0, 0.0, 0.0, 0.0, 0.0, 0.0, 0.0, 0.0, 0.0, 0.0, 0.0, 0.0], "bins": [-0.000789012061432004, -0.000789012061432004, -0.000789012061432004, -0.000789012061432004, -0.000789012061432004, -0.000789012061432004, -0.000789012061432004, -0.000789012061432004, -0.000789012061432004, -0.000789012061432004, -0.000789012061432004, -0.000789012061432004, -0.000789012061432004, -0.000789012061432004, -0.000789012061432004, -0.000789012061432004, -0.000789012061432004, -0.000789012061432004, -0.000789012061432004, -0.000789012061432004, -0.000789012061432004, -0.000789012061432004, -0.000789012061432004, -0.000789012061432004, -0.000789012061432004, -0.000789012061432004, -0.000789012061432004, -0.000789012061432004, -0.000789012061432004, -0.000789012061432004, -0.000789012061432004, -0.000789012061432004, -0.000789012061432004, -0.000789012061432004, -0.000789012061432004, -0.000789012061432004, -0.000789012061432004, -0.000789012061432004, -0.000789012061432004, -0.000789012061432004, -0.000789012061432004, -0.000789012061432004, -0.000789012061432004, -0.000789012061432004, -0.000789012061432004, -0.000789012061432004, -0.000789012061432004, -0.000789012061432004, -0.000789012061432004, -0.000789012061432004, -0.000789012061432004, -0.000789012061432004, -0.000789012061432004, -0.000789012061432004, -0.000789012061432004, -0.000789012061432004, -0.000789012061432004, -0.000789012061432004, -0.000789012061432004, -0.000789012061432004, -0.000789012061432004, -0.000789012061432004, -0.000789012061432004, -0.000789012061432004, -0.000789012061432004]}, "gradients/graph_1v_out.weight": {"_type": "histogram", "values": [1.0, 0.0, 0.0, 0.0, 0.0, 0.0, 0.0, 0.0, 0.0, 0.0, 0.0, 1.0, 0.0, 0.0, 0.0, 0.0, 1.0, 0.0, 0.0, 0.0, 0.0, 2.0, 0.0, 1.0, 0.0, 0.0, 1.0, 1.0, 0.0, 2.0, 0.0, 0.0, 0.0, 0.0, 1.0, 1.0, 0.0, 0.0, 2.0, 1.0, 0.0, 0.0, 0.0, 2.0, 1.0, 2.0, 0.0, 1.0, 2.0, 2.0, 25.0, 5.0, 1.0, 0.0, 0.0, 1.0, 3.0, 1.0, 0.0, 0.0, 0.0, 0.0, 1.0, 2.0], "bins": [-0.005681329872459173, -0.005555965006351471, -0.005430599674582481, -0.005305234808474779, -0.005179869942367077, -0.005054504610598087, -0.004929139744490385, -0.004803774878382683, -0.004678409546613693, -0.004553044680505991, -0.004427679348737001, -0.004302314482629299, -0.004176949616521597, -0.004051584284752607, -0.003926219418644905, -0.003800854319706559, -0.003675489453598857, -0.003550124354660511, -0.0034247594885528088, -0.003299394389614463, -0.003174029290676117, -0.0030486644245684147, -0.0029232993256300688, -0.002797934226691723, -0.0026725693605840206, -0.0025472042616456747, -0.0024218393955379725, -0.0022964742965996265, -0.0021711091976612806, -0.0020457440987229347, -0.0019203792326152325, -0.0017950141336768866, -0.0016696490347385406, -0.0015442840522155166, -0.0014189189532771707, -0.0012935539707541466, -0.0011681888718158007, -0.0010428238892927766, -0.0009174589067697525, -0.0007920938660390675, -0.0006667288253083825, -0.0005413637845776975, -0.000415998772950843, -0.00029063376132398844, -0.00016526872059330344, -3.9903679862618446e-05, 8.546130266040564e-05, 0.00021082634339109063, 0.00033619138412177563, 0.0004615564248524606, 0.0005869214655831456, 0.0007122864481061697, 0.0008376514888368547, 0.0009630165295675397, 0.0010883815120905638, 0.0012137466110289097, 0.0013391115935519338, 0.0014644765760749578, 0.0015898416750133038, 0.0017152066575363278, 0.001840571640059352, 0.001965936738997698, 0.0020913016051054, 0.002216666704043746, 0.002342031802982092]}, "gradients/graph_1base.mlp.fc2.0.2.weight": {"_type": "histogram", "values": [2.0, 0.0, 0.0, 0.0, 1.0, 0.0, 0.0, 1.0, 0.0, 0.0, 0.0, 1.0, 1.0, 1.0, 0.0, 0.0, 2.0, 0.0, 2.0, 2.0, 3.0, 1.0, 1.0, 1.0, 4.0, 3.0, 4.0, 3.0, 6.0, 3.0, 1.0, 0.0, 4.0, 1.0, 2.0, 2.0, 6.0, 2.0, 0.0, 0.0, 0.0, 0.0, 0.0, 0.0, 0.0, 1.0, 1.0, 0.0, 0.0, 1.0, 0.0, 0.0, 0.0, 0.0, 0.0, 0.0, 0.0, 0.0, 0.0, 0.0, 0.0, 0.0, 0.0, 1.0], "bins": [-0.00037820436409674585, -0.0003649208811111748, -0.00035163736902177334, -0.00033835385693237185, -0.00032507037394680083, -0.0003117868909612298, -0.0002985033788718283, -0.00028521986678242683, -0.0002719363837968558, -0.0002586529008112848, -0.0002453693887218833, -0.00023208589118439704, -0.0002188023936469108, -0.00020551889610942453, -0.00019223539857193828, -0.00017895190103445202, -0.00016566840349696577, -0.0001523849059594795, -0.00013910140842199326, -0.000125817910884507, -0.00011253441334702075, -9.925091580953449e-05, -8.596741827204823e-05, -7.268392073456198e-05, -5.9400423197075725e-05, -4.611692565958947e-05, -3.2833428122103214e-05, -1.954993058461696e-05, -6.266433047130704e-06, 7.017064490355551e-06, 2.0300562027841806e-05, 3.358405956532806e-05, 4.686752799898386e-05, 6.0151025536470115e-05, 7.343452307395637e-05, 8.671802061144263e-05, 0.00010000151814892888, 0.00011328501568641514, 0.0001265685132239014, 0.00013985201076138765, 0.0001531355082988739, 0.00016641900583636016, 0.0001797025033738464, 0.00019298600091133267, 0.00020626949844881892, 0.00021955299598630518, 0.00023283649352379143, 0.00024611997650936246, 0.00025940348859876394, 0.0002726870006881654, 0.00028597048367373645, 0.0002992539666593075, 0.00031253747874870896, 0.00032582099083811045, 0.0003391044738236815, 0.0003523879568092525, 0.000365671468898654, 0.00037895498098805547, 0.0003922384639736265, 0.0004055219469591975, 0.000418805459048599, 0.0004320889711380005, 0.0004453724541235715, 0.00045865593710914254, 0.000471939449198544]}, "gradients/graph_1base.mlp.fc2.0.2.bias": {"_type": "histogram", "values": [3.0, 1.0, 1.0, 0.0, 0.0, 0.0, 1.0, 0.0, 0.0, 1.0, 1.0, 0.0, 2.0, 2.0, 1.0, 1.0, 2.0, 0.0, 2.0, 1.0, 0.0, 0.0, 2.0, 2.0, 1.0, 1.0, 2.0, 0.0, 1.0, 1.0, 0.0, 2.0, 5.0, 0.0, 1.0, 1.0, 2.0, 0.0, 2.0, 2.0, 1.0, 1.0, 1.0, 1.0, 1.0, 1.0, 2.0, 1.0, 0.0, 1.0, 1.0, 2.0, 0.0, 0.0, 0.0, 2.0, 0.0, 0.0, 1.0, 1.0, 1.0, 0.0, 0.0, 2.0], "bins": [-0.0001489415590185672, -0.0001434702571714297, -0.0001379989698762074, -0.0001325276680290699, -0.0001270563661819324, -0.00012158507161075249, -0.0001161137770395726, -0.00011064247519243509, -0.00010517118062125519, -9.969988605007529e-05, -9.422858420293778e-05, -8.875728963175789e-05, -8.328599506057799e-05, -7.781469321344048e-05, -7.234339864226058e-05, -6.687210407108068e-05, -6.140080222394317e-05, -5.592950401478447e-05, -5.0458205805625767e-05, -4.498691123444587e-05, -3.9515613025287166e-05, -3.404431481612846e-05, -2.8573020244948566e-05, -2.3101722035789862e-05, -1.763042382663116e-05, -1.2159126526967157e-05, -6.687829227303155e-06, -1.2165328371338546e-06, 4.254765372024849e-06, 9.726063581183553e-06, 1.519735815236345e-05, 2.0668656361522153e-05, 2.6139969122596085e-05, 3.161126733175479e-05, 3.708256554091349e-05, 4.255386011209339e-05, 4.802515832125209e-05, 5.3496456530410796e-05, 5.896775110159069e-05, 6.44390529487282e-05, 6.99103475199081e-05, 7.5381642091088e-05, 8.085294393822551e-05, 8.63242385094054e-05, 9.17955330805853e-05, 9.726683492772281e-05, 0.00010273812949890271, 0.0001082094240700826, 0.00011368072591722012, 0.00011915202048840001, 0.0001246233150595799, 0.00013009461690671742, 0.00013556591875385493, 0.00014103722060099244, 0.00014650850789621472, 0.00015197980974335223, 0.00015745111159048975, 0.00016292241343762726, 0.00016839370073284954, 0.00017386500257998705, 0.00017933630442712456, 0.00018480760627426207, 0.00019027889356948435, 0.00019575019541662186, 0.00020122148271184415]}, "gradients/graph_1base.mlp.fc2.0.0.bias": {"_type": "histogram", "values": [1.0, 0.0, 0.0, 1.0, 0.0, 1.0, 0.0, 0.0, 0.0, 0.0, 0.0, 0.0, 2.0, 0.0, 1.0, 0.0, 0.0, 0.0, 0.0, 0.0, 0.0, 0.0, 2.0, 0.0, 0.0, 1.0, 0.0, 1.0, 2.0, 0.0, 0.0, 2.0, 1.0, 2.0, 5.0, 5.0, 16.0, 2.0, 5.0, 5.0, 1.0, 2.0, 1.0, 2.0, 1.0, 0.0, 1.0, 0.0, 0.0, 0.0, 0.0, 0.0, 0.0, 0.0, 0.0, 0.0, 0.0, 0.0, 0.0, 0.0, 0.0, 0.0, 0.0, 1.0], "bins": [-0.0004817643202841282, -0.0004684698360506445, -0.00045517535181716084, -0.0004418808384798467, -0.00042858635424636304, -0.00041529187001287937, -0.00040199735667556524, -0.00038870287244208157, -0.0003754083882085979, -0.0003621139039751142, -0.00034881941974163055, -0.0003355249064043164, -0.00032223042217083275, -0.0003089359379373491, -0.00029564142460003495, -0.0002823469403665513, -0.0002690524561330676, -0.00025575797189958394, -0.00024246347311418504, -0.00022916897432878613, -0.00021587449009530246, -0.0002025800058618188, -0.0001892855070764199, -0.000175991008291021, -0.00016269652405753732, -0.00014940203982405365, -0.00013610754103865474, -0.00012281304225325584, -0.00010951855801977217, -9.622406651033089e-05, -8.29295750008896e-05, -6.963508349144831e-05, -5.634059198200703e-05, -4.304610047256574e-05, -2.9751608963124454e-05, -1.6457117453683168e-05, -3.1626259442418814e-06, 1.0131865565199405e-05, 2.342635707464069e-05, 3.672084858408198e-05, 5.0015340093523264e-05, 6.330983160296455e-05, 7.660432311240584e-05, 8.989881462184712e-05, 0.00010319330613128841, 0.0001164877976407297, 0.00012978228915017098, 0.00014307678793556988, 0.00015637127216905355, 0.00016966575640253723, 0.00018296025518793613, 0.00019625475397333503, 0.0002095492382068187, 0.00022284372244030237, 0.00023613822122570127, 0.0002494327200111002, 0.00026272720424458385, 0.0002760216884780675, 0.0002893161727115512, 0.0003026106860488653, 0.000315905170282349, 0.00032919965451583266, 0.0003424941678531468, 0.00035578865208663046, 0.00036908313632011414]}, "gradients/graph_1base.mlp.fc2.0.0.weight": {"_type": "histogram", "values": [1.0, 0.0, 0.0, 0.0, 0.0, 0.0, 1.0, 2.0, 1.0, 0.0, 1.0, 0.0, 2.0, 0.0, 1.0, 0.0, 2.0, 3.0, 4.0, 1.0, 4.0, 5.0, 5.0, 4.0, 3.0, 10.0, 10.0, 10.0, 8.0, 13.0, 19.0, 12.0, 27.0, 48.0, 47.0, 60.0, 136.0, 503.0, 2147.0, 340.0, 223.0, 98.0, 129.0, 67.0, 74.0, 24.0, 14.0, 8.0, 8.0, 7.0, 2.0, 3.0, 1.0, 0.0, 5.0, 0.0, 1.0, 0.0, 1.0, 0.0, 0.0, 0.0, 0.0, 1.0], "bins": [-0.001852960092946887, -0.001804823987185955, -0.0017566877650097013, -0.0017085516592487693, -0.0016604154370725155, -0.0016122793313115835, -0.0015641432255506516, -0.0015160070033743978, -0.001467870781198144, -0.001419734675437212, -0.0013715984532609582, -0.0013234623475000262, -0.0012753261253237724, -0.0012271900195628405, -0.0011790539138019085, -0.0011309176916256547, -0.0010827815858647227, -0.0010346454801037908, -0.000986509257927537, -0.000938373152166605, -0.0008902369299903512, -0.0008421008242294192, -0.0007939646602608263, -0.0007458284962922335, -0.0006976923323236406, -0.0006495561683550477, -0.0006014200043864548, -0.0005532838404178619, -0.00050514773465693, -0.00045701154158450663, -0.0004088754067197442, -0.0003607392427511513, -0.0003126029623672366, -0.00026446679839864373, -0.00021633064898196608, -0.00016819449956528842, -0.00012005833559669554, -7.192217162810266e-05, -2.3786036763340235e-05, 2.4350127205252647e-05, 7.248629117384553e-05, 0.0001206224478664808, 0.00016875860455911607, 0.00021689475397579372, 0.0002650309179443866, 0.0003131670819129795, 0.0003613032167777419, 0.0004094393807463348, 0.0004575755447149277, 0.0005057117086835206, 0.0005538478726521134, 0.0006019839784130454, 0.0006501202005892992, 0.0006982563063502312, 0.000746392470318824, 0.0007945286342874169, 0.0008426647982560098, 0.0008908009622246027, 0.0009389371261931956, 0.0009870732901617885, 0.0010352093959227204, 0.0010833456180989742, 0.0011314817238599062, 0.0011796178296208382, 0.001227754051797092]}, "gradients/graph_1base.mlp.fc1.2.weight": {"_type": "histogram", "values": [1.0, 0.0, 0.0, 0.0, 0.0, 0.0, 0.0, 1.0, 0.0, 0.0, 0.0, 0.0, 0.0, 0.0, 1.0, 0.0, 0.0, 0.0, 1.0, 0.0, 1.0, 2.0, 4.0, 1.0, 4.0, 5.0, 1.0, 5.0, 6.0, 5.0, 5.0, 2.0, 1.0, 3.0, 3.0, 2.0, 1.0, 3.0, 0.0, 0.0, 0.0, 0.0, 2.0, 0.0, 0.0, 1.0, 0.0, 0.0, 0.0, 1.0, 0.0, 0.0, 0.0, 0.0, 0.0, 0.0, 0.0, 0.0, 0.0, 0.0, 0.0, 0.0, 1.0, 1.0], "bins": [-0.0006426398758776486, -0.0006210292922332883, -0.000599418708588928, -0.0005778081249445677, -0.0005561975995078683, -0.000534587015863508, -0.0005129764322191477, -0.0004913658485747874, -0.00046975529403425753, -0.00044814471038989723, -0.0004265341558493674, -0.0004049235722050071, -0.00038331298856064677, -0.0003617024340201169, -0.0003400918503757566, -0.0003184812958352268, -0.00029687071219086647, -0.00027526012854650617, -0.0002536495740059763, -0.00023203899036161602, -0.00021042842126917094, -0.00018881785217672586, -0.00016720726853236556, -0.00014559669943992049, -0.0001239861303474754, -0.00010237556125503033, -8.076498488662764e-05, -5.9154408518224955e-05, -3.754383942577988e-05, -1.5933270333334804e-05, 5.6773133110255e-06, 2.7287882403470576e-05, 4.889839328825474e-05, 7.050896238069981e-05, 9.21195387491025e-05, 0.00011373011511750519, 0.00013534068420995027, 0.00015695125330239534, 0.00017856183694675565, 0.00020017240603920072, 0.0002217829751316458, 0.00024339354422409087, 0.00026500411331653595, 0.00028661469696089625, 0.00030822528060525656, 0.0003298358351457864, 0.0003514464187901467, 0.00037305697333067656, 0.00039466755697503686, 0.00041627814061939716, 0.000437888695159927, 0.0004594992788042873, 0.00048110983334481716, 0.0005027204169891775, 0.0005243310006335378, 0.0005459415842778981, 0.0005675521679222584, 0.0005891627515666187, 0.000610773335210979, 0.0006323838606476784, 0.0006539944442920387, 0.000675605027936399, 0.0006972156115807593, 0.0007188261952251196, 0.000740436720661819]}, "gradients/graph_1base.mlp.fc1.2.bias": {"_type": "histogram", "values": [1.0, 0.0, 0.0, 0.0, 0.0, 0.0, 1.0, 0.0, 1.0, 2.0, 1.0, 0.0, 0.0, 1.0, 1.0, 0.0, 1.0, 1.0, 1.0, 0.0, 0.0, 1.0, 3.0, 4.0, 3.0, 0.0, 3.0, 2.0, 1.0, 2.0, 2.0, 5.0, 4.0, 1.0, 1.0, 1.0, 4.0, 0.0, 0.0, 2.0, 2.0, 2.0, 0.0, 2.0, 2.0, 0.0, 0.0, 1.0, 1.0, 0.0, 0.0, 0.0, 0.0, 0.0, 0.0, 0.0, 0.0, 0.0, 0.0, 2.0, 0.0, 0.0, 0.0, 2.0], "bins": [-0.00041850318666547537, -0.00040395179530605674, -0.0003894004039466381, -0.00037484904169104993, -0.0003602976503316313, -0.00034574625897221267, -0.0003311948967166245, -0.00031664350535720587, -0.00030209211399778724, -0.0002875407226383686, -0.00027298933127895, -0.0002584379690233618, -0.00024388657766394317, -0.00022933518630452454, -0.00021478380949702114, -0.00020023243268951774, -0.0001856810413300991, -0.00017112964997068048, -0.00015657827316317707, -0.00014202689635567367, -0.00012747550499625504, -0.00011292412091279402, -9.837273682933301e-05, -8.382135274587199e-05, -6.926996866241097e-05, -5.471858457894996e-05, -4.016720049548894e-05, -2.5615816412027925e-05, -1.1064432328566909e-05, 3.4869517548941076e-06, 1.8038335838355124e-05, 3.258971992181614e-05, 4.714110400527716e-05, 6.169248808873817e-05, 7.624387217219919e-05, 9.07952562556602e-05, 0.00010534664033912122, 0.00011989802442258224, 0.00013444940850604326, 0.00014900078531354666, 0.0001635521766729653, 0.00017810356803238392, 0.00019265494483988732, 0.00020720632164739072, 0.00022175771300680935, 0.00023630910436622798, 0.00025086046662181616, 0.0002654118579812348, 0.0002799632493406534, 0.00029451464070007205, 0.0003090660320594907, 0.00032361739431507885, 0.0003381687856744975, 0.0003527201770339161, 0.0003672715392895043, 0.0003818229306489229, 0.00039637432200834155, 0.0004109257133677602, 0.0004254771047271788, 0.000440028466982767, 0.0004545798583421856, 0.00046913124970160425, 0.0004836826119571924, 0.000498234003316611, 0.0005127853946760297]}, "gradients/graph_1base.mlp.fc1.0.bias": {"_type": "histogram", "values": [1.0, 0.0, 0.0, 0.0, 0.0, 0.0, 0.0, 1.0, 0.0, 0.0, 0.0, 0.0, 1.0, 0.0, 2.0, 0.0, 0.0, 0.0, 1.0, 2.0, 1.0, 0.0, 1.0, 3.0, 4.0, 2.0, 7.0, 11.0, 6.0, 7.0, 1.0, 2.0, 0.0, 1.0, 1.0, 0.0, 0.0, 0.0, 2.0, 1.0, 0.0, 1.0, 1.0, 0.0, 0.0, 1.0, 0.0, 0.0, 0.0, 0.0, 0.0, 0.0, 0.0, 0.0, 1.0, 0.0, 0.0, 0.0, 0.0, 0.0, 1.0, 0.0, 0.0, 1.0], "bins": [-0.00020308842067606747, -0.00019577368220780045, -0.0001884589291876182, -0.00018114419071935117, -0.00017382945225108415, -0.00016651471378281713, -0.00015919996076263487, -0.00015188522229436785, -0.00014457048382610083, -0.0001372557453578338, -0.00012994099233765155, -0.00012262625386938453, -0.0001153115154011175, -0.00010799676965689287, -0.00010068202391266823, -9.33672854444012e-05, -8.605253242421895e-05, -7.873778667999431e-05, -7.142304821172729e-05, -6.410830246750265e-05, -5.679356036125682e-05, -4.947881825501099e-05, -4.2164072510786355e-05, -3.4849330404540524e-05, -2.7534588298294693e-05, -2.0219846192048863e-05, -1.2905102266813628e-05, -5.590358341578394e-06, 1.7243837646674365e-06, 9.039125870913267e-06, 1.6353871615137905e-05, 2.3668613721383736e-05, 3.0983355827629566e-05, 3.82980979338754e-05, 4.561284004012123e-05, 5.2927585784345865e-05, 6.0242327890591696e-05, 6.755706999683753e-05, 7.487181574106216e-05, 8.218655420932919e-05, 8.950129995355383e-05, 9.681604569777846e-05, 0.00010413078416604549, 0.00011144552991027012, 0.00011876027565449476, 0.00012607501412276179, 0.0001333897525910288, 0.00014070450561121106, 0.00014801924407947809, 0.0001553339825477451, 0.00016264873556792736, 0.00016996347403619438, 0.0001772782125044614, 0.00018459296552464366, 0.00019190770399291068, 0.0001992224424611777, 0.00020653719548135996, 0.00021385193394962698, 0.00022116668696980923, 0.00022848142543807626, 0.00023579616390634328, 0.0002431109023746103, 0.00025042565539479256, 0.0002577404084149748, 0.0002650551323313266]}, "gradients/graph_1base.mlp.fc1.0.weight": {"_type": "histogram", "values": [1.0, 1.0, 0.0, 0.0, 0.0, 0.0, 2.0, 0.0, 0.0, 0.0, 4.0, 1.0, 0.0, 0.0, 0.0, 0.0, 4.0, 1.0, 2.0, 3.0, 5.0, 0.0, 5.0, 3.0, 4.0, 33.0, 86.0, 385.0, 1037.0, 32730.0, 16034.0, 951.0, 302.0, 108.0, 71.0, 14.0, 22.0, 5.0, 1.0, 8.0, 2.0, 0.0, 1.0, 2.0, 1.0, 0.0, 1.0, 1.0, 0.0, 1.0, 0.0, 0.0, 2.0, 2.0, 0.0, 1.0, 0.0, 0.0, 1.0, 0.0, 0.0, 0.0, 1.0, 1.0], "bins": [-0.0034331106580793858, -0.0033185742795467377, -0.0032040381338447332, -0.003089501755312085, -0.002974965376779437, -0.0028604292310774326, -0.0027458928525447845, -0.0026313564740121365, -0.0025168200954794884, -0.0024022837169468403, -0.002287747571244836, -0.0021732111927121878, -0.0020586748141795397, -0.0019441385520622134, -0.0018296022899448872, -0.001715065911412239, -0.0016005296492949128, -0.0014859933871775866, -0.0013714570086449385, -0.0012569207465276122, -0.0011423843679949641, -0.0010278481058776379, -0.0009133117855526507, -0.0007987754652276635, -0.0006842391449026763, -0.0005697028245776892, -0.000455166504252702, -0.0003406302130315453, -0.0002260938927065581, -0.00011155760148540139, 2.978718839585781e-06, 0.00011751503916457295, 0.00023205135948956013, 0.0003465876798145473, 0.0004611240001395345, 0.0005756602622568607, 0.0006901966407895088, 0.0008047329029068351, 0.0009192692232318223, 0.0010338055435568094, 0.0011483419220894575, 0.0012628781842067838, 0.0013774145627394319, 0.0014919508248567581, 0.0016064872033894062, 0.0017210234655067325, 0.0018355597276240587, 0.0019500961061567068, 0.0020646322518587112, 0.0021791686303913593, 0.0022937047760933638, 0.002408241154626012, 0.00252277753315866, 0.0026373136788606644, 0.0027518500573933125, 0.0028663864359259605, 0.0029809228144586086, 0.0030954591929912567, 0.003209995338693261, 0.0033245317172259092, 0.0034390680957585573, 0.0035536042414605618, 0.00366814061999321, 0.003782676998525858, 0.003897213377058506]}, "gradients/graph_1base.feature_norm.weight": {"_type": "histogram", "values": [1.0, 0.0, 0.0, 0.0, 0.0, 0.0, 0.0, 0.0, 0.0, 0.0, 0.0, 0.0, 0.0, 0.0, 0.0, 0.0, 0.0, 0.0, 0.0, 0.0, 0.0, 0.0, 0.0, 1.0, 0.0, 0.0, 0.0, 0.0, 0.0, 0.0, 1.0, 0.0, 1.0, 0.0, 0.0, 0.0, 0.0, 0.0, 2.0, 1.0, 3.0, 2.0, 1.0, 1.0, 8.0, 11.0, 10.0, 30.0, 107.0, 284.0, 210.0, 74.0, 28.0, 13.0, 8.0, 4.0, 2.0, 3.0, 0.0, 0.0, 1.0, 0.0, 1.0, 2.0], "bins": [-0.0006076904246583581, -0.000595464080106467, -0.0005832377355545759, -0.0005710113910026848, -0.0005587850464507937, -0.0005465587018989027, -0.0005343323573470116, -0.0005221060710027814, -0.0005098796682432294, -0.0004976533236913383, -0.0004854269791394472, -0.0004732006345875561, -0.00046097429003566504, -0.00044874794548377395, -0.0004365216300357133, -0.0004242952854838222, -0.0004120689700357616, -0.0003998426254838705, -0.0003876162809319794, -0.00037538993638008833, -0.00036316359182819724, -0.00035093724727630615, -0.0003387109318282455, -0.00032648458727635443, -0.00031425824272446334, -0.00030203189817257226, -0.00028980555362068117, -0.0002775792090687901, -0.00026535289362072945, -0.00025312654906883836, -0.00024090020451694727, -0.00022867385996505618, -0.0002164475154131651, -0.000204221170861274, -0.00019199482630938292, -0.00017976849630940706, -0.00016754215175751597, -0.00015531580720562488, -0.00014308947720564902, -0.00013086313265375793, -0.00011863678810186684, -0.00010641044354997575, -9.418410627404228e-05, -8.19577689981088e-05, -6.973142444621772e-05, -5.750507989432663e-05, -4.527874261839315e-05, -3.305240534245968e-05, -2.082606079056859e-05, -8.599719876656309e-06, 3.6266210372559726e-06, 1.5852961951168254e-05, 2.8079302865080535e-05, 4.0305647416971624e-05, 5.25319846929051e-05, 6.475832196883857e-05, 7.698466652072966e-05, 8.921101107262075e-05, 0.00010143734834855422, 0.0001136636856244877, 0.0001258900301763788, 0.00013811637472826988, 0.00015034270472824574, 0.00016256904928013682, 0.0001747953938320279]}, "gradients/graph_1base.feature_norm.bias": {"_type": "histogram", "values": [1.0, 1.0, 0.0, 1.0, 2.0, 2.0, 3.0, 2.0, 2.0, 3.0, 3.0, 5.0, 5.0, 7.0, 10.0, 16.0, 9.0, 15.0, 15.0, 6.0, 16.0, 24.0, 22.0, 20.0, 21.0, 25.0, 24.0, 33.0, 23.0, 32.0, 32.0, 41.0, 29.0, 37.0, 31.0, 31.0, 31.0, 26.0, 20.0, 22.0, 21.0, 22.0, 10.0, 23.0, 14.0, 11.0, 10.0, 4.0, 12.0, 2.0, 3.0, 7.0, 5.0, 4.0, 3.0, 3.0, 0.0, 3.0, 0.0, 0.0, 2.0, 1.0, 1.0, 1.0], "bins": [-9.187510295305401e-05, -8.905027789296582e-05, -8.622545283287764e-05, -8.340062049683183e-05, -8.057579543674365e-05, -7.775097037665546e-05, -7.492614531656727e-05, -7.210132025647908e-05, -6.92764951963909e-05, -6.645167013630271e-05, -6.362684507621452e-05, -6.080201637814753e-05, -5.797719131805934e-05, -5.5152362619992346e-05, -5.232753755990416e-05, -4.950271249981597e-05, -4.6677883801748976e-05, -4.385305874166079e-05, -4.1028230043593794e-05, -3.820340498350561e-05, -3.537857992341742e-05, -3.255375486332923e-05, -2.9728926165262237e-05, -2.690410110517405e-05, -2.407927422609646e-05, -2.1254447347018868e-05, -1.842962228693068e-05, -1.560479540785309e-05, -1.27799694382702e-05, -9.95514346868731e-06, -7.13031658960972e-06, -4.305491529521532e-06, -1.4806646504439414e-06, 1.3441615465126233e-06, 4.168987743469188e-06, 6.993814167799428e-06, 9.818640137382317e-06, 1.2643466106965207e-05, 1.5468292986042798e-05, 1.8293118046130985e-05, 2.1117944925208576e-05, 2.3942771804286167e-05, 2.6767596864374354e-05, 2.9592423743451945e-05, 3.2417250622529536e-05, 3.5242075682617724e-05, 3.806690074270591e-05, 4.08917258027941e-05, 4.3716554500861093e-05, 4.654137956094928e-05, 4.9366208259016275e-05, 5.219103331910446e-05, 5.501585837919265e-05, 5.784068343928084e-05, 6.066551213734783e-05, 6.349034083541483e-05, 6.631516589550301e-05, 6.91399909555912e-05, 7.196481601567939e-05, 7.478964107576758e-05, 7.761447341181338e-05, 8.043929847190157e-05, 8.326412353198975e-05, 8.608894859207794e-05, 8.891377365216613e-05]}, "_wandb": {"runtime": 13173}}