{"value_loss": 0.25637994408607484, "_timestamp": 1665164947.839238, "_runtime": 10533.751724004745, "policy_loss": -0.0002532267490799711, "dist_entropy": 0.9828882575035095, "actor_grad_norm": 0.04279143735766411, "critic_grad_norm": 0.4813593327999115, "ratio": 1.0000275373458862, "sm3_ratio_mean": 0.08397534013605217, "drop_ratio_mean": 0.01487549202816294, "drop_ratio_std": 0.11800313496099693, "drop_ratio_min": 0.0, "drop_ratio_max": 0.99999950000025, "ue_drop_ratio_mean": 0.011494700061074876, "ue_drop_ratio_std": 0.09416273493849744, "ue_drop_ratio_min": 0.0, "ue_drop_ratio_max": 0.99999950000025, "delay_ratio_mean": 0.08908515012931567, "delay_ratio_std": 0.1232001948386519, "delay_ratio_min": 0.0, "delay_ratio_max": 0.9999990000010001, "qos_reward_mean": -0.007267444950576091, "qos_reward_std": 0.08481062119411903, "qos_reward_min": -0.99999950000025, "qos_reward_max": 0.004916661829477697, "pc_mean": 234.6890869140625, "pc_std": 42.38371276855469, "pc_min": 132.4207305908203, "pc_max": 721.0580444335938, "reward_mean": -0.2637588549017045, "reward_std": 0.3405552299036136, "reward_min": -4.307830075931735, "reward_max": -0.13242073059082032, "_step": 2520000, "gradients/act.action_outs.2.linear.bias": {"_type": "histogram", "values": [1.0, 0.0, 0.0, 0.0, 0.0, 0.0, 0.0, 0.0, 0.0, 0.0, 0.0, 0.0, 0.0, 0.0, 0.0, 0.0, 0.0, 0.0, 0.0, 0.0, 0.0, 0.0, 0.0, 0.0, 0.0, 0.0, 0.0, 0.0, 0.0, 0.0, 0.0, 0.0, 0.0, 0.0, 0.0, 0.0, 0.0, 0.0, 0.0, 0.0, 0.0, 0.0, 0.0, 0.0, 0.0, 0.0, 0.0, 0.0, 1.0, 0.0, 0.0, 0.0, 0.0, 0.0, 0.0, 0.0, 0.0, 0.0, 0.0, 0.0, 0.0, 0.0, 0.0, 1.0], "bins": [-0.0015643670922145247, -0.0015225079841911793, -0.0014806488761678338, -0.0014387897681444883, -0.0013969306601211429, -0.0013550715520977974, -0.00131321232765913, -0.0012713533360511065, -0.0012294941116124392, -0.0011876350035890937, -0.0011457758955657482, -0.0011039167875424027, -0.0010620576795190573, -0.0010201985714957118, -0.0009783394634723663, -0.00093648029724136, -0.0008946212474256754, -0.0008527621394023299, -0.0008109030313789845, -0.000769043923355639, -0.0007271848153322935, -0.000685325707308948, -0.0006434665410779417, -0.0006016074330545962, -0.0005597483250312507, -0.0005178892170079052, -0.0004760301089845598, -0.00043417097185738385, -0.0003923118638340384, -0.0003504527558106929, -0.000308593618683517, -0.0002667345106601715, -0.00022487551905214787, -0.0001830164110288024, -0.0001411572884535417, -9.9298165878281e-05, -5.743905785493553e-05, -1.5579949831590056e-05, 2.627918729558587e-05, 6.813829531893134e-05, 0.00010999740334227681, 0.00015185651136562228, 0.00019371563394088298, 0.00023557475651614368, 0.00027743386453948915, 0.0003192929725628346, 0.00036115210969001055, 0.000403011217713356, 0.0004448703257367015, 0.00048672943376004696, 0.0005285885417833924, 0.0005704476498067379, 0.0006123067578300834, 0.0006541658658534288, 0.0006960250320844352, 0.0007378841401077807, 0.0007797432481311262, 0.0008216023561544716, 0.0008634614641778171, 0.0009053206304088235, 0.000947179738432169, 0.0009890388464555144, 0.00103089795447886, 0.0010727570625022054, 0.0011146161705255508]}, "gradients/act.action_outs.2.linear.weight": {"_type": "histogram", "values": [1.0, 0.0, 0.0, 1.0, 0.0, 0.0, 0.0, 0.0, 0.0, 0.0, 1.0, 0.0, 0.0, 1.0, 0.0, 1.0, 0.0, 0.0, 0.0, 0.0, 0.0, 1.0, 1.0, 0.0, 0.0, 1.0, 0.0, 0.0, 0.0, 1.0, 2.0, 1.0, 1.0, 39.0, 5.0, 42.0, 12.0, 6.0, 6.0, 7.0, 3.0, 35.0, 10.0, 2.0, 1.0, 3.0, 1.0, 1.0, 1.0, 0.0, 0.0, 0.0, 1.0, 1.0, 0.0, 0.0, 1.0, 0.0, 0.0, 0.0, 1.0, 0.0, 0.0, 1.0], "bins": [-0.0060800714418292046, -0.0059162224642932415, -0.005752373952418566, -0.005588524974882603, -0.005424676463007927, -0.005260827485471964, -0.005096978507936001, -0.004933129996061325, -0.004769281484186649, -0.004605432506650686, -0.0044415839947760105, -0.0042777350172400475, -0.004113886505365372, -0.003950037527829409, -0.0037861887831240892, -0.00362234003841877, -0.0034584910608828068, -0.0032946423161774874, -0.003130793571472168, -0.002966944593936205, -0.002803096082061529, -0.002639247104525566, -0.0024753983598202467, -0.0023115496151149273, -0.002147700870409608, -0.0019838521257042885, -0.001820003380998969, -0.0016561545198783278, -0.0014923057751730084, -0.001328457030467689, -0.0011646081693470478, -0.0010007594246417284, -0.000836910679936409, -0.0006730619352310896, -0.0005092131323181093, -0.00034536432940512896, -0.00018151558469980955, -1.7666839994490147e-05, 0.00014618202112615108, 0.0003100307658314705, 0.0004738795105367899, 0.0006377282552421093, 0.0008015770581550896, 0.0009654258610680699, 0.0011292746057733893, 0.0012931233504787087, 0.00145697221159935, 0.0016208209563046694, 0.0017846697010099888, 0.0019485184457153082, 0.0021123671904206276, 0.0022762161679565907, 0.0024400646798312664, 0.0026039136573672295, 0.002767762402072549, 0.0029316111467778683, 0.0030954598914831877, 0.003259308636188507, 0.0034231573808938265, 0.003587006125599146, 0.003750855103135109, 0.003914703615009785, 0.004078552592545748, 0.004242401570081711, 0.0044062500819563866]}, "gradients/act.action_outs.1.linear.bias": {"_type": "histogram", "values": [1.0, 0.0, 0.0, 0.0, 0.0, 0.0, 0.0, 0.0, 0.0, 0.0, 0.0, 0.0, 0.0, 0.0, 0.0, 0.0, 0.0, 0.0, 0.0, 0.0, 0.0, 1.0, 0.0, 0.0, 0.0, 0.0, 0.0, 0.0, 0.0, 0.0, 0.0, 0.0, 0.0, 0.0, 0.0, 0.0, 1.0, 0.0, 0.0, 0.0, 0.0, 0.0, 0.0, 0.0, 0.0, 0.0, 0.0, 0.0, 0.0, 0.0, 0.0, 0.0, 0.0, 0.0, 0.0, 0.0, 0.0, 0.0, 0.0, 0.0, 0.0, 0.0, 0.0, 1.0], "bins": [-0.002051393035799265, -0.00198422116227448, -0.0019170494051650167, -0.0018498775316402316, -0.0017827057745307684, -0.0017155339010059834, -0.0016483620274811983, -0.0015811901539564133, -0.00151401839684695, -0.001446846523322165, -0.0013796747662127018, -0.0013125028926879168, -0.0012453310191631317, -0.0011781592620536685, -0.0011109873885288835, -0.0010438156314194202, -0.0009766437578946352, -0.0009094719425775111, -0.0008423001272603869, -0.0007751282537356019, -0.0007079564384184778, -0.0006407846231013536, -0.0005736127495765686, -0.0005064409342594445, -0.00043926911894232035, -0.0003720973036251962, -0.00030492545920424163, -0.00023775362933520228, -0.00017058179946616292, -0.00010340998414903879, -3.6238139728084207e-05, 3.093370469287038e-05, 9.810528717935085e-05, 0.0001652771170483902, 0.00023244894691742957, 0.00029962079133838415, 0.0003667926066555083, 0.0004339644219726324, 0.0005011362954974174, 0.0005683081108145416, 0.0006354799261316657, 0.0007026517414487898, 0.000769823556765914, 0.000836995430290699, 0.0009041672456078231, 0.0009713390609249473, 0.0010385109344497323, 0.0011056826915591955, 0.0011728545650839806, 0.0012400264386087656, 0.0013071981957182288, 0.0013743700692430139, 0.001441541826352477, 0.0015087136998772621, 0.0015758855734020472, 0.0016430574469268322, 0.0017102292040362954, 0.0017774010775610805, 0.0018445728346705437, 0.0019117447081953287, 0.0019789165817201138, 0.002046088222414255, 0.00211326009593904, 0.0021804319694638252, 0.0022476038429886103]}, "gradients/act.action_outs.1.linear.weight": {"_type": "histogram", "values": [1.0, 0.0, 0.0, 0.0, 1.0, 0.0, 0.0, 0.0, 0.0, 1.0, 1.0, 0.0, 0.0, 0.0, 0.0, 1.0, 0.0, 0.0, 1.0, 0.0, 1.0, 0.0, 0.0, 3.0, 3.0, 2.0, 13.0, 34.0, 5.0, 6.0, 53.0, 14.0, 48.0, 5.0, 33.0, 16.0, 2.0, 2.0, 1.0, 2.0, 0.0, 1.0, 0.0, 1.0, 0.0, 0.0, 0.0, 0.0, 0.0, 0.0, 0.0, 1.0, 0.0, 1.0, 0.0, 1.0, 0.0, 0.0, 0.0, 1.0, 0.0, 0.0, 0.0, 1.0], "bins": [-0.008320679888129234, -0.00805431418120861, -0.007787947542965412, -0.007521581836044788, -0.007255215663462877, -0.006988849490880966, -0.006722483783960342, -0.006456117611378431, -0.00618975143879652, -0.005923385266214609, -0.005657019093632698, -0.005390653386712074, -0.005124287214130163, -0.004857921041548252, -0.004591555334627628, -0.004325189162045717, -0.004058822989463806, -0.003792456816881895, -0.0035260908771306276, -0.00325972493737936, -0.002993358764797449, -0.002726992592215538, -0.0024606266524642706, -0.002194260712713003, -0.001927894540131092, -0.0016615284839645028, -0.0013951624277979136, -0.0011287963716313243, -0.000862430315464735, -0.0005960642592981458, -0.0003296982031315565, -6.333214696496725e-05, 0.0002030329778790474, 0.00046939903404563665, 0.0007357650902122259, 0.0010021311463788152, 0.0012684972025454044, 0.0015348632587119937, 0.001801229314878583, 0.0020675952546298504, 0.0023339614272117615, 0.0026003275997936726, 0.00286669353954494, 0.0031330594792962074, 0.0033994256518781185, 0.0036657918244600296, 0.003932157531380653, 0.0041985237039625645, 0.0044648898765444756, 0.004731256049126387, 0.004997622221708298, 0.0052639879286289215, 0.005530354101210833, 0.005796720273792744, 0.0060630859807133675, 0.0063294521532952785, 0.00659581832587719, 0.006862184498459101, 0.007128550671041012, 0.007394916377961636, 0.007661282550543547, 0.007927648723125458, 0.008194014430046082, 0.00846038106828928, 0.008726746775209904]}, "gradients/act.action_outs.0.linear.bias": {"_type": "histogram", "values": [1.0, 0.0, 0.0, 0.0, 0.0, 0.0, 0.0, 0.0, 0.0, 0.0, 0.0, 0.0, 0.0, 0.0, 0.0, 0.0, 0.0, 0.0, 0.0, 0.0, 0.0, 0.0, 0.0, 0.0, 0.0, 0.0, 0.0, 0.0, 0.0, 0.0, 0.0, 0.0, 0.0, 0.0, 0.0, 0.0, 0.0, 0.0, 0.0, 0.0, 0.0, 0.0, 0.0, 0.0, 0.0, 0.0, 0.0, 1.0, 0.0, 0.0, 0.0, 0.0, 0.0, 0.0, 0.0, 0.0, 0.0, 0.0, 0.0, 0.0, 0.0, 0.0, 0.0, 1.0], "bins": [-0.002960527315735817, -0.002880783285945654, -0.0028010394889861345, -0.0027212954591959715, -0.002641551662236452, -0.002561807632446289, -0.0024820638354867697, -0.0024023198056966066, -0.0023225760087370872, -0.002242831978946924, -0.002163088181987405, -0.0020833441521972418, -0.0020036003552377224, -0.0019238563254475594, -0.0018441124120727181, -0.001764368498697877, -0.0016846244689077139, -0.0016048805555328727, -0.0015251366421580315, -0.0014453927287831903, -0.001365648815408349, -0.001285904785618186, -0.0012061608722433448, -0.0011264169588685036, -0.0010466730454936624, -0.0009669291321188211, -0.0008871852187439799, -0.0008074412471614778, -0.0007276973337866366, -0.0006479534204117954, -0.0005682094488292933, -0.000488465535454452, -0.00040872138924896717, -0.00032897747587412596, -0.0002492335333954543, -0.00016948960546869785, -8.97456775419414e-05, -1.0001764167100191e-05, 6.974217831157148e-05, 0.00014948612079024315, 0.00022923003416508436, 0.0003089739475399256, 0.00038871789001859725, 0.0004684618324972689, 0.0005482057458721101, 0.0006279496592469513, 0.0007076936308294535, 0.0007874375442042947, 0.0008671814575791359, 0.0009469253709539771, 0.0010266692843288183, 0.0011064131977036595, 0.0011861571110785007, 0.0012659011408686638, 0.001345645054243505, 0.0014253889676183462, 0.0015051328809931874, 0.0015848767943680286, 0.0016646207077428699, 0.001744364621117711, 0.001824108650907874, 0.0019038524478673935, 0.0019835964776575565, 0.0020633405074477196, 0.002143084304407239]}, "gradients/act.action_outs.0.linear.weight": {"_type": "histogram", "values": [1.0, 0.0, 1.0, 0.0, 0.0, 0.0, 0.0, 0.0, 0.0, 1.0, 0.0, 1.0, 0.0, 0.0, 0.0, 0.0, 1.0, 0.0, 0.0, 0.0, 0.0, 0.0, 0.0, 1.0, 1.0, 1.0, 0.0, 0.0, 1.0, 0.0, 1.0, 2.0, 1.0, 29.0, 16.0, 5.0, 44.0, 8.0, 5.0, 4.0, 8.0, 9.0, 37.0, 1.0, 2.0, 1.0, 1.0, 3.0, 1.0, 0.0, 0.0, 0.0, 0.0, 1.0, 0.0, 0.0, 1.0, 0.0, 1.0, 0.0, 0.0, 0.0, 1.0, 1.0], "bins": [-0.011322155594825745, -0.011020108126103878, -0.010718060657382011, -0.01041601225733757, -0.010113964788615704, -0.009811917319893837, -0.00950986985117197, -0.009207822382450104, -0.008905773982405663, -0.008603726513683796, -0.00830167904496193, -0.007999630644917488, -0.0076975831761956215, -0.007395535707473755, -0.007093488238751888, -0.006791440770030022, -0.006489393301308155, -0.0061873458325862885, -0.0058852978982031345, -0.005583250429481268, -0.005281202495098114, -0.004979155026376247, -0.004677107557654381, -0.004375060088932514, -0.00407301215454936, -0.00377096445299685, -0.0034689167514443398, -0.003166869282722473, -0.002864821581169963, -0.0025627738796174526, -0.002260726410895586, -0.0019586787093430758, -0.0016566300764679909, -0.0013545823749154806, -0.0010525347897782922, -0.0007504871464334428, -0.0004484395030885935, -0.00014639180153608322, 0.0001556557836011052, 0.00045770336873829365, 0.0007597510702908039, 0.0010617987718433142, 0.0013638463569805026, 0.001665893942117691, 0.0019679416436702013, 0.0022699893452227116, 0.002572036813944578, 0.0028740845154970884, 0.0031761322170495987, 0.003478179918602109, 0.0037802276201546192, 0.004082275088876486, 0.00438432302325964, 0.004686370491981506, 0.004988417960703373, 0.0052904654294252396, 0.0055925133638083935, 0.00589456083253026, 0.006196608766913414, 0.006498656235635281, 0.006800703704357147, 0.007102751638740301, 0.007404799107462168, 0.007706847041845322, 0.008008894510567188]}, "gradients/base.mlp.fc2.0.2.weight": {"_type": "histogram", "values": [1.0, 0.0, 0.0, 1.0, 0.0, 0.0, 1.0, 0.0, 0.0, 1.0, 0.0, 0.0, 0.0, 1.0, 0.0, 0.0, 0.0, 0.0, 0.0, 1.0, 0.0, 0.0, 1.0, 0.0, 1.0, 2.0, 1.0, 1.0, 2.0, 2.0, 3.0, 5.0, 3.0, 3.0, 3.0, 3.0, 4.0, 3.0, 2.0, 2.0, 2.0, 2.0, 4.0, 0.0, 1.0, 0.0, 1.0, 2.0, 0.0, 0.0, 0.0, 0.0, 0.0, 1.0, 1.0, 0.0, 0.0, 0.0, 0.0, 1.0, 0.0, 0.0, 1.0, 1.0], "bins": [-9.036010305862874e-05, -8.770061685936525e-05, -8.504113066010177e-05, -8.238163718488067e-05, -7.972215098561719e-05, -7.706266478635371e-05, -7.440317131113261e-05, -7.174368511186913e-05, -6.908419891260564e-05, -6.642471271334216e-05, -6.376522651407868e-05, -6.110573303885758e-05, -5.8446246839594096e-05, -5.578676064033061e-05, -5.312727080308832e-05, -5.046778096584603e-05, -4.780829476658255e-05, -4.5148808567319065e-05, -4.2489318730076775e-05, -3.9829828892834485e-05, -3.7170342693571e-05, -3.451085649430752e-05, -3.185136665706523e-05, -2.919187863881234e-05, -2.6532390620559454e-05, -2.3872902602306567e-05, -2.121341458405368e-05, -1.8553926565800793e-05, -1.5894438547547907e-05, -1.323495052929502e-05, -1.0575462511042133e-05, -7.915974492789246e-06, -5.256479198578745e-06, -2.5969911803258583e-06, 6.249683792702854e-08, 2.7219848561799154e-06, 5.381472874432802e-06, 8.040960892685689e-06, 1.0700448910938576e-05, 1.3359936929191463e-05, 1.601942494744435e-05, 1.8678912965697236e-05, 2.1338400983950123e-05, 2.399788900220301e-05, 2.6657377020455897e-05, 2.9316865038708784e-05, 3.197635305696167e-05, 3.463584289420396e-05, 3.7295329093467444e-05, 3.995481529273093e-05, 4.261430512997322e-05, 4.527379496721551e-05, 4.793328116647899e-05, 5.0592767365742475e-05, 5.3252257202984765e-05, 5.5911747040227056e-05, 5.857123323949054e-05, 6.123071943875402e-05, 6.389021291397512e-05, 6.65496991132386e-05, 6.920918531250209e-05, 7.186867151176557e-05, 7.452815771102905e-05, 7.718765118625015e-05, 7.984713738551363e-05]}, "gradients/base.mlp.fc2.0.2.bias": {"_type": "histogram", "values": [1.0, 0.0, 0.0, 1.0, 0.0, 0.0, 1.0, 1.0, 0.0, 0.0, 0.0, 1.0, 1.0, 3.0, 3.0, 1.0, 1.0, 2.0, 3.0, 0.0, 3.0, 1.0, 2.0, 0.0, 2.0, 4.0, 2.0, 1.0, 2.0, 3.0, 4.0, 2.0, 1.0, 0.0, 3.0, 3.0, 2.0, 0.0, 1.0, 1.0, 0.0, 0.0, 1.0, 1.0, 1.0, 0.0, 0.0, 1.0, 0.0, 0.0, 0.0, 0.0, 1.0, 0.0, 1.0, 0.0, 0.0, 0.0, 0.0, 0.0, 0.0, 0.0, 0.0, 2.0], "bins": [-9.239822975359857e-05, -8.893729682313278e-05, -8.5476363892667e-05, -8.201543096220121e-05, -7.855449803173542e-05, -7.509355782531202e-05, -7.163262489484623e-05, -6.817169196438044e-05, -6.471075903391466e-05, -6.124982610344887e-05, -5.778889317298308e-05, -5.4327956604538485e-05, -5.08670236740727e-05, -4.740609074360691e-05, -4.3945154175162315e-05, -4.048422124469653e-05, -3.702328831423074e-05, -3.356235538376495e-05, -3.010142063430976e-05, -2.664048588485457e-05, -2.3179552954388782e-05, -1.9718620023922995e-05, -1.6257685274467804e-05, -1.2796750525012612e-05, -9.335817594546825e-06, -5.874883754586335e-06, -2.413949914625846e-06, 1.0469839253346436e-06, 4.507917765295133e-06, 7.96885069576092e-06, 1.1429785445216112e-05, 1.4890720194671303e-05, 1.835165312513709e-05, 2.181258605560288e-05, 2.527352080505807e-05, 2.873445555451326e-05, 3.219538848497905e-05, 3.5656321415444836e-05, 3.911725798388943e-05, 4.257819091435522e-05, 4.6039123844821006e-05, 4.9500056775286794e-05, 5.296098970575258e-05, 5.6421926274197176e-05, 5.9882859204662964e-05, 6.334378849714994e-05, 6.680472870357335e-05, 7.026566163403913e-05, 7.372659456450492e-05, 7.718752749497071e-05, 8.06484604254365e-05, 8.410939335590228e-05, 8.757032628636807e-05, 9.103126649279147e-05, 9.449219942325726e-05, 9.795313235372305e-05, 0.00010141406528418884, 0.00010487499821465462, 0.00010833593114512041, 0.0001117968640755862, 0.0001152578042820096, 0.00011871872993651778, 0.00012217967014294118, 0.00012564059579744935, 0.00012910153600387275]}, "gradients/base.mlp.fc2.0.0.bias": {"_type": "histogram", "values": [1.0, 0.0, 0.0, 0.0, 0.0, 0.0, 0.0, 0.0, 0.0, 0.0, 1.0, 1.0, 0.0, 0.0, 0.0, 0.0, 1.0, 2.0, 2.0, 1.0, 0.0, 1.0, 1.0, 2.0, 1.0, 2.0, 2.0, 1.0, 13.0, 18.0, 2.0, 0.0, 0.0, 2.0, 1.0, 1.0, 2.0, 0.0, 0.0, 1.0, 0.0, 0.0, 0.0, 0.0, 1.0, 0.0, 0.0, 1.0, 0.0, 0.0, 0.0, 0.0, 0.0, 0.0, 0.0, 0.0, 0.0, 1.0, 0.0, 0.0, 1.0, 0.0, 0.0, 1.0], "bins": [-5.640627568936907e-05, -5.446444993140176e-05, -5.252262417343445e-05, -5.058079841546714e-05, -4.863896901952103e-05, -4.669714689953253e-05, -4.475531750358641e-05, -4.28134917456191e-05, -4.0871665987651795e-05, -3.892984022968449e-05, -3.698801447171718e-05, -3.504618871374987e-05, -3.310436295578256e-05, -3.116253355983645e-05, -2.922070780186914e-05, -2.727888204390183e-05, -2.5337056285934523e-05, -2.3395230527967215e-05, -2.1453404769999906e-05, -1.9511577193043195e-05, -1.7569751435075887e-05, -1.562792567710858e-05, -1.3686099009646568e-05, -1.1744272342184559e-05, -9.80244658421725e-06, -7.860620826249942e-06, -5.918794158787932e-06, -3.976967946073273e-06, -2.035141733358614e-06, -9.331597539130598e-08, 1.848510692070704e-06, 3.790337359532714e-06, 5.732166755478829e-06, 7.673992513446137e-06, 9.615819180908147e-06, 1.1557645848370157e-05, 1.3499471606337465e-05, 1.5441297364304774e-05, 1.7383124941261485e-05, 1.9324950699228793e-05, 2.12667764571961e-05, 2.320860221516341e-05, 2.5150427973130718e-05, 2.709225555008743e-05, 2.9034081308054738e-05, 3.097590524703264e-05, 3.291773464297876e-05, 3.4859560400946066e-05, 3.6801386158913374e-05, 3.874321191688068e-05, 4.068503767484799e-05, 4.26268634328153e-05, 4.4568689190782607e-05, 4.651051858672872e-05, 4.845234434469603e-05, 5.039417010266334e-05, 5.2335995860630646e-05, 5.4277821618597955e-05, 5.621964737656526e-05, 5.816147313453257e-05, 6.0103302530478686e-05, 6.204512465046719e-05, 6.39869540464133e-05, 6.59287761664018e-05, 6.787060556234792e-05]}, "gradients/base.mlp.fc2.0.0.weight": {"_type": "histogram", "values": [1.0, 0.0, 0.0, 1.0, 0.0, 0.0, 0.0, 1.0, 0.0, 0.0, 0.0, 3.0, 0.0, 4.0, 0.0, 4.0, 4.0, 4.0, 2.0, 8.0, 26.0, 46.0, 42.0, 37.0, 36.0, 82.0, 79.0, 166.0, 252.0, 2147.0, 419.0, 236.0, 215.0, 63.0, 88.0, 24.0, 14.0, 30.0, 11.0, 8.0, 7.0, 3.0, 2.0, 2.0, 5.0, 2.0, 1.0, 3.0, 1.0, 3.0, 4.0, 1.0, 2.0, 0.0, 1.0, 2.0, 0.0, 1.0, 1.0, 0.0, 1.0, 0.0, 0.0, 1.0], "bins": [-0.00017361293430440128, -0.00016779272118583322, -0.00016197250806726515, -0.0001561522949486971, -0.00015033209638204426, -0.0001445118832634762, -0.00013869167014490813, -0.00013287145702634007, -0.00012705125845968723, -0.00012123104534111917, -0.00011541083949850872, -0.00010959062637994066, -0.00010377042053733021, -9.795020741876215e-05, -9.212999430019408e-05, -8.630978118162602e-05, -8.048956806305796e-05, -7.46693549444899e-05, -6.884914910187945e-05, -6.302893598331138e-05, -5.720872650272213e-05, -5.1388517022132874e-05, -4.556830390356481e-05, -3.9748094422975555e-05, -3.39278849423863e-05, -2.8107675461797044e-05, -2.2287464162218384e-05, -1.6467252862639725e-05, -1.064704338205047e-05, -4.826833901461214e-06, 9.93379217106849e-07, 6.813588697696105e-06, 1.263379817828536e-05, 1.8454007658874616e-05, 2.4274218958453275e-05, 3.0094430258031934e-05, 3.591463973862119e-05, 4.1734849219210446e-05, 4.755506233777851e-05, 5.3375271818367764e-05, 5.919548129895702e-05, 6.501569441752508e-05, 7.083590026013553e-05, 7.66561133787036e-05, 8.247632649727166e-05, 8.82965323398821e-05, 9.411674545845017e-05, 9.993695130106062e-05, 0.00010575716441962868, 0.00011157737753819674, 0.00011739758338080719, 0.00012321778922341764, 0.0001290380023419857, 0.00013485821546055377, 0.00014067842857912183, 0.0001464986416976899, 0.00015231885481625795, 0.00015813906793482602, 0.00016395928105339408, 0.00016977949417196214, 0.00017559969273861498, 0.00018141990585718304, 0.0001872401189757511, 0.00019306033209431916, 0.000198880530660972]}, "gradients/base.mlp.fc1.2.weight": {"_type": "histogram", "values": [1.0, 0.0, 0.0, 0.0, 0.0, 0.0, 0.0, 0.0, 0.0, 0.0, 1.0, 0.0, 2.0, 1.0, 2.0, 1.0, 1.0, 0.0, 4.0, 6.0, 5.0, 3.0, 5.0, 5.0, 3.0, 6.0, 3.0, 2.0, 1.0, 2.0, 4.0, 0.0, 1.0, 0.0, 0.0, 0.0, 0.0, 1.0, 0.0, 0.0, 1.0, 1.0, 0.0, 0.0, 0.0, 1.0, 0.0, 0.0, 0.0, 0.0, 0.0, 0.0, 0.0, 0.0, 0.0, 0.0, 0.0, 0.0, 0.0, 0.0, 0.0, 0.0, 0.0, 1.0], "bins": [-8.889444143278524e-05, -8.518135291524231e-05, -8.146826439769939e-05, -7.775517588015646e-05, -7.404208736261353e-05, -7.03289988450706e-05, -6.661591032752767e-05, -6.290282180998474e-05, -5.9189733292441815e-05, -5.547664477489889e-05, -5.176355625735596e-05, -4.805046773981303e-05, -4.43373792222701e-05, -4.062429070472717e-05, -3.6911202187184244e-05, -3.3198113669641316e-05, -2.9485025152098387e-05, -2.577193663455546e-05, -2.205884811701253e-05, -1.8345759599469602e-05, -1.4632671081926674e-05, -1.0919582564383745e-05, -7.206494046840817e-06, -3.4934055292978883e-06, 2.1968298824504018e-07, 3.932771505787969e-06, 7.645860023330897e-06, 1.1358948540873826e-05, 1.5072037058416754e-05, 1.8785125575959682e-05, 2.249821409350261e-05, 2.621130261104554e-05, 2.9924383852630854e-05, 3.363747237017378e-05, 3.735056088771671e-05, 4.106364940525964e-05, 4.477673792280257e-05, 4.8489826440345496e-05, 5.2202914957888424e-05, 5.591600347543135e-05, 5.962909199297428e-05, 6.334218051051721e-05, 6.705526902806014e-05, 7.076835754560307e-05, 7.4481446063146e-05, 7.819453458068892e-05, 8.190762309823185e-05, 8.562071161577478e-05, 8.933380013331771e-05, 9.304688865086064e-05, 9.675997716840357e-05, 0.0001004730656859465, 0.00010418615420348942, 0.00010789924272103235, 0.00011161233123857528, 0.00011532541975611821, 0.00011903850827366114, 0.00012275160406716168, 0.000126464685308747, 0.0001301777665503323, 0.00013389086234383285, 0.0001376039581373334, 0.0001413170393789187, 0.00014503012062050402, 0.00014874321641400456]}, "gradients/base.mlp.fc1.2.bias": {"_type": "histogram", "values": [1.0, 0.0, 0.0, 0.0, 0.0, 0.0, 0.0, 0.0, 0.0, 0.0, 0.0, 0.0, 0.0, 0.0, 0.0, 0.0, 0.0, 0.0, 0.0, 2.0, 0.0, 2.0, 2.0, 1.0, 2.0, 1.0, 1.0, 0.0, 3.0, 3.0, 4.0, 2.0, 1.0, 3.0, 2.0, 1.0, 2.0, 2.0, 3.0, 2.0, 1.0, 0.0, 3.0, 2.0, 2.0, 2.0, 2.0, 0.0, 4.0, 0.0, 0.0, 1.0, 0.0, 3.0, 0.0, 0.0, 0.0, 1.0, 2.0, 0.0, 0.0, 0.0, 0.0, 1.0], "bins": [-8.548789628548548e-05, -8.312890713568777e-05, -8.076991070993245e-05, -7.841092156013474e-05, -7.605192513437942e-05, -7.369293598458171e-05, -7.133393955882639e-05, -6.897495040902868e-05, -6.661595398327336e-05, -6.425696483347565e-05, -6.189796840772033e-05, -5.953897561994381e-05, -5.71799828321673e-05, -5.482099004439078e-05, -5.246199725661427e-05, -5.010300810681656e-05, -4.7744015319040045e-05, -4.538502253126353e-05, -4.3026029743487015e-05, -4.06670369557105e-05, -3.8308044167933986e-05, -3.594905138015747e-05, -3.359006223035976e-05, -3.123106580460444e-05, -2.887207483581733e-05, -2.6513082048040815e-05, -2.41540892602643e-05, -2.179509829147719e-05, -1.9436105503700674e-05, -1.707711271592416e-05, -1.4718119928147644e-05, -1.2359127140371129e-05, -1.0000134352594614e-05, -7.641141564818099e-06, -5.282149231788935e-06, -2.923156898759771e-06, -5.641641109832563e-07, 1.7948286767932586e-06, 4.153820555075072e-06, 6.512813342851587e-06, 8.871806130628102e-06, 1.1230798918404616e-05, 1.3589791706181131e-05, 1.5948782674968243e-05, 1.8307775462744758e-05, 2.0666768250521272e-05, 2.3025761038297787e-05, 2.5384753826074302e-05, 2.7743746613850817e-05, 3.0102739401627332e-05, 3.246173218940385e-05, 3.482072497718036e-05, 3.717971776495688e-05, 3.953871055273339e-05, 4.18976997025311e-05, 4.425669612828642e-05, 4.661568527808413e-05, 4.8974678065860644e-05, 5.133367085363716e-05, 5.3692663641413674e-05, 5.605165642919019e-05, 5.8410649216966704e-05, 6.076964200474322e-05, 6.312863115454093e-05, 6.548762758029625e-05]}, "gradients/base.mlp.fc1.0.bias": {"_type": "histogram", "values": [1.0, 0.0, 0.0, 0.0, 0.0, 0.0, 0.0, 0.0, 0.0, 0.0, 0.0, 0.0, 1.0, 0.0, 1.0, 0.0, 0.0, 1.0, 1.0, 1.0, 0.0, 1.0, 1.0, 1.0, 1.0, 1.0, 1.0, 0.0, 3.0, 0.0, 2.0, 4.0, 0.0, 1.0, 7.0, 17.0, 2.0, 1.0, 1.0, 1.0, 1.0, 0.0, 1.0, 0.0, 1.0, 0.0, 0.0, 0.0, 1.0, 2.0, 0.0, 0.0, 0.0, 0.0, 1.0, 0.0, 3.0, 1.0, 0.0, 0.0, 0.0, 0.0, 0.0, 2.0], "bins": [-5.6962941016536206e-05, -5.5338045058306307e-05, -5.3713152738055214e-05, -5.2088256779825315e-05, -5.046336445957422e-05, -4.883846850134432e-05, -4.7213572543114424e-05, -4.558868022286333e-05, -4.396378790261224e-05, -4.233889194438234e-05, -4.071399962413125e-05, -3.908910366590135e-05, -3.7464211345650256e-05, -3.5839315387420356e-05, -3.421441942919046e-05, -3.2589527108939365e-05, -3.0964631150709465e-05, -2.933973701146897e-05, -2.7714842872228473e-05, -2.6089946913998574e-05, -2.4465054593747482e-05, -2.2840158635517582e-05, -2.1215264496277086e-05, -1.959037035703659e-05, -1.7965476217796095e-05, -1.63405820785556e-05, -1.4715687939315103e-05, -1.3090792890579905e-05, -1.146589875133941e-05, -9.841004612098914e-06, -8.216109563363716e-06, -6.59121542412322e-06, -4.966324922861531e-06, -3.34143055624736e-06, -1.7165361896331888e-06, -9.164159564534202e-08, 1.5332525435951538e-06, 3.1581466828356497e-06, 4.783041731570847e-06, 6.407935870811343e-06, 8.032830010051839e-06, 9.657724149292335e-06, 1.128261828853283e-05, 1.2907513337268028e-05, 1.4532407476508524e-05, 1.615730070625432e-05, 1.7782196664484218e-05, 1.9407090803724714e-05, 2.103198494296521e-05, 2.2656879082205705e-05, 2.42817732214462e-05, 2.59066691796761e-05, 2.7531561499927193e-05, 2.9156457458157092e-05, 3.078135341638699e-05, 3.2406245736638084e-05, 3.4031138056889176e-05, 3.5656034015119076e-05, 3.728092633537017e-05, 3.890582229360007e-05, 4.053071461385116e-05, 4.215561057208106e-05, 4.378050653031096e-05, 4.540539885056205e-05, 4.703029480879195e-05]}, "gradients/base.mlp.fc1.0.weight": {"_type": "histogram", "values": [1.0, 0.0, 0.0, 0.0, 0.0, 0.0, 0.0, 3.0, 0.0, 2.0, 0.0, 1.0, 1.0, 2.0, 2.0, 2.0, 3.0, 7.0, 9.0, 3.0, 3.0, 7.0, 11.0, 17.0, 14.0, 17.0, 22.0, 22.0, 24.0, 37.0, 273.0, 792.0, 3674.0, 1507.0, 423.0, 109.0, 17.0, 13.0, 21.0, 17.0, 21.0, 16.0, 12.0, 8.0, 10.0, 10.0, 3.0, 6.0, 4.0, 4.0, 3.0, 4.0, 0.0, 3.0, 1.0, 2.0, 1.0, 0.0, 1.0, 1.0, 0.0, 0.0, 0.0, 2.0], "bins": [-0.00024001923156902194, -0.0002326941175851971, -0.00022536901815328747, -0.00021804390416946262, -0.000210718804737553, -0.00020339369075372815, -0.0001960685767699033, -0.00018874347733799368, -0.00018141837790608406, -0.0001740932639222592, -0.0001667681644903496, -0.00015944305050652474, -0.00015211795107461512, -0.00014479283709079027, -0.00013746772310696542, -0.0001301426236750558, -0.00012281750969123095, -0.00011549240298336372, -0.00010816729627549648, -0.00010084218229167163, -9.351708285976201e-05, -8.619196887593716e-05, -7.886686216806993e-05, -7.15417554602027e-05, -6.421664875233546e-05, -5.6891542044468224e-05, -4.956643533660099e-05, -4.224132499075495e-05, -3.491621828288771e-05, -2.7591111575020477e-05, -2.0266001229174435e-05, -1.29408945213072e-05, -5.615787813439965e-06, 1.7093198039219715e-06, 9.034427421283908e-06, 1.6359535948140547e-05, 2.368464265600778e-05, 3.1009749363875017e-05, 3.833485970972106e-05, 4.5659966417588294e-05, 5.298507312545553e-05, 6.0310179833322763e-05, 6.763528654119e-05, 7.496039324905723e-05, 8.228550723288208e-05, 8.96106066647917e-05, 9.693572064861655e-05, 0.00010426082735648379, 0.00011158593406435102, 0.00011891104077221826, 0.0001262361474800855, 0.00013356126146391034, 0.00014088636089581996, 0.0001482114748796448, 0.00015553657431155443, 0.00016286168829537928, 0.00017018680227920413, 0.00017751191626302898, 0.0001848370156949386, 0.00019216212967876345, 0.00019948722911067307, 0.00020681234309449792, 0.00021413745707832277, 0.0002214625565102324, 0.000228787655942142]}, "gradients/base.feature_norm.weight": {"_type": "histogram", "values": [1.0, 0.0, 0.0, 0.0, 0.0, 0.0, 0.0, 0.0, 0.0, 0.0, 0.0, 0.0, 0.0, 0.0, 0.0, 0.0, 0.0, 0.0, 0.0, 0.0, 0.0, 0.0, 0.0, 0.0, 0.0, 1.0, 0.0, 1.0, 0.0, 0.0, 0.0, 0.0, 0.0, 0.0, 1.0, 1.0, 1.0, 0.0, 2.0, 6.0, 20.0, 34.0, 24.0, 12.0, 2.0, 1.0, 0.0, 1.0, 1.0, 0.0, 0.0, 0.0, 0.0, 0.0, 0.0, 0.0, 0.0, 1.0, 1.0, 0.0, 0.0, 0.0, 0.0, 1.0], "bins": [-0.00020875751215498894, -0.00020372452854644507, -0.0001986915449379012, -0.00019365857588127255, -0.00018862559227272868, -0.0001835926086641848, -0.00017855962505564094, -0.00017352664144709706, -0.0001684936578385532, -0.00016346067423000932, -0.00015842769062146544, -0.0001533947215648368, -0.00014836173795629293, -0.00014332875434774905, -0.00013829577073920518, -0.0001332627871306613, -0.00012822981807403266, -0.0001231968344654888, -0.00011816385813290253, -0.00011313087452435866, -0.0001080978981917724, -0.00010306491458322853, -9.803193097468466e-05, -9.299894736614078e-05, -8.796597103355452e-05, -8.293298742501065e-05, -7.790001109242439e-05, -7.286702748388052e-05, -6.783404387533665e-05, -6.280106754275039e-05, -5.7768083934206516e-05, -5.273510396364145e-05, -4.7702123993076384e-05, -4.266914402251132e-05, -3.763616405194625e-05, -3.260318044340238e-05, -2.7570200472837314e-05, -2.2537220502272248e-05, -1.750423871271778e-05, -1.247125692316331e-05, -7.438276952598244e-06, -2.4052960725384764e-06, 2.627684807521291e-06, 7.660665687581059e-06, 1.2693646567640826e-05, 1.7726626538205892e-05, 2.275960832776036e-05, 2.779259011731483e-05, 3.2825570087879896e-05, 3.785855005844496e-05, 4.289153002901003e-05, 4.79245136375539e-05, 5.2957493608118966e-05, 5.799047357868403e-05, 6.30234571872279e-05, 6.805644079577178e-05, 7.308941712835804e-05, 7.812240073690191e-05, 8.315537706948817e-05, 8.818836067803204e-05, 9.322134428657591e-05, 9.825432061916217e-05, 0.00010328730422770604, 0.0001083202805602923, 0.00011335326416883618]}, "gradients/base.feature_norm.bias": {"_type": "histogram", "values": [1.0, 0.0, 0.0, 0.0, 0.0, 0.0, 0.0, 2.0, 0.0, 1.0, 0.0, 0.0, 0.0, 2.0, 2.0, 2.0, 0.0, 4.0, 3.0, 3.0, 5.0, 4.0, 3.0, 3.0, 4.0, 5.0, 3.0, 6.0, 4.0, 5.0, 7.0, 3.0, 10.0, 4.0, 2.0, 2.0, 4.0, 3.0, 5.0, 1.0, 0.0, 1.0, 1.0, 1.0, 0.0, 0.0, 1.0, 1.0, 0.0, 0.0, 0.0, 0.0, 2.0, 0.0, 0.0, 0.0, 1.0, 0.0, 0.0, 0.0, 0.0, 0.0, 0.0, 1.0], "bins": [-5.850263187312521e-05, -5.647464786306955e-05, -5.444666385301389e-05, -5.241867984295823e-05, -5.039069947088137e-05, -4.836271546082571e-05, -4.633473145077005e-05, -4.430674744071439e-05, -4.227876343065873e-05, -4.025077942060307e-05, -3.8222795410547405e-05, -3.6194811400491744e-05, -3.416682739043608e-05, -3.213884338038042e-05, -3.0110863008303568e-05, -2.8082878998247907e-05, -2.6054894988192245e-05, -2.4026910978136584e-05, -2.1998926968080923e-05, -1.9970944777014665e-05, -1.7942960766959004e-05, -1.5914976756903343e-05, -1.3886993656342383e-05, -1.1859010555781424e-05, -9.831026545725763e-06, -7.803042535670102e-06, -5.775059435109142e-06, -3.747075879800832e-06, -1.7190923244925216e-06, 3.088916855631396e-07, 2.336874786124099e-06, 4.3648578866850585e-06, 6.392838258761913e-06, 8.420822268817574e-06, 1.0448805369378533e-05, 1.2476788469939493e-05, 1.4504772479995154e-05, 1.6532756490050815e-05, 1.8560738681117073e-05, 2.0588722691172734e-05, 2.2616706701228395e-05, 2.4644690711284056e-05, 2.6672674721339718e-05, 2.8700656912405975e-05, 3.072863910347223e-05, 3.2756623113527894e-05, 3.4784607123583555e-05, 3.6812591133639216e-05, 3.884057514369488e-05, 4.086855915375054e-05, 4.28965431638062e-05, 4.492452717386186e-05, 4.695251118391752e-05, 4.8980495193973184e-05, 5.100847556605004e-05, 5.30364595761057e-05, 5.506444358616136e-05, 5.709242759621702e-05, 5.912041160627268e-05, 6.114839197834954e-05, 6.31763759884052e-05, 6.520435999846086e-05, 6.723234400851652e-05, 6.926032801857218e-05, 7.128831202862784e-05]}, "gradients/graph_1v_out.bias": {"_type": "histogram", "values": [0.0, 0.0, 0.0, 0.0, 0.0, 0.0, 0.0, 0.0, 0.0, 0.0, 0.0, 0.0, 0.0, 0.0, 0.0, 0.0, 0.0, 0.0, 0.0, 0.0, 0.0, 0.0, 0.0, 0.0, 0.0, 0.0, 0.0, 0.0, 0.0, 0.0, 0.0, 0.0, 1.0, 0.0, 0.0, 0.0, 0.0, 0.0, 0.0, 0.0, 0.0, 0.0, 0.0, 0.0, 0.0, 0.0, 0.0, 0.0, 0.0, 0.0, 0.0, 0.0, 0.0, 0.0, 0.0, 0.0, 0.0, 0.0, 0.0, 0.0, 0.0, 0.0, 0.0, 0.0], "bins": [-0.0022142943926155567, -0.0022142943926155567, -0.0022142943926155567, -0.0022142943926155567, -0.0022142943926155567, -0.0022142943926155567, -0.0022142943926155567, -0.0022142943926155567, -0.0022142943926155567, -0.0022142943926155567, -0.0022142943926155567, -0.0022142943926155567, -0.0022142943926155567, -0.0022142943926155567, -0.0022142943926155567, -0.0022142943926155567, -0.0022142943926155567, -0.0022142943926155567, -0.0022142943926155567, -0.0022142943926155567, -0.0022142943926155567, -0.0022142943926155567, -0.0022142943926155567, -0.0022142943926155567, -0.0022142943926155567, -0.0022142943926155567, -0.0022142943926155567, -0.0022142943926155567, -0.0022142943926155567, -0.0022142943926155567, -0.0022142943926155567, -0.0022142943926155567, -0.0022142943926155567, -0.0022142943926155567, -0.0022142943926155567, -0.0022142943926155567, -0.0022142943926155567, -0.0022142943926155567, -0.0022142943926155567, -0.0022142943926155567, -0.0022142943926155567, -0.0022142943926155567, -0.0022142943926155567, -0.0022142943926155567, -0.0022142943926155567, -0.0022142943926155567, -0.0022142943926155567, -0.0022142943926155567, -0.0022142943926155567, -0.0022142943926155567, -0.0022142943926155567, -0.0022142943926155567, -0.0022142943926155567, -0.0022142943926155567, -0.0022142943926155567, -0.0022142943926155567, -0.0022142943926155567, -0.0022142943926155567, -0.0022142943926155567, -0.0022142943926155567, -0.0022142943926155567, -0.0022142943926155567, -0.0022142943926155567, -0.0022142943926155567, -0.0022142943926155567]}, "gradients/graph_1v_out.weight": {"_type": "histogram", "values": [1.0, 0.0, 0.0, 0.0, 1.0, 0.0, 0.0, 1.0, 0.0, 0.0, 0.0, 1.0, 0.0, 0.0, 0.0, 1.0, 2.0, 0.0, 0.0, 1.0, 0.0, 0.0, 0.0, 0.0, 2.0, 1.0, 3.0, 0.0, 0.0, 0.0, 0.0, 0.0, 0.0, 0.0, 0.0, 0.0, 2.0, 4.0, 2.0, 2.0, 3.0, 10.0, 4.0, 2.0, 2.0, 1.0, 1.0, 3.0, 1.0, 2.0, 0.0, 4.0, 1.0, 1.0, 1.0, 1.0, 0.0, 0.0, 0.0, 0.0, 1.0, 1.0, 0.0, 1.0], "bins": [-0.021762579679489136, -0.021205078810453415, -0.020647576078772545, -0.020090075209736824, -0.019532574340701103, -0.018975071609020233, -0.018417570739984512, -0.01786006987094879, -0.01730256900191307, -0.01674506813287735, -0.01618756540119648, -0.01563006453216076, -0.015072563663125038, -0.014515061862766743, -0.013957560062408447, -0.013400059193372726, -0.012842556461691856, -0.012285054661333561, -0.01172755379229784, -0.011170051991939545, -0.010612551122903824, -0.010055049322545528, -0.009497547522187233, -0.008940046653151512, -0.008382544852793217, -0.007825043052434921, -0.0072675421833992004, -0.006710040383040905, -0.006152539048343897, -0.005595037713646889, -0.005037535913288593, -0.004480034578591585, -0.003922533243894577, -0.003365031909197569, -0.002807530341669917, -0.0022500287741422653, -0.0016925274394452572, -0.001135026104748249, -0.0005775245372205973, -2.002296969294548e-05, 0.0005374783650040627, 0.0010949798161163926, 0.0016524812672287226, 0.0022099828347563744, 0.0027674841694533825, 0.0033249855041503906, 0.0038824870716780424, 0.004439988639205694, 0.004997489973902702, 0.0055549913085997105, 0.006112492643296719, 0.006669994443655014, 0.007227495778352022, 0.00778499711304903, 0.008342498913407326, 0.008899999782443047, 0.009457501582801342, 0.010015003383159637, 0.010572504252195358, 0.011130006052553654, 0.01168750785291195, 0.01224500872194767, 0.012802510522305965, 0.01336001232266426, 0.013917513191699982]}, "gradients/graph_1base.mlp.fc2.0.2.weight": {"_type": "histogram", "values": [1.0, 0.0, 0.0, 0.0, 0.0, 0.0, 0.0, 0.0, 0.0, 1.0, 0.0, 0.0, 0.0, 0.0, 0.0, 1.0, 0.0, 1.0, 1.0, 0.0, 1.0, 0.0, 0.0, 1.0, 0.0, 0.0, 2.0, 2.0, 8.0, 4.0, 6.0, 10.0, 3.0, 6.0, 2.0, 2.0, 2.0, 1.0, 2.0, 0.0, 1.0, 1.0, 0.0, 1.0, 0.0, 1.0, 0.0, 1.0, 0.0, 0.0, 0.0, 1.0, 0.0, 0.0, 0.0, 0.0, 0.0, 0.0, 0.0, 0.0, 0.0, 0.0, 0.0, 1.0], "bins": [-0.0029693427495658398, -0.002875593025237322, -0.0027818430680781603, -0.0026880933437496424, -0.0025943436194211245, -0.002500593662261963, -0.002406843937933445, -0.002313094213604927, -0.0022193442564457655, -0.0021255945321172476, -0.002031844574958086, -0.001938094850629568, -0.0018443450098857284, -0.0017505951691418886, -0.0016568454448133707, -0.001563095604069531, -0.001469345879741013, -0.0013755960389971733, -0.0012818463146686554, -0.0011880964739248157, -0.001094346633180976, -0.001000596908852458, -0.0009068470681086183, -0.0008130972273647785, -0.0007193474448285997, -0.0006255976622924209, -0.0005318478215485811, -0.0004380980390124023, -0.000344348227372393, -0.00025059841573238373, -0.0001568486331962049, -6.309879245236516e-05, 3.065099008381367e-05, 0.00012440080172382295, 0.000218150598811917, 0.00031190039590001106, 0.00040565020754002035, 0.0004994000191800296, 0.0005931498017162085, 0.0006868996424600482, 0.000780649424996227, 0.0008743992075324059, 0.0009681490482762456, 0.0010618988890200853, 0.0011556486133486032, 0.001249398454092443, 0.0013431482948362827, 0.0014368980191648006, 0.0015306478599086404, 0.0016243977006524801, 0.001718147424980998, 0.0018118972657248378, 0.0019056471064686775, 0.0019993968307971954, 0.0020931465551257133, 0.002186896512284875, 0.002280646236613393, 0.0023743959609419107, 0.0024681459181010723, 0.0025618956424295902, 0.002655645366758108, 0.0027493953239172697, 0.0028431450482457876, 0.002936895005404949, 0.003030644729733467]}, "gradients/graph_1base.mlp.fc2.0.2.bias": {"_type": "histogram", "values": [1.0, 0.0, 1.0, 0.0, 1.0, 0.0, 1.0, 1.0, 0.0, 0.0, 2.0, 1.0, 0.0, 0.0, 1.0, 0.0, 3.0, 2.0, 1.0, 0.0, 1.0, 1.0, 2.0, 0.0, 1.0, 1.0, 1.0, 4.0, 4.0, 2.0, 1.0, 4.0, 3.0, 0.0, 0.0, 3.0, 0.0, 1.0, 0.0, 1.0, 5.0, 2.0, 0.0, 1.0, 3.0, 1.0, 1.0, 0.0, 0.0, 1.0, 0.0, 1.0, 0.0, 2.0, 0.0, 0.0, 1.0, 0.0, 0.0, 0.0, 0.0, 0.0, 0.0, 1.0], "bins": [-0.0006401888094842434, -0.0006216115434654057, -0.000603034277446568, -0.0005844570114277303, -0.0005658797454088926, -0.0005473024793900549, -0.0005287252133712173, -0.0005101478891447186, -0.0004915706813335419, -0.0004729934153147042, -0.0004544161492958665, -0.0004358388832770288, -0.0004172616172581911, -0.0003986843512393534, -0.00038010705611668527, -0.0003615297900978476, -0.00034295249497517943, -0.00032437522895634174, -0.00030579796293750405, -0.00028722069691866636, -0.00026864343089982867, -0.000250066164880991, -0.00023148886975832283, -0.00021291160373948514, -0.00019433433772064745, -0.00017575707170180976, -0.00015717980568297207, -0.00013860252511221915, -0.00012002525909338146, -0.00010144799307454377, -8.287071977974847e-05, -6.429344648495317e-05, -4.571612225845456e-05, -2.7138852601638064e-05, -8.561582944821566e-06, 1.0015686711994931e-05, 2.859295636881143e-05, 4.717022238764912e-05, 6.574749568244442e-05, 8.432476897723973e-05, 0.00010290203499607742, 0.00012147930101491511, 0.0001400565670337528, 0.00015863384760450572, 0.0001772111136233434, 0.0001957883796421811, 0.00021436566021293402, 0.0002329429262317717, 0.0002515201922506094, 0.0002700974582694471, 0.0002886747242882848, 0.00030725199030712247, 0.00032582925632596016, 0.00034440652234479785, 0.000362983817467466, 0.0003815610834863037, 0.0004001383495051414, 0.00041871561552397907, 0.00043729288154281676, 0.00045587014756165445, 0.0004744474426843226, 0.0004930247087031603, 0.000511601974721998, 0.0005301792407408357, 0.0005487565067596734]}, "gradients/graph_1base.mlp.fc2.0.0.bias": {"_type": "histogram", "values": [1.0, 0.0, 0.0, 0.0, 1.0, 1.0, 0.0, 0.0, 0.0, 0.0, 2.0, 1.0, 0.0, 0.0, 0.0, 0.0, 1.0, 1.0, 0.0, 0.0, 2.0, 1.0, 1.0, 1.0, 2.0, 0.0, 2.0, 1.0, 0.0, 1.0, 3.0, 5.0, 12.0, 7.0, 3.0, 1.0, 0.0, 2.0, 1.0, 1.0, 1.0, 1.0, 1.0, 0.0, 1.0, 0.0, 0.0, 1.0, 0.0, 0.0, 0.0, 0.0, 0.0, 1.0, 0.0, 0.0, 1.0, 1.0, 0.0, 1.0, 0.0, 0.0, 0.0, 1.0], "bins": [-0.0016143701504915953, -0.0015642846701666713, -0.0015141991898417473, -0.0014641135931015015, -0.0014140281127765775, -0.0013639426324516535, -0.0013138571521267295, -0.0012637716718018055, -0.0012136861914768815, -0.0011636007111519575, -0.0011135152308270335, -0.0010634297505021095, -0.0010133441537618637, -0.0009632586734369397, -0.0009131731931120157, -0.0008630877127870917, -0.0008130021742545068, -0.0007629166939295828, -0.0007128311553969979, -0.0006627456750720739, -0.0006126601947471499, -0.000562574714422226, -0.000512489175889641, -0.00046240369556471705, -0.0004123181861359626, -0.00036223267670720816, -0.00031214719638228416, -0.0002620616869535297, -0.0002119761920766905, -0.00016189069719985127, -0.00011180518777109683, -6.171970744617283e-05, -1.1634198017418385e-05, 3.845130049739964e-05, 8.853679901221767e-05, 0.0001386223011650145, 0.00018870779604185373, 0.00023879329091869295, 0.0002888788003474474, 0.0003389642806723714, 0.00038904979010112584, 0.0004391352995298803, 0.0004892207798548043, 0.0005393063183873892, 0.0005893917987123132, 0.0006394772790372372, 0.0006895627593621612, 0.0007396482396870852, 0.0007897337782196701, 0.000839819258544594, 0.000889904797077179, 0.000939990277402103, 0.000990075757727027, 0.001040161238051951, 0.001090246718376875, 0.0011403323151171207, 0.0011904177954420447, 0.0012405032757669687, 0.0012905887560918927, 0.0013406742364168167, 0.0013907598331570625, 0.0014408453134819865, 0.0014909307938069105, 0.0015410162741318345, 0.0015911017544567585]}, "gradients/graph_1base.mlp.fc2.0.0.weight": {"_type": "histogram", "values": [1.0, 0.0, 0.0, 1.0, 1.0, 1.0, 0.0, 0.0, 0.0, 0.0, 0.0, 3.0, 3.0, 4.0, 2.0, 3.0, 5.0, 4.0, 8.0, 7.0, 8.0, 15.0, 21.0, 19.0, 27.0, 45.0, 63.0, 58.0, 78.0, 153.0, 106.0, 186.0, 643.0, 1531.0, 367.0, 223.0, 76.0, 76.0, 93.0, 93.0, 39.0, 31.0, 17.0, 17.0, 15.0, 5.0, 6.0, 8.0, 5.0, 6.0, 6.0, 2.0, 2.0, 2.0, 2.0, 2.0, 0.0, 2.0, 2.0, 1.0, 0.0, 0.0, 1.0, 1.0], "bins": [-0.005642292555421591, -0.005472512450069189, -0.005302732344716787, -0.005132952239364386, -0.004963172134011984, -0.004793392028659582, -0.00462361192330718, -0.004453831817954779, -0.004284051712602377, -0.004114271607249975, -0.0039444915018975735, -0.0037747113965451717, -0.00360493129119277, -0.0034351511858403683, -0.0032653710804879665, -0.003095590975135565, -0.0029258111026138067, -0.002756030997261405, -0.0025862508919090033, -0.0024164707865566015, -0.0022466906812042, -0.002076910575851798, -0.0019071305869147182, -0.0017373504815623164, -0.0015675703762099147, -0.001397790270857513, -0.0012280101655051112, -0.0010582301765680313, -0.0008884500130079687, -0.0007186699076555669, -0.0005488898605108261, -0.0003791097551584244, -0.00020932964980602264, -3.954955900553614e-05, 0.00013023053179495037, 0.00030001060804352164, 0.0004697907133959234, 0.0006395708187483251, 0.0008093508658930659, 0.0009791309712454677, 0.0011489110765978694, 0.0013186911819502711, 0.0014884712873026729, 0.0016582512762397528, 0.0018280313815921545, 0.0019978114869445562, 0.002167591592296958, 0.0023373716976493597, 0.0025071518030017614, 0.002676931908354163, 0.002846712013706565, 0.0030164921190589666, 0.0031862722244113684, 0.00335605232976377, 0.003525832202285528, 0.00369561230763793, 0.0038653924129903316, 0.004035172518342733, 0.004204952623695135, 0.004374732729047537, 0.004544512834399939, 0.00471429293975234, 0.004884073045104742, 0.005053853150457144, 0.0052236332558095455]}, "gradients/graph_1base.mlp.fc1.2.weight": {"_type": "histogram", "values": [1.0, 0.0, 0.0, 0.0, 1.0, 0.0, 0.0, 0.0, 0.0, 0.0, 0.0, 1.0, 1.0, 1.0, 0.0, 0.0, 1.0, 2.0, 1.0, 2.0, 3.0, 3.0, 0.0, 3.0, 2.0, 1.0, 1.0, 5.0, 0.0, 0.0, 2.0, 3.0, 1.0, 2.0, 4.0, 3.0, 2.0, 1.0, 1.0, 0.0, 2.0, 0.0, 0.0, 1.0, 1.0, 0.0, 1.0, 1.0, 2.0, 1.0, 1.0, 1.0, 0.0, 0.0, 0.0, 0.0, 0.0, 2.0, 1.0, 0.0, 0.0, 1.0, 0.0, 1.0], "bins": [-0.0021438763942569494, -0.002076623262837529, -0.0020093703642487526, -0.0019421172328293324, -0.0018748641014099121, -0.0018076109699904919, -0.0017403579549863935, -0.001673104939982295, -0.0016058518085628748, -0.0015385986771434546, -0.0014713456621393561, -0.0014040926471352577, -0.0013368395157158375, -0.0012695863842964172, -0.0012023333692923188, -0.0011350803542882204, -0.0010678272228688002, -0.00100057409144938, -0.0009333210764452815, -0.0008660680032335222, -0.0007988149300217628, -0.0007315618568100035, -0.0006643087835982442, -0.0005970557103864849, -0.0005298026371747255, -0.0004625495639629662, -0.0003952964907512069, -0.00032804341753944755, -0.0002607903443276882, -0.0001935372711159289, -0.00012628419790416956, -5.903112469241023e-05, 8.222181349992752e-06, 7.547525456175208e-05, 0.0001427283277735114, 0.00020998140098527074, 0.00027723447419703007, 0.0003444875474087894, 0.0004117406206205487, 0.00047899369383230805, 0.0005462467670440674, 0.0006134998402558267, 0.000680752913467586, 0.0007480059866793454, 0.0008152590598911047, 0.000882512133102864, 0.0009497652063146234, 0.0010170182213187218, 0.001084271352738142, 0.0011515244841575623, 0.0012187774991616607, 0.001286030514165759, 0.0013532836455851793, 0.0014205367770045996, 0.001487789792008698, 0.0015550428070127964, 0.0016222959384322166, 0.0016895490698516369, 0.0017568020848557353, 0.0018240550998598337, 0.001891308231279254, 0.001958561362698674, 0.002025814261287451, 0.002093067392706871, 0.0021603205241262913]}, "gradients/graph_1base.mlp.fc1.2.bias": {"_type": "histogram", "values": [1.0, 0.0, 0.0, 0.0, 0.0, 0.0, 0.0, 0.0, 0.0, 0.0, 0.0, 0.0, 0.0, 0.0, 0.0, 0.0, 1.0, 0.0, 0.0, 0.0, 1.0, 2.0, 0.0, 1.0, 1.0, 1.0, 0.0, 1.0, 0.0, 3.0, 3.0, 2.0, 0.0, 1.0, 0.0, 3.0, 1.0, 0.0, 1.0, 1.0, 2.0, 6.0, 3.0, 3.0, 3.0, 2.0, 0.0, 3.0, 4.0, 1.0, 2.0, 2.0, 0.0, 0.0, 0.0, 3.0, 1.0, 0.0, 1.0, 0.0, 1.0, 2.0, 0.0, 1.0], "bins": [-0.0029013631865382195, -0.002830718643963337, -0.002760073868557811, -0.0026894293259829283, -0.0026187847834080458, -0.0025481402408331633, -0.002477495465427637, -0.0024068509228527546, -0.002336206380277872, -0.0022655618377029896, -0.0021949170622974634, -0.002124272519722581, -0.0020536279771476984, -0.001982983434572816, -0.0019123386591672897, -0.0018416941165924072, -0.001771049457602203, -0.0017004047986119986, -0.001629760256037116, -0.0015591155970469117, -0.0014884710544720292, -0.0014178263954818249, -0.0013471818529069424, -0.001276537193916738, -0.0012058925349265337, -0.0011352478759363294, -0.0010646033333614469, -0.0009939586743712425, -0.00092331413179636, -0.0008526694728061557, -0.0007820248720236123, -0.0007113802712410688, -0.0006407357286661863, -0.0005700911278836429, -0.0004994465271010995, -0.0004288018972147256, -0.0003581572964321822, -0.00028751269564963877, -0.0002168680657632649, -0.00014622346498072147, -7.557886419817805e-05, -4.934256139677018e-06, 6.571035191882402e-05, 0.00013635496725328267, 0.0002069995680358261, 0.0002776441688183695, 0.0003482887987047434, 0.0004189333994872868, 0.0004895780002698302, 0.0005602226010523736, 0.0006308672018349171, 0.0007015118608251214, 0.0007721564034000039, 0.0008428010623902082, 0.0009134456631727517, 0.000984090263955295, 0.0010547349229454994, 0.0011253795819357038, 0.0011960241245105863, 0.0012666687835007906, 0.001337313326075673, 0.0014079579850658774, 0.0014786026440560818, 0.0015492471866309643, 0.0016198917292058468]}, "gradients/graph_1base.mlp.fc1.0.bias": {"_type": "histogram", "values": [1.0, 0.0, 2.0, 1.0, 0.0, 1.0, 0.0, 1.0, 0.0, 0.0, 0.0, 1.0, 0.0, 0.0, 0.0, 1.0, 0.0, 1.0, 0.0, 2.0, 1.0, 0.0, 2.0, 1.0, 1.0, 1.0, 2.0, 3.0, 2.0, 11.0, 3.0, 5.0, 4.0, 0.0, 4.0, 0.0, 0.0, 1.0, 1.0, 2.0, 0.0, 0.0, 0.0, 0.0, 1.0, 1.0, 0.0, 1.0, 1.0, 2.0, 0.0, 0.0, 0.0, 0.0, 0.0, 2.0, 0.0, 0.0, 0.0, 0.0, 0.0, 0.0, 0.0, 1.0], "bins": [-0.001870018895715475, -0.0018072359962388873, -0.0017444532131776214, -0.0016816703137010336, -0.0016188875306397676, -0.0015561046311631799, -0.001493321731686592, -0.0014305389486253262, -0.0013677561655640602, -0.0013049732660874724, -0.0012421904830262065, -0.0011794075835496187, -0.0011166248004883528, -0.001053841901011765, -0.0009910590015351772, -0.0009282762184739113, -0.0008654933189973235, -0.0008027104777283967, -0.0007399276364594698, -0.000677144736982882, -0.0006143619539216161, -0.0005515790544450283, -0.0004887962131761014, -0.0004260133719071746, -0.00036323053063824773, -0.00030044768936932087, -0.00023766483354847878, -0.0001748819777276367, -0.00011209913645870984, -4.931629518978298e-05, 1.3466575182974339e-05, 7.62494164519012e-05, 0.00013903225772082806, 0.00020181509898975492, 0.0002645979402586818, 0.0003273808106314391, 0.00039016365190036595, 0.0004529464931692928, 0.0005157293635420501, 0.000578512204810977, 0.0006412950460799038, 0.0007040778873488307, 0.0007668607286177576, 0.0008296435698866844, 0.0008924264693632722, 0.0009552092524245381, 0.001017992151901126, 0.0010807749349623919, 0.0011435578344389796, 0.0012063407339155674, 0.0012691235169768333, 0.0013319064164534211, 0.001394689199514687, 0.0014574720989912748, 0.0015202548820525408, 0.0015830377815291286, 0.0016458206810057163, 0.001708603580482304, 0.00177138636354357, 0.0018341692630201578, 0.0018969520460814238, 0.0019597348291426897, 0.0020225178450345993, 0.0020853006280958652, 0.002148083411157131]}, "gradients/graph_1base.mlp.fc1.0.weight": {"_type": "histogram", "values": [1.0, 0.0, 1.0, 0.0, 0.0, 1.0, 0.0, 1.0, 2.0, 0.0, 0.0, 1.0, 1.0, 0.0, 1.0, 0.0, 0.0, 1.0, 1.0, 0.0, 2.0, 3.0, 0.0, 2.0, 1.0, 2.0, 2.0, 6.0, 4.0, 24.0, 50623.0, 30.0, 11.0, 5.0, 5.0, 6.0, 2.0, 1.0, 1.0, 1.0, 0.0, 1.0, 0.0, 0.0, 1.0, 2.0, 0.0, 0.0, 1.0, 0.0, 0.0, 0.0, 0.0, 0.0, 2.0, 0.0, 0.0, 1.0, 0.0, 1.0, 0.0, 0.0, 0.0, 1.0], "bins": [-0.05718003585934639, -0.055309027433395386, -0.05343801528215408, -0.05156700685620308, -0.049695998430252075, -0.04782498627901077, -0.04595397785305977, -0.044082969427108765, -0.04221195727586746, -0.04034094884991646, -0.038469936698675156, -0.03659892827272415, -0.03472791612148285, -0.032856907695531845, -0.03098589926958084, -0.029114888980984688, -0.027243878692388535, -0.02537286840379238, -0.023501858115196228, -0.021630849689245224, -0.01975983940064907, -0.017888829112052917, -0.016017820686101913, -0.01414681039750576, -0.012275800108909607, -0.010404789820313454, -0.008533780463039875, -0.006662770640105009, -0.004791760817170143, -0.00292075052857399, -0.0010497411713004112, 0.0008212681859731674, 0.002692282199859619, 0.004563292022794485, 0.006434301845729351, 0.00830531120300293, 0.010176321491599083, 0.012047331780195236, 0.013918341137468815, 0.015789350494742393, 0.017660360783338547, 0.0195313710719347, 0.021402381360530853, 0.023273389786481857, 0.02514440007507801, 0.027015410363674164, 0.028886418789625168, 0.03075742907822132, 0.032628439366817474, 0.03449944779276848, 0.03637045994400978, 0.038241468369960785, 0.04011248052120209, 0.04198348894715309, 0.043854497373104095, 0.0457255095243454, 0.0475965179502964, 0.049467526376247406, 0.05133853852748871, 0.05320954695343971, 0.05508055537939072, 0.05695156753063202, 0.05882257595658302, 0.06069358438253403, 0.06256459653377533]}, "gradients/graph_1base.feature_norm.weight": {"_type": "histogram", "values": [1.0, 0.0, 0.0, 0.0, 0.0, 0.0, 0.0, 0.0, 0.0, 0.0, 0.0, 0.0, 0.0, 0.0, 0.0, 0.0, 0.0, 0.0, 0.0, 0.0, 0.0, 0.0, 0.0, 0.0, 0.0, 3.0, 20.0, 410.0, 342.0, 12.0, 2.0, 1.0, 0.0, 0.0, 0.0, 0.0, 0.0, 0.0, 0.0, 0.0, 0.0, 0.0, 0.0, 0.0, 0.0, 0.0, 0.0, 0.0, 0.0, 0.0, 0.0, 0.0, 0.0, 0.0, 0.0, 0.0, 0.0, 0.0, 1.0, 0.0, 0.0, 0.0, 0.0, 1.0], "bins": [-0.0008672207477502525, -0.0008362131775356829, -0.0008052056073211133, -0.0007741980371065438, -0.0007431904668919742, -0.0007121828966774046, -0.000681175384670496, -0.0006501678144559264, -0.0006191602442413568, -0.0005881526740267873, -0.0005571451038122177, -0.0005261375335976481, -0.0004951299633830786, -0.000464122393168509, -0.0004331148520577699, -0.0004021072818432003, -0.0003710996825248003, -0.00034009211231023073, -0.00030908454209566116, -0.0002780769718810916, -0.000247069401666522, -0.00021606184600386769, -0.00018505429034121335, -0.00015404672012664378, -0.0001230391499120742, -9.203157969750464e-05, -6.1024016758892685e-05, -3.001645382028073e-05, 9.91116394288838e-07, 3.1998686608858407e-05, 6.300624227151275e-05, 9.401381248608232e-05, 0.00012502132449299097, 0.00015602889470756054, 0.0001870364649221301, 0.00021804402058478445, 0.00024905160535126925, 0.0002800591755658388, 0.0003110667166765779, 0.0003420742868911475, 0.00037308185710571706, 0.00040408942732028663, 0.0004350969975348562, 0.0004661045386455953, 0.0004971121088601649, 0.0005281196790747344, 0.000559127249289304, 0.0005901348195038736, 0.0006211423897184432, 0.0006521499599330127, 0.0006831575301475823, 0.0007141651003621519, 0.0007451726705767214, 0.000776180240791291, 0.0008071877527981997, 0.0008381953230127692, 0.0008692028932273388, 0.0009002104634419084, 0.0009312180336564779, 0.0009622256038710475, 0.000993233174085617, 0.0010242407443001866, 0.0010552483145147562, 0.0010862558847293258, 0.0011172634549438953]}, "gradients/graph_1base.feature_norm.bias": {"_type": "histogram", "values": [2.0, 1.0, 0.0, 3.0, 2.0, 1.0, 1.0, 1.0, 1.0, 6.0, 5.0, 2.0, 8.0, 7.0, 4.0, 5.0, 13.0, 19.0, 12.0, 18.0, 18.0, 16.0, 13.0, 20.0, 24.0, 28.0, 27.0, 22.0, 21.0, 29.0, 18.0, 31.0, 26.0, 30.0, 33.0, 22.0, 20.0, 19.0, 23.0, 16.0, 19.0, 23.0, 23.0, 21.0, 14.0, 13.0, 11.0, 13.0, 13.0, 12.0, 11.0, 8.0, 8.0, 10.0, 2.0, 4.0, 2.0, 6.0, 2.0, 0.0, 4.0, 3.0, 1.0, 3.0], "bins": [-0.0008958081598393619, -0.000868716393597424, -0.0008416246273554862, -0.0008145328611135483, -0.0007874411530792713, -0.0007603493286296725, -0.0007332576205953956, -0.0007061658543534577, -0.0006790740881115198, -0.0006519823218695819, -0.0006248905556276441, -0.0005977987893857062, -0.0005707070231437683, -0.0005436153151094913, -0.0005165235488675535, -0.0004894317826256156, -0.0004623400163836777, -0.00043524825014173985, -0.00040815648389980197, -0.00038106474676169455, -0.0003539729805197567, -0.0003268812142778188, -0.0002997894771397114, -0.0002726977108977735, -0.00024560594465583563, -0.00021851417841389775, -0.0001914224267238751, -0.00016433067503385246, -0.00013723890879191458, -0.0001101471425499767, -8.305539085995406e-05, -5.596363916993141e-05, -2.8871814720332623e-05, -1.780055754352361e-06, 2.53117032116279e-05, 5.240346217760816e-05, 7.949522114358842e-05, 0.0001065869873855263, 0.00013367873907554895, 0.0001607704907655716, 0.00018786225700750947, 0.00021495402324944735, 0.00024204577493947, 0.00026913752662949264, 0.0002962292928714305, 0.0003233210591133684, 0.0003504127962514758, 0.0003775045624934137, 0.00040459632873535156, 0.00043168809497728944, 0.0004587798612192273, 0.00048587159835733473, 0.0005129633937031031, 0.00054005510173738, 0.0005671468679793179, 0.0005942386342212558, 0.0006213304004631937, 0.0006484221667051315, 0.0006755139329470694, 0.0007026056991890073, 0.0007296974072232842, 0.000756789231672883, 0.00078388093970716, 0.0008109727059490979, 0.0008380644721910357]}, "_wandb": {"runtime": 10533}}