{"value_loss": 0.13198553919792175, "_timestamp": 1665394564.4769104, "_runtime": 12424.13105726242, "policy_loss": -0.0004289347907228347, "dist_entropy": 1.0275872468948364, "actor_grad_norm": 0.032476965337991714, "critic_grad_norm": 0.06266060471534729, "ratio": 1.0000135898590088, "sm3_ratio_mean": 0.21445464852606874, "drop_ratio_mean": 0.0028552229050546885, "drop_ratio_std": 0.04457896575331688, "drop_ratio_min": 0.0, "drop_ratio_max": 1.0, "ue_drop_ratio_mean": 0.003804324698928826, "ue_drop_ratio_std": 0.05082410319406062, "ue_drop_ratio_min": 0.0, "ue_drop_ratio_max": 0.9999990000010001, "delay_ratio_mean": 0.11415296792984009, "delay_ratio_std": 0.1479494422674179, "delay_ratio_min": 0.0, "delay_ratio_max": 1.0, "qos_reward_mean": 0.00024600540018825513, "qos_reward_std": 0.028436493271632165, "qos_reward_min": -0.9999990000010001, "qos_reward_max": 0.003933329396526999, "pc_kw_mean": 0.212488841966296, "pc_kw_std": 0.044062423622923876, "pc_kw_min": 0.1062491226196289, "pc_kw_max": 0.609515869140625, "reward_mean": -0.21125881496535476, "reward_std": 0.1489181105729829, "reward_min": -5.279954411626094, "reward_max": -0.1062491226196289, "_step": 2520000, "gradients/act.action_outs.2.linear.bias": {"_type": "histogram", "values": [1.0, 0.0, 0.0, 0.0, 0.0, 0.0, 0.0, 0.0, 0.0, 0.0, 0.0, 0.0, 0.0, 0.0, 0.0, 0.0, 0.0, 0.0, 0.0, 0.0, 0.0, 0.0, 0.0, 0.0, 0.0, 0.0, 0.0, 0.0, 0.0, 0.0, 0.0, 0.0, 0.0, 0.0, 0.0, 0.0, 0.0, 0.0, 0.0, 0.0, 0.0, 0.0, 1.0, 0.0, 0.0, 0.0, 0.0, 0.0, 0.0, 0.0, 0.0, 0.0, 0.0, 0.0, 0.0, 0.0, 0.0, 0.0, 0.0, 0.0, 0.0, 0.0, 0.0, 1.0], "bins": [-0.0014055331703275442, -0.0013660999247804284, -0.0013266667956486344, -0.0012872335501015186, -0.0012478003045544028, -0.001208367059007287, -0.001168933929875493, -0.0011295006843283772, -0.0010900674387812614, -0.0010506341932341456, -0.0010112010641023517, -0.0009717678185552359, -0.0009323345730081201, -0.0008929013856686652, -0.0008534681983292103, -0.0008140349527820945, -0.0007746018236503005, -0.0007351686363108456, -0.0006957353907637298, -0.0006563022034242749, -0.0006168689578771591, -0.0005774357705377042, -0.0005380025831982493, -0.0004985693376511335, -0.00045913615031167865, -0.0004197029338683933, -0.00038026971742510796, -0.00034083653008565307, -0.0003014033136423677, -0.0002619700971990824, -0.00022253689530771226, -0.00018310369341634214, -0.00014367059338837862, -0.00010423738422105089, -6.480417505372316e-05, -2.5370965886395425e-05, 1.4062243280932307e-05, 5.349545972421765e-05, 9.292866161558777e-05, 0.0001323618635069579, 0.00017179507995024323, 0.00021122829639352858, 0.0002506615128368139, 0.0002900947001762688, 0.00032952791661955416, 0.0003689611330628395, 0.0004083943204022944, 0.00044782753684557974, 0.0004872607532888651, 0.00052669394062832, 0.0005661271861754358, 0.0006055603735148907, 0.0006449936190620065, 0.0006844268064014614, 0.0007238599937409163, 0.0007632932392880321, 0.0008027264266274869, 0.0008421596139669418, 0.0008815928595140576, 0.0009210260468535125, 0.0009604592341929674, 0.0009998924797400832, 0.001039325725287199, 0.001078758854418993, 0.0011181920999661088]}, "gradients/act.action_outs.2.linear.weight": {"_type": "histogram", "values": [1.0, 0.0, 0.0, 0.0, 0.0, 0.0, 0.0, 0.0, 0.0, 0.0, 0.0, 1.0, 0.0, 0.0, 0.0, 1.0, 0.0, 0.0, 0.0, 0.0, 1.0, 1.0, 1.0, 1.0, 0.0, 1.0, 2.0, 1.0, 3.0, 3.0, 2.0, 8.0, 16.0, 4.0, 8.0, 13.0, 7.0, 24.0, 6.0, 6.0, 10.0, 7.0, 4.0, 3.0, 6.0, 5.0, 4.0, 17.0, 8.0, 3.0, 2.0, 1.0, 5.0, 1.0, 2.0, 1.0, 1.0, 0.0, 0.0, 0.0, 0.0, 0.0, 0.0, 1.0], "bins": [-0.005067839287221432, -0.004937875084578991, -0.0048079113475978374, -0.004677947144955397, -0.004547983407974243, -0.004418019205331802, -0.004288055002689362, -0.004158091265708208, -0.004028127063065767, -0.00389816309325397, -0.003768199123442173, -0.003638234920799732, -0.003508270950987935, -0.003378306981176138, -0.0032483430113643408, -0.0031183790415525436, -0.0029884150717407465, -0.0028584511019289494, -0.002728487132117152, -0.002598523162305355, -0.0024685589596629143, -0.002338594989851117, -0.00220863102003932, -0.002078667050227523, -0.0019487029640004039, -0.0018187389941886067, -0.0016887749079614878, -0.0015588109381496906, -0.0014288469683378935, -0.0012988828821107745, -0.0011689189122989774, -0.0010389548260718584, -0.0009089908562600613, -0.0007790268282406032, -0.0006490628002211452, -0.000519098830409348, -0.00038913480238988996, -0.0002591707743704319, -0.00012920680455863476, 7.572234608232975e-07, 0.00013072125148028135, 0.0002606852794997394, 0.000390649278415367, 0.0005206132773309946, 0.0006505773053504527, 0.0007805413333699107, 0.0009105053031817079, 0.0010404693894088268, 0.001170433359220624, 0.0013003973290324211, 0.00143036141525954, 0.0015603253850713372, 0.0016902894712984562, 0.0018202534411102533, 0.0019502174109220505, 0.0020801813807338476, 0.0022101453505456448, 0.002340109320357442, 0.002470073290169239, 0.00260003749281168, 0.002730001462623477, 0.002859965432435274, 0.0029899294022470713, 0.0031198933720588684, 0.003249857574701309]}, "gradients/act.action_outs.1.linear.bias": {"_type": "histogram", "values": [1.0, 0.0, 0.0, 0.0, 0.0, 0.0, 0.0, 0.0, 0.0, 0.0, 0.0, 0.0, 0.0, 0.0, 0.0, 0.0, 0.0, 0.0, 0.0, 0.0, 0.0, 0.0, 0.0, 0.0, 0.0, 0.0, 0.0, 0.0, 0.0, 1.0, 0.0, 0.0, 0.0, 0.0, 0.0, 0.0, 0.0, 0.0, 0.0, 0.0, 0.0, 0.0, 0.0, 0.0, 0.0, 0.0, 0.0, 0.0, 0.0, 0.0, 0.0, 0.0, 0.0, 0.0, 0.0, 0.0, 1.0, 0.0, 0.0, 0.0, 0.0, 0.0, 0.0, 1.0], "bins": [-0.0018701397348195314, -0.0018204679945483804, -0.0017707962542772293, -0.0017211245140060782, -0.0016714527737349272, -0.0016217810334637761, -0.001572109293192625, -0.0015224376693367958, -0.001472765812650323, -0.0014230940723791718, -0.0013734223321080208, -0.0013237505918368697, -0.0012740788515657187, -0.0012244071112945676, -0.0011747353710234165, -0.0011250637471675873, -0.0010753920068964362, -0.0010257202666252851, -0.0009760485263541341, -0.000926376786082983, -0.000876705045811832, -0.0008270333055406809, -0.0007773616234771907, -0.0007276898832060397, -0.0006780181429348886, -0.0006283464026637375, -0.0005786746623925865, -0.0005290029803290963, -0.0004793312109541148, -0.00042965947068296373, -0.0003799877595156431, -0.00033031601924449205, -0.00028064416255801916, -0.0002309724222868681, -0.00018130069656763226, -0.00013162897084839642, -8.195723057724535e-05, -3.228549030609429e-05, 1.738622086122632e-05, 6.705796113237739e-05, 0.00011672970140352845, 0.00016640144167467952, 0.00021607316739391536, 0.0002657448931131512, 0.00031541663338430226, 0.0003650883736554533, 0.00041476008482277393, 0.000464431825093925, 0.0005141035653650761, 0.0005637753056362271, 0.0006134470459073782, 0.0006631187861785293, 0.0007127905264496803, 0.0007624622667208314, 0.0008121339487843215, 0.0008618056890554726, 0.0009114774293266237, 0.0009611491695977747, 0.001010820851661265, 0.001060492591932416, 0.001110164332203567, 0.001159836072474718, 0.0012095078127458692, 0.0012591795530170202, 0.0013088512932881713]}, "gradients/act.action_outs.1.linear.weight": {"_type": "histogram", "values": [1.0, 1.0, 0.0, 0.0, 0.0, 0.0, 0.0, 0.0, 0.0, 0.0, 0.0, 0.0, 0.0, 0.0, 1.0, 0.0, 0.0, 1.0, 1.0, 0.0, 1.0, 0.0, 1.0, 1.0, 2.0, 2.0, 2.0, 2.0, 1.0, 7.0, 15.0, 7.0, 9.0, 27.0, 17.0, 11.0, 13.0, 12.0, 12.0, 29.0, 16.0, 9.0, 4.0, 3.0, 4.0, 7.0, 8.0, 14.0, 2.0, 1.0, 0.0, 2.0, 0.0, 2.0, 0.0, 0.0, 1.0, 2.0, 2.0, 1.0, 0.0, 0.0, 1.0, 1.0], "bins": [-0.005884477403014898, -0.00572801660746336, -0.005571555811911821, -0.005415094550698996, -0.005258633755147457, -0.005102172959595919, -0.00494571216404438, -0.004789251368492842, -0.004632790572941303, -0.004476329777389765, -0.004319868981838226, -0.0041634077206254005, -0.004006946925073862, -0.0038504861295223236, -0.003694025333970785, -0.0035375645384192467, -0.003381103277206421, -0.0032246424816548824, -0.0030681814532727003, -0.002911720657721162, -0.0027552596293389797, -0.0025987988337874413, -0.002442338038235903, -0.0022858772426843643, -0.002129416214302182, -0.0019729554187506437, -0.0018164943903684616, -0.0016600335948169231, -0.0015035726828500628, -0.0013471117708832026, -0.001190650975331664, -0.0010341900633648038, -0.0008777296170592308, -0.0007212687050923705, -0.0005648078513331711, -0.0004083469684701413, -0.00025188608560711145, -9.542517364025116e-05, 6.103568011894822e-05, 0.0002174965338781476, 0.0003739574458450079, 0.0005304183578118682, 0.0006868792115710676, 0.000843340065330267, 0.0009998009772971272, 0.0011562618892639875, 0.001312722684815526, 0.0014691835967823863, 0.0016256445087492466, 0.001782105420716107, 0.0019385663326829672, 0.0020950271282345057, 0.0022514881566166878, 0.0024079489521682262, 0.0025644097477197647, 0.002720870543271303, 0.0028773315716534853, 0.0030337923672050238, 0.003190253395587206, 0.0033467141911387444, 0.003503174986690283, 0.003659636015072465, 0.0038160968106240034, 0.0039725578390061855, 0.004129018634557724]}, "gradients/act.action_outs.0.linear.bias": {"_type": "histogram", "values": [1.0, 0.0, 0.0, 0.0, 0.0, 0.0, 1.0, 0.0, 0.0, 0.0, 0.0, 0.0, 0.0, 0.0, 0.0, 0.0, 0.0, 0.0, 0.0, 0.0, 0.0, 0.0, 0.0, 0.0, 0.0, 0.0, 0.0, 0.0, 0.0, 0.0, 0.0, 0.0, 0.0, 0.0, 0.0, 0.0, 0.0, 0.0, 0.0, 0.0, 0.0, 0.0, 0.0, 0.0, 0.0, 0.0, 0.0, 0.0, 0.0, 0.0, 0.0, 0.0, 0.0, 0.0, 0.0, 0.0, 0.0, 0.0, 0.0, 0.0, 0.0, 0.0, 0.0, 1.0], "bins": [-0.00023858906934037805, -0.00022849952802062035, -0.00021840998670086265, -0.00020832043082918972, -0.00019823088950943202, -0.00018814134818967432, -0.0001780517923180014, -0.0001679622509982437, -0.000157872709678486, -0.0001477831683587283, -0.0001376936270389706, -0.00012760407116729766, -0.00011751452984753996, -0.00010742498852778226, -9.733543993206695e-05, -8.724589133635163e-05, -7.715635001659393e-05, -6.706680869683623e-05, -5.697726010112092e-05, -4.688771514338441e-05, -3.6798170185647905e-05, -2.6708625227911398e-05, -1.661908027017489e-05, -6.529531674459577e-06, 3.5600096452981234e-06, 1.364955460303463e-05, 2.3739099560771137e-05, 3.3828644518507645e-05, 4.391818947624415e-05, 5.400773443398066e-05, 6.409727939171717e-05, 7.418682798743248e-05, 8.427639841102064e-05, 9.436593973077834e-05, 0.00010445548832649365, 0.00011454503692220896, 0.00012463457824196666, 0.00013472411956172436, 0.0001448136754333973, 0.000154903216753155, 0.0001649927580729127, 0.0001750822993926704, 0.0001851718407124281, 0.00019526139658410102, 0.00020535093790385872, 0.00021544047922361642, 0.00022553003509528935, 0.00023561957641504705, 0.00024570911773480475, 0.00025579865905456245, 0.00026588820037432015, 0.00027597774169407785, 0.000286067312117666, 0.0002961568534374237, 0.0003062463947571814, 0.0003163359360769391, 0.0003264254773966968, 0.0003365150187164545, 0.0003466045600362122, 0.0003566941013559699, 0.0003667836426757276, 0.00037687321309931576, 0.00038696275441907346, 0.00039705229573883116, 0.00040714183705858886]}, "gradients/act.action_outs.0.linear.weight": {"_type": "histogram", "values": [1.0, 0.0, 1.0, 1.0, 0.0, 0.0, 0.0, 0.0, 2.0, 1.0, 1.0, 0.0, 1.0, 3.0, 3.0, 4.0, 3.0, 0.0, 4.0, 3.0, 4.0, 9.0, 8.0, 9.0, 10.0, 12.0, 6.0, 9.0, 19.0, 12.0, 11.0, 9.0, 9.0, 6.0, 4.0, 5.0, 4.0, 4.0, 5.0, 0.0, 0.0, 0.0, 1.0, 1.0, 2.0, 0.0, 0.0, 1.0, 0.0, 0.0, 0.0, 0.0, 2.0, 0.0, 0.0, 0.0, 0.0, 0.0, 0.0, 0.0, 1.0, 0.0, 0.0, 1.0], "bins": [-0.0018442246364429593, -0.0017770605627447367, -0.001709896489046514, -0.0016427324153482914, -0.0015755683416500688, -0.0015084042679518461, -0.0014412401942536235, -0.0013740761205554008, -0.0013069120468571782, -0.0012397479731589556, -0.001172583899460733, -0.0011054198257625103, -0.0010382557520642877, -0.000971091678366065, -0.0009039276046678424, -0.0008367635309696198, -0.0007695994572713971, -0.0007024353835731745, -0.0006352713098749518, -0.0005681072361767292, -0.0005009431624785066, -0.00043377908878028393, -0.0003666150150820613, -0.00029945094138383865, -0.00023228686768561602, -0.00016512279398739338, -9.795872028917074e-05, -3.0794646590948105e-05, 3.636942710727453e-05, 0.00010353350080549717, 0.0001706975745037198, 0.00023786164820194244, 0.00030502560548484325, 0.0003721896791830659, 0.00043935375288128853, 0.0005065178265795112, 0.0005736819002777338, 0.0006408459739759564, 0.0007080100476741791, 0.0007751741213724017, 0.0008423381950706244, 0.000909502268768847, 0.0009766663424670696, 0.0010438304161652923, 0.001110994489863515, 0.0011781585635617375, 0.0012453226372599602, 0.0013124867109581828, 0.0013796507846564054, 0.001446814858354628, 0.0015139789320528507, 0.0015811430057510734, 0.001648307079449296, 0.0017154711531475186, 0.0017826352268457413, 0.001849799300543964, 0.0019169633742421865, 0.0019841273315250874, 0.002051291521638632, 0.0021184557117521763, 0.002185619669035077, 0.002252783626317978, 0.0023199478164315224, 0.002387112006545067, 0.0024542759638279676]}, "gradients/base.mlp.fc2.0.2.weight": {"_type": "histogram", "values": [1.0, 0.0, 0.0, 0.0, 0.0, 0.0, 0.0, 0.0, 0.0, 0.0, 0.0, 0.0, 0.0, 0.0, 0.0, 0.0, 0.0, 0.0, 1.0, 0.0, 1.0, 0.0, 0.0, 1.0, 0.0, 2.0, 0.0, 1.0, 1.0, 2.0, 1.0, 0.0, 0.0, 0.0, 0.0, 0.0, 1.0, 1.0, 3.0, 3.0, 4.0, 5.0, 7.0, 5.0, 0.0, 3.0, 6.0, 2.0, 2.0, 1.0, 2.0, 3.0, 2.0, 0.0, 0.0, 0.0, 0.0, 1.0, 0.0, 0.0, 0.0, 0.0, 1.0, 1.0], "bins": [-0.0003652204177342355, -0.00035745982313528657, -0.0003496992285363376, -0.00034193863393738866, -0.00033417801023460925, -0.0003264174156356603, -0.00031865682103671134, -0.0003108962264377624, -0.0003031356318388134, -0.00029537503723986447, -0.0002876144426409155, -0.0002798538189381361, -0.00027209322433918715, -0.0002643326297402382, -0.00025657203514128923, -0.0002488114405423403, -0.0002410508313914761, -0.00023329023679252714, -0.00022552962764166296, -0.000217769033042714, -0.00021000843844376504, -0.0002022478438448161, -0.0001944872346939519, -0.00018672664009500295, -0.00017896603094413877, -0.0001712054363451898, -0.00016344482719432563, -0.00015568423259537667, -0.00014792363799642771, -0.00014016302884556353, -0.00013240243424661458, -0.00012464183964766562, -0.00011688125960063189, -0.00010912065772572532, -0.00010136006312677637, -9.35994612518698e-05, -8.583886665292084e-05, -7.807826477801427e-05, -7.03176629031077e-05, -6.255706830415875e-05, -5.479646642925218e-05, -4.7035868192324415e-05, -3.927526995539665e-05, -3.151466808049008e-05, -2.375406984356232e-05, -1.5993471606634557e-05, -8.232869731727988e-06, -4.722714948002249e-07, 7.288326742127538e-06, 1.5048925888550002e-05, 2.2809525034972467e-05, 3.057012509088963e-05, 3.8330723327817395e-05, 4.609132156474516e-05, 5.385192343965173e-05, 6.161251803860068e-05, 6.937311991350725e-05, 7.713372178841382e-05, 8.489431638736278e-05, 9.265491826226935e-05, 0.00010041552013717592, 0.00010817611473612487, 0.00011593671661103144, 0.000123697318485938, 0.00013145791308488697]}, "gradients/base.mlp.fc2.0.2.bias": {"_type": "histogram", "values": [1.0, 0.0, 0.0, 0.0, 2.0, 0.0, 0.0, 0.0, 0.0, 0.0, 0.0, 1.0, 0.0, 0.0, 0.0, 0.0, 1.0, 1.0, 0.0, 0.0, 0.0, 2.0, 0.0, 2.0, 0.0, 0.0, 0.0, 0.0, 1.0, 0.0, 0.0, 1.0, 1.0, 1.0, 2.0, 1.0, 3.0, 2.0, 3.0, 2.0, 0.0, 2.0, 1.0, 1.0, 2.0, 0.0, 2.0, 7.0, 4.0, 3.0, 0.0, 0.0, 1.0, 2.0, 2.0, 1.0, 0.0, 0.0, 3.0, 1.0, 0.0, 2.0, 1.0, 2.0], "bins": [-0.0001710469659883529, -0.00016643588605802506, -0.000161824791575782, -0.00015721371164545417, -0.00015260263171512634, -0.0001479915517847985, -0.00014338045730255544, -0.0001387693773722276, -0.00013415829744189978, -0.00012954721751157194, -0.00012493612302932888, -0.00012032504309900105, -0.00011571396316867322, -0.00011110287596238777, -0.00010649178875610232, -0.00010188070882577449, -9.726961434353143e-05, -9.265852713724598e-05, -8.804744720691815e-05, -8.34363600006327e-05, -7.882528007030487e-05, -7.421419286401942e-05, -6.960310565773398e-05, -6.499202572740614e-05, -6.03809385211207e-05, -5.576985495281406e-05, -5.115877138450742e-05, -4.654768417822197e-05, -4.193660060991533e-05, -3.732551704160869e-05, -3.2714429835323244e-05, -2.8103346267016605e-05, -2.3492277250625193e-05, -1.8881193682318553e-05, -1.427010829502251e-05, -9.659023817221168e-06, -5.047939339419827e-06, -4.368557711131871e-07, 4.174229616182856e-06, 8.7853150034789e-06, 1.339639857178554e-05, 1.800748214009218e-05, 2.2618567527388223e-05, 2.7229652914684266e-05, 3.1840736482990906e-05, 3.6451820051297545e-05, 4.106290725758299e-05, 4.567399082588963e-05, 5.028507439419627e-05, 5.489615796250291e-05, 5.950724153080955e-05, 6.4118328737095e-05, 6.872940866742283e-05, 7.334049587370828e-05, 7.795158307999372e-05, 8.256266301032156e-05, 8.7173750216607e-05, 9.178483742289245e-05, 9.639591735322028e-05, 0.00010100700455950573, 0.00010561809176579118, 0.00011022917169611901, 0.00011484025890240446, 0.0001194513461086899, 0.00012406242603901774]}, "gradients/base.mlp.fc2.0.0.bias": {"_type": "histogram", "values": [1.0, 0.0, 0.0, 1.0, 0.0, 0.0, 0.0, 1.0, 0.0, 0.0, 0.0, 1.0, 0.0, 0.0, 0.0, 1.0, 1.0, 0.0, 2.0, 1.0, 1.0, 1.0, 1.0, 1.0, 0.0, 2.0, 1.0, 2.0, 3.0, 4.0, 3.0, 6.0, 7.0, 2.0, 1.0, 1.0, 2.0, 2.0, 2.0, 1.0, 0.0, 1.0, 1.0, 0.0, 0.0, 0.0, 2.0, 0.0, 3.0, 1.0, 0.0, 1.0, 0.0, 1.0, 0.0, 1.0, 0.0, 0.0, 0.0, 0.0, 0.0, 0.0, 0.0, 1.0], "bins": [-0.00015655314200557768, -0.000151551139424555, -0.0001465491222916171, -0.00014154711971059442, -0.0001365451025776565, -0.00013154309999663383, -0.00012654108286369592, -0.00012153908028267324, -0.00011653706314973533, -0.00011153505329275504, -0.00010653304343577474, -0.00010153103357879445, -9.652902372181416e-05, -9.152701386483386e-05, -8.652500400785357e-05, -8.152300142683089e-05, -7.65209915698506e-05, -7.15189817128703e-05, -6.651697185589e-05, -6.151496199890971e-05, -5.651295214192942e-05, -5.1510942284949124e-05, -4.650893606594764e-05, -4.150692620896734e-05, -3.650491635198705e-05, -3.1502906495006755e-05, -2.650089663802646e-05, -2.149888860003557e-05, -1.6496878743055277e-05, -1.1494868886074983e-05, -6.492860848084092e-06, -1.4908509911037982e-06, 3.511158865876496e-06, 8.51316872285679e-06, 1.3515177670342382e-05, 1.8517186617827974e-05, 2.3519196474808268e-05, 2.8521206331788562e-05, 3.352321436977945e-05, 3.852522422675975e-05, 4.352723408374004e-05, 4.8529243940720335e-05, 5.353125379770063e-05, 5.8533260016702116e-05, 6.353526987368241e-05, 6.85372797306627e-05, 7.3539289587643e-05, 7.854129944462329e-05, 8.354330930160359e-05, 8.854531915858388e-05, 9.354732901556417e-05, 9.854933887254447e-05, 0.00010355134872952476, 0.00010855335858650506, 0.00011355536116752774, 0.00011855737830046564, 0.00012355938088148832, 0.000128561383462511, 0.0001335634005954489, 0.0001385654031764716, 0.0001435674203094095, 0.00014856942289043218, 0.0001535714400233701, 0.00015857344260439277, 0.00016357545973733068]}, "gradients/base.mlp.fc2.0.0.weight": {"_type": "histogram", "values": [1.0, 1.0, 0.0, 0.0, 0.0, 0.0, 0.0, 0.0, 1.0, 0.0, 0.0, 2.0, 0.0, 0.0, 2.0, 1.0, 0.0, 3.0, 5.0, 5.0, 11.0, 7.0, 17.0, 18.0, 17.0, 36.0, 44.0, 50.0, 112.0, 176.0, 218.0, 293.0, 580.0, 1199.0, 403.0, 271.0, 174.0, 135.0, 87.0, 62.0, 51.0, 21.0, 20.0, 11.0, 14.0, 7.0, 13.0, 5.0, 3.0, 1.0, 4.0, 2.0, 3.0, 0.0, 3.0, 1.0, 1.0, 2.0, 0.0, 1.0, 0.0, 0.0, 0.0, 2.0], "bins": [-0.0005742114735767245, -0.00055699358927086, -0.0005397757049649954, -0.0005225578206591308, -0.0005053399363532662, -0.0004881220811512321, -0.000470904225949198, -0.00045368634164333344, -0.00043646845733746886, -0.0004192505730316043, -0.0004020326887257397, -0.0003848148335237056, -0.00036759694921784103, -0.00035037906491197646, -0.00033316120970994234, -0.00031594332540407777, -0.0002987254410982132, -0.0002815075567923486, -0.00026428967248648405, -0.00024707181728444993, -0.00022985393297858536, -0.0002126360486727208, -0.00019541817891877145, -0.0001782003091648221, -0.00016098242485895753, -0.00014376454055309296, -0.0001265466707991436, -0.00010932879376923665, -9.21109167393297e-05, -7.489303970942274e-05, -5.767516267951578e-05, -4.045728564960882e-05, -2.3239408619701862e-05, -6.021531589794904e-06, 1.1196345440112054e-05, 2.8414222470019013e-05, 4.563209949992597e-05, 6.284997652983293e-05, 8.006785355973989e-05, 9.728573058964685e-05, 0.0001145036076195538, 0.00013172149192541838, 0.00014893936167936772, 0.00016615723143331707, 0.00018337511573918164, 0.0002005930000450462, 0.00021781086979899555, 0.0002350287395529449, 0.00025224662385880947, 0.00026946450816467404, 0.0002866823924705386, 0.00030390024767257273, 0.0003211181319784373, 0.0003383360162843019, 0.000355553871486336, 0.00037277175579220057, 0.00038998964009806514, 0.0004072075244039297, 0.0004244254087097943, 0.0004416432639118284, 0.00045886114821769297, 0.00047607903252355754, 0.0004932968877255917, 0.0005105147720314562, 0.0005277326563373208]}, "gradients/base.mlp.fc1.2.weight": {"_type": "histogram", "values": [1.0, 0.0, 0.0, 0.0, 0.0, 0.0, 0.0, 0.0, 0.0, 0.0, 0.0, 1.0, 0.0, 0.0, 0.0, 0.0, 0.0, 0.0, 0.0, 0.0, 0.0, 0.0, 0.0, 0.0, 0.0, 0.0, 0.0, 0.0, 0.0, 0.0, 1.0, 1.0, 1.0, 0.0, 1.0, 0.0, 0.0, 1.0, 0.0, 1.0, 0.0, 3.0, 3.0, 4.0, 5.0, 1.0, 2.0, 6.0, 5.0, 1.0, 3.0, 1.0, 2.0, 1.0, 3.0, 3.0, 4.0, 1.0, 1.0, 2.0, 2.0, 0.0, 1.0, 2.0], "bins": [-0.0004674306255765259, -0.00045760697685182095, -0.00044778332812711596, -0.00043795970850624144, -0.00042813605978153646, -0.0004183124110568315, -0.00040848879143595695, -0.000398665142711252, -0.000388841493986547, -0.000379017845261842, -0.00036919419653713703, -0.0003593705769162625, -0.0003495469281915575, -0.00033972327946685255, -0.000329899659845978, -0.00032007601112127304, -0.00031025236239656806, -0.0003004287136718631, -0.0002906050649471581, -0.0002807814453262836, -0.0002709577966015786, -0.0002611341478768736, -0.0002513105282559991, -0.0002414868795312941, -0.00023166323080658913, -0.00022183958208188415, -0.0002120159479090944, -0.00020219231373630464, -0.00019236866501159966, -0.00018254501628689468, -0.00017272138211410493, -0.00016289774794131517, -0.00015307407011277974, -0.00014325042138807476, -0.000133426787215285, -0.00012360315304249525, -0.00011377950431779027, -0.0001039558628690429, -9.413222142029554e-05, -8.430857997154817e-05, -7.44849385228008e-05, -6.466129707405344e-05, -5.483765562530607e-05, -4.50140141765587e-05, -3.5190372727811337e-05, -2.536673127906397e-05, -1.5543089830316603e-05, -5.7194483815692365e-06, 4.10419306717813e-06, 1.3927834515925497e-05, 2.3751475964672863e-05, 3.357511741342023e-05, 4.33987588621676e-05, 5.3222400310914963e-05, 6.304604175966233e-05, 7.28696832084097e-05, 8.269332465715706e-05, 9.251696610590443e-05, 0.0001023406075546518, 0.00011216424900339916, 0.00012198789045214653, 0.0001318115391768515, 0.00014163517334964126, 0.00015145880752243102, 0.000161282456247136]}, "gradients/base.mlp.fc1.2.bias": {"_type": "histogram", "values": [1.0, 0.0, 0.0, 0.0, 0.0, 0.0, 0.0, 1.0, 1.0, 0.0, 2.0, 3.0, 1.0, 1.0, 3.0, 0.0, 0.0, 0.0, 2.0, 4.0, 1.0, 1.0, 2.0, 1.0, 1.0, 2.0, 1.0, 4.0, 0.0, 0.0, 4.0, 1.0, 1.0, 2.0, 4.0, 1.0, 1.0, 1.0, 2.0, 1.0, 1.0, 1.0, 1.0, 3.0, 0.0, 0.0, 1.0, 1.0, 1.0, 0.0, 0.0, 0.0, 1.0, 0.0, 1.0, 0.0, 0.0, 0.0, 0.0, 0.0, 1.0, 0.0, 1.0, 1.0], "bins": [-0.00018657206965144724, -0.00018028939666692168, -0.00017400672368239611, -0.00016772405069787055, -0.000161441377713345, -0.00015515870472881943, -0.0001488760462962091, -0.00014259337331168354, -0.00013631070032715797, -0.0001300280273426324, -0.00012374535435810685, -0.00011746268137358129, -0.00011118000838905573, -0.00010489733540453017, -9.861466969596222e-05, -9.233199671143666e-05, -8.604931645095348e-05, -7.976664346642792e-05, -7.348397048190236e-05, -6.72012974973768e-05, -6.0918628150830045e-05, -5.4635955166304484e-05, -4.835328581975773e-05, -4.207061283523217e-05, -3.578793985070661e-05, -2.9505266866181046e-05, -2.3222595700644888e-05, -1.693992453510873e-05, -1.0657251550583169e-05, -4.3745785660576075e-06, 1.9080907804891467e-06, 8.190763765014708e-06, 1.4473451301455498e-05, 2.075612428598106e-05, 2.7038795451517217e-05, 3.3321466617053375e-05, 3.9604139601578936e-05, 4.58868125861045e-05, 5.216948193265125e-05, 5.845215491717681e-05, 6.473482790170237e-05, 7.101750088622794e-05, 7.73001738707535e-05, 8.358283957932144e-05, 8.9865512563847e-05, 9.614818554837257e-05, 0.00010243085853289813, 0.00010871353151742369, 0.00011499620450194925, 0.00012127887748647481, 0.00012756155047100037, 0.00013384422345552593, 0.0001401268964400515, 0.00014640956942457706, 0.0001526922278571874, 0.00015897490084171295, 0.0001652575738262385, 0.00017154024681076407, 0.00017782291979528964, 0.0001841055927798152, 0.00019038826576434076, 0.00019667093874886632, 0.00020295361173339188, 0.00020923628471791744, 0.000215518957702443]}, "gradients/base.mlp.fc1.0.bias": {"_type": "histogram", "values": [1.0, 0.0, 0.0, 0.0, 0.0, 0.0, 0.0, 0.0, 0.0, 0.0, 0.0, 0.0, 0.0, 0.0, 0.0, 0.0, 0.0, 0.0, 0.0, 0.0, 0.0, 0.0, 0.0, 2.0, 1.0, 1.0, 1.0, 2.0, 0.0, 3.0, 1.0, 2.0, 1.0, 3.0, 4.0, 2.0, 4.0, 12.0, 2.0, 3.0, 1.0, 2.0, 1.0, 2.0, 3.0, 1.0, 1.0, 0.0, 1.0, 1.0, 0.0, 0.0, 0.0, 1.0, 1.0, 1.0, 2.0, 0.0, 0.0, 0.0, 0.0, 0.0, 0.0, 1.0], "bins": [-0.00036016240483149886, -0.0003505554923322052, -0.0003409485798329115, -0.00033134169643744826, -0.0003217347839381546, -0.0003121278714388609, -0.00030252098804339767, -0.000292914075544104, -0.0002833071630448103, -0.0002737002505455166, -0.0002640933380462229, -0.0002544864546507597, -0.000244879542151466, -0.00023527262965217233, -0.00022566573170479387, -0.00021605883375741541, -0.00020645192125812173, -0.00019684500875882804, -0.0001872381108114496, -0.00017763121286407113, -0.00016802430036477745, -0.00015841738786548376, -0.0001488104899181053, -0.00013920359197072685, -0.00012959667947143316, -0.00011998977424809709, -0.00011038286902476102, -0.00010077596380142495, -9.116905857808888e-05, -8.156215335475281e-05, -7.195524813141674e-05, -6.234834290808067e-05, -5.2741437684744596e-05, -4.3134532461408526e-05, -3.3527627238072455e-05, -2.3920722014736384e-05, -1.4313816791400313e-05, -4.706911568064243e-06, 4.899993655271828e-06, 1.4506898878607899e-05, 2.411380410194397e-05, 3.372070932528004e-05, 4.332761454861611e-05, 5.293451977195218e-05, 6.254142499528825e-05, 7.214833021862432e-05, 8.17552354419604e-05, 9.136214066529647e-05, 0.00010096904588863254, 0.0001105759511119686, 0.00012018285633530468, 0.00012978975428268313, 0.00013939666678197682, 0.0001490035792812705, 0.00015861047722864896, 0.00016821737517602742, 0.0001778242876753211, 0.0001874312001746148, 0.00019703809812199324, 0.0002066449960693717, 0.00021625190856866539, 0.00022585882106795907, 0.00023546571901533753, 0.000245072616962716, 0.00025467952946200967]}, "gradients/base.mlp.fc1.0.weight": {"_type": "histogram", "values": [1.0, 1.0, 2.0, 2.0, 1.0, 0.0, 1.0, 0.0, 2.0, 2.0, 1.0, 0.0, 1.0, 2.0, 4.0, 3.0, 8.0, 3.0, 11.0, 22.0, 44.0, 45.0, 51.0, 161.0, 448.0, 2012.0, 3814.0, 245.0, 173.0, 82.0, 41.0, 31.0, 29.0, 9.0, 12.0, 5.0, 7.0, 4.0, 4.0, 3.0, 1.0, 0.0, 0.0, 1.0, 0.0, 3.0, 0.0, 0.0, 0.0, 1.0, 1.0, 0.0, 0.0, 0.0, 0.0, 0.0, 1.0, 0.0, 0.0, 0.0, 0.0, 0.0, 0.0, 1.0], "bins": [-0.0014492712216451764, -0.0013936016475781798, -0.001337932189926505, -0.0012822626158595085, -0.001226593041792512, -0.0011709235841408372, -0.0011152540100738406, -0.0010595845524221659, -0.0010039149783551693, -0.0009482454624958336, -0.000892575946636498, -0.0008369063725695014, -0.0007812368567101657, -0.0007255673408508301, -0.0006698977667838335, -0.0006142282509244978, -0.0005585587350651622, -0.0005028892192058265, -0.0004472196742426604, -0.0003915501292794943, -0.0003358806134201586, -0.00028021109756082296, -0.00022454155259765685, -0.00016887200763449073, -0.00011320249177515507, -5.753296136390418e-05, -1.8634309526532888e-06, 5.38060994585976e-05, 0.00010947562986984849, 0.00016514514572918415, 0.00022081469069235027, 0.0002764842356555164, 0.0003321538679301739, 0.00038782338378950953, 0.00044349292875267565, 0.0004991624737158418, 0.0005548319895751774, 0.0006105015054345131, 0.0006661710795015097, 0.0007218405953608453, 0.000777510111220181, 0.0008331796270795166, 0.0008888491429388523, 0.0009445187170058489, 0.0010001882910728455, 0.0010558577487245202, 0.0011115273227915168, 0.0011671967804431915, 0.001222866354510188, 0.0012785359285771847, 0.0013342053862288594, 0.001389874960295856, 0.0014455444179475307, 0.0015012139920145273, 0.001556883566081524, 0.0016125531401485205, 0.0016682225978001952, 0.0017238921718671918, 0.0017795616295188665, 0.0018352312035858631, 0.0018909007776528597, 0.0019465702353045344, 0.002002239692956209, 0.0020579092670232058, 0.0021135788410902023]}, "gradients/base.feature_norm.weight": {"_type": "histogram", "values": [1.0, 0.0, 0.0, 0.0, 0.0, 0.0, 0.0, 0.0, 0.0, 0.0, 0.0, 0.0, 0.0, 0.0, 0.0, 0.0, 0.0, 0.0, 1.0, 0.0, 0.0, 0.0, 1.0, 0.0, 0.0, 0.0, 1.0, 0.0, 0.0, 0.0, 0.0, 0.0, 1.0, 2.0, 1.0, 4.0, 13.0, 15.0, 22.0, 18.0, 17.0, 6.0, 2.0, 0.0, 1.0, 0.0, 1.0, 4.0, 0.0, 0.0, 1.0, 0.0, 0.0, 0.0, 0.0, 0.0, 0.0, 0.0, 0.0, 1.0, 0.0, 0.0, 0.0, 1.0], "bins": [-0.0008621143642812967, -0.0008397925994358957, -0.0008174708345904946, -0.0007951490697450936, -0.0007728273048996925, -0.0007505055400542915, -0.0007281837752088904, -0.0007058620103634894, -0.0006835402455180883, -0.0006612184806726873, -0.0006388967158272862, -0.0006165749509818852, -0.0005942531861364841, -0.0005719314212910831, -0.000549609656445682, -0.000527287891600281, -0.00050496612675488, -0.0004826443619094789, -0.00046032259706407785, -0.0004380008322186768, -0.00041567906737327576, -0.0003933573025278747, -0.00037103553768247366, -0.0003487137728370726, -0.00032639194978401065, -0.0003040701849386096, -0.00028174842009320855, -0.0002594266552478075, -0.00023710489040240645, -0.0002147831255570054, -0.00019246134615968913, -0.00017013958131428808, -0.00014781783102080226, -0.0001254960661754012, -0.00010317430133000016, -8.08525292086415e-05, -5.853076436324045e-05, -3.62089995178394e-05, -1.3887227396480739e-05, 8.43453744892031e-06, 3.075630229432136e-05, 5.307806713972241e-05, 7.539983198512346e-05, 9.772160410648212e-05, 0.00012004336895188317, 0.00014236514107324183, 0.00016468690591864288, 0.00018700867076404393, 0.00020933043560944498, 0.00023165220045484602, 0.0002539739653002471, 0.0002762957301456481, 0.00029861749499104917, 0.0003209392598364502, 0.0003432610537856817, 0.0003655828186310828, 0.0003879045834764838, 0.00041022634832188487, 0.0004325481131672859, 0.00045486987801268697, 0.000477191642858088, 0.0004995134077034891, 0.0005218351725488901, 0.0005441569373942912, 0.0005664787022396922]}, "gradients/base.feature_norm.bias": {"_type": "histogram", "values": [1.0, 0.0, 0.0, 0.0, 0.0, 0.0, 0.0, 0.0, 0.0, 0.0, 1.0, 1.0, 2.0, 0.0, 2.0, 1.0, 2.0, 6.0, 3.0, 1.0, 3.0, 5.0, 6.0, 6.0, 2.0, 5.0, 5.0, 4.0, 3.0, 2.0, 9.0, 5.0, 2.0, 5.0, 3.0, 5.0, 6.0, 3.0, 3.0, 1.0, 2.0, 0.0, 2.0, 2.0, 2.0, 1.0, 0.0, 1.0, 0.0, 0.0, 0.0, 0.0, 0.0, 0.0, 0.0, 0.0, 0.0, 0.0, 0.0, 0.0, 0.0, 0.0, 0.0, 1.0], "bins": [-0.00031574134482070804, -0.0003043579636141658, -0.00029297455330379307, -0.0002815911720972508, -0.00027020779089070857, -0.00025882438058033586, -0.0002474409993737936, -0.00023605761816725135, -0.00022467422240879387, -0.00021329082665033638, -0.00020190744544379413, -0.00019052404968533665, -0.00017914065392687917, -0.00016775727272033691, -0.00015637387696187943, -0.00014499048120342195, -0.0001336070999968797, -0.00012222370423842221, -0.00011084032303187996, -9.945692727342248e-05, -8.807353879092261e-05, -7.669015030842274e-05, -6.530675454996526e-05, -5.3923366067465395e-05, -4.253997758496553e-05, -3.115658910246566e-05, -1.9773196981986985e-05, -8.38980486150831e-06, 2.993583620991558e-06, 1.4376972103491426e-05, 2.5760367861948907e-05, 3.7143756344448775e-05, 4.85271739307791e-05, 5.991056241327897e-05, 7.129395089577883e-05, 8.267734665423632e-05, 9.406073513673618e-05, 0.00010544412361923605, 0.00011682751937769353, 0.0001282109005842358, 0.00013959429634269327, 0.00015097769210115075, 0.000162361073307693, 0.0001737444690661505, 0.00018512786482460797, 0.00019651124603115022, 0.0002078946417896077, 0.00021927803754806519, 0.00023066141875460744, 0.00024204481451306492, 0.0002534282102715224, 0.00026481159147806466, 0.0002761949726846069, 0.0002875783829949796, 0.0002989617642015219, 0.0003103451454080641, 0.0003217285266146064, 0.00033311190782114863, 0.00034449531813152134, 0.0003558786993380636, 0.00036726208054460585, 0.00037864549085497856, 0.0003900288720615208, 0.00040141225326806307, 0.0004127956635784358]}, "gradients/graph_1v_out.bias": {"_type": "histogram", "values": [0.0, 0.0, 0.0, 0.0, 0.0, 0.0, 0.0, 0.0, 0.0, 0.0, 0.0, 0.0, 0.0, 0.0, 0.0, 0.0, 0.0, 0.0, 0.0, 0.0, 0.0, 0.0, 0.0, 0.0, 0.0, 0.0, 0.0, 0.0, 0.0, 0.0, 0.0, 0.0, 1.0, 0.0, 0.0, 0.0, 0.0, 0.0, 0.0, 0.0, 0.0, 0.0, 0.0, 0.0, 0.0, 0.0, 0.0, 0.0, 0.0, 0.0, 0.0, 0.0, 0.0, 0.0, 0.0, 0.0, 0.0, 0.0, 0.0, 0.0, 0.0, 0.0, 0.0, 0.0], "bins": [0.005272116512060165, 0.005272116512060165, 0.005272116512060165, 0.005272116512060165, 0.005272116512060165, 0.005272116512060165, 0.005272116512060165, 0.005272116512060165, 0.005272116512060165, 0.005272116512060165, 0.005272116512060165, 0.005272116512060165, 0.005272116512060165, 0.005272116512060165, 0.005272116512060165, 0.005272116512060165, 0.005272116512060165, 0.005272116512060165, 0.005272116512060165, 0.005272116512060165, 0.005272116512060165, 0.005272116512060165, 0.005272116512060165, 0.005272116512060165, 0.005272116512060165, 0.005272116512060165, 0.005272116512060165, 0.005272116512060165, 0.005272116512060165, 0.005272116512060165, 0.005272116512060165, 0.005272116512060165, 0.005272116512060165, 0.005272116512060165, 0.005272116512060165, 0.005272116512060165, 0.005272116512060165, 0.005272116512060165, 0.005272116512060165, 0.005272116512060165, 0.005272116512060165, 0.005272116512060165, 0.005272116512060165, 0.005272116512060165, 0.005272116512060165, 0.005272116512060165, 0.005272116512060165, 0.005272116512060165, 0.005272116512060165, 0.005272116512060165, 0.005272116512060165, 0.005272116512060165, 0.005272116512060165, 0.005272116512060165, 0.005272116512060165, 0.005272116512060165, 0.005272116512060165, 0.005272116512060165, 0.005272116512060165, 0.005272116512060165, 0.005272116512060165, 0.005272116512060165, 0.005272116512060165, 0.005272116512060165, 0.005272116512060165]}, "gradients/graph_1v_out.weight": {"_type": "histogram", "values": [1.0, 1.0, 2.0, 3.0, 26.0, 7.0, 2.0, 1.0, 1.0, 3.0, 1.0, 1.0, 0.0, 0.0, 2.0, 2.0, 0.0, 0.0, 1.0, 0.0, 1.0, 0.0, 0.0, 0.0, 0.0, 0.0, 0.0, 0.0, 0.0, 1.0, 0.0, 1.0, 0.0, 0.0, 0.0, 0.0, 0.0, 0.0, 0.0, 0.0, 0.0, 0.0, 0.0, 1.0, 1.0, 0.0, 0.0, 0.0, 0.0, 0.0, 0.0, 0.0, 1.0, 0.0, 1.0, 0.0, 0.0, 0.0, 1.0, 0.0, 0.0, 0.0, 0.0, 2.0], "bins": [-0.004210493993014097, -0.0038735419511795044, -0.0035365899093449116, -0.0031996381003409624, -0.0028626860585063696, -0.0025257340166717768, -0.0021887822076678276, -0.0018518301658332348, -0.001514878123998642, -0.0011779260821640491, -0.0008409741567447782, -0.0005040222313255072, -0.00016707018949091434, 0.00016988185234367847, 0.0005068336613476276, 0.0008437857031822205, 0.0011807377450168133, 0.001517689786851406, 0.001854641712270677, 0.002191593637689948, 0.002528545679524541, 0.0028654977213591337, 0.003202449530363083, 0.0035394015721976757, 0.0038763536140322685, 0.004213305655866861, 0.004550257697701454, 0.00488720927387476, 0.00522416178137064, 0.005561113357543945, 0.005898065399378538, 0.006235017441213131, 0.0065719690173864365, 0.006908921059221029, 0.007245873101055622, 0.007582824677228928, 0.007919777184724808, 0.008256728760898113, 0.008593680337071419, 0.008930632844567299, 0.009267585352063179, 0.009604536928236485, 0.009941489435732365, 0.01027844101190567, 0.01061539351940155, 0.010952345095574856, 0.011289296671748161, 0.011626249179244041, 0.011963200755417347, 0.012300152331590652, 0.012637104839086533, 0.012974056415259838, 0.013311008922755718, 0.013647960498929024, 0.013984913006424904, 0.01432186458259821, 0.014658816158771515, 0.01499576773494482, 0.0153327202424407, 0.015669671818614006, 0.016006624326109886, 0.016343576833605766, 0.016680527478456497, 0.017017479985952377, 0.017354432493448257]}, "gradients/graph_1base.mlp.fc2.0.2.weight": {"_type": "histogram", "values": [1.0, 0.0, 0.0, 1.0, 0.0, 0.0, 0.0, 1.0, 0.0, 0.0, 0.0, 0.0, 0.0, 0.0, 0.0, 0.0, 1.0, 1.0, 4.0, 1.0, 3.0, 1.0, 3.0, 4.0, 5.0, 6.0, 5.0, 4.0, 5.0, 3.0, 5.0, 0.0, 1.0, 4.0, 1.0, 1.0, 1.0, 0.0, 0.0, 0.0, 0.0, 0.0, 0.0, 0.0, 0.0, 0.0, 0.0, 0.0, 0.0, 0.0, 1.0, 0.0, 0.0, 0.0, 0.0, 0.0, 0.0, 0.0, 0.0, 0.0, 0.0, 0.0, 0.0, 1.0], "bins": [-0.0017100919503718615, -0.0016432664124295115, -0.0015764408744871616, -0.00150961522012949, -0.00144278968218714, -0.00137596414424479, -0.0013091384898871183, -0.0012423129519447684, -0.0011754874140024185, -0.0011086618760600686, -0.0010418363381177187, -0.000975010683760047, -0.000908185145817697, -0.0008413596078753471, -0.0007745340117253363, -0.0007077084155753255, -0.0006408828776329756, -0.0005740573396906257, -0.0005072317435406148, -0.0004404061764944345, -0.0003735806094482541, -0.00030675504240207374, -0.00023992947535589337, -0.000173103908309713, -0.00010627834126353264, -3.945277421735227e-05, 2.7372792828828096e-05, 9.419835987500846e-05, 0.00016102392692118883, 0.0002278494939673692, 0.00029467506101354957, 0.00036150062805972993, 0.00042832642793655396, 0.0004951519658789039, 0.0005619775620289147, 0.0006288031581789255, 0.0006956286961212754, 0.0007624542340636253, 0.0008292798302136362, 0.000896105426363647, 0.0009629309643059969, 0.0010297565022483468, 0.0010965820401906967, 0.0011634076945483685, 0.0012302332324907184, 0.0012970587704330683, 0.00136388442479074, 0.00143070996273309, 0.0014975355006754398, 0.0015643610386177897, 0.0016311865765601397, 0.0016980122309178114, 0.0017648377688601613, 0.0018316633068025112, 0.001898488961160183, 0.001965314382687211, 0.0020321400370448828, 0.0020989656914025545, 0.0021657911129295826, 0.0022326167672872543, 0.002299442421644926, 0.002366267843171954, 0.002433093497529626, 0.002499918919056654, 0.0025667445734143257]}, "gradients/graph_1base.mlp.fc2.0.2.bias": {"_type": "histogram", "values": [2.0, 0.0, 0.0, 1.0, 2.0, 0.0, 1.0, 0.0, 1.0, 0.0, 0.0, 0.0, 1.0, 2.0, 0.0, 1.0, 1.0, 1.0, 2.0, 1.0, 0.0, 2.0, 1.0, 3.0, 1.0, 1.0, 0.0, 1.0, 2.0, 2.0, 0.0, 2.0, 3.0, 0.0, 2.0, 0.0, 1.0, 2.0, 1.0, 1.0, 1.0, 3.0, 0.0, 0.0, 1.0, 2.0, 1.0, 2.0, 1.0, 0.0, 2.0, 1.0, 1.0, 1.0, 1.0, 0.0, 0.0, 1.0, 0.0, 0.0, 0.0, 1.0, 1.0, 3.0], "bins": [-0.001347820507362485, -0.0013112261658534408, -0.0012746317079290748, -0.0012380373664200306, -0.0012014429084956646, -0.0011648485669866204, -0.0011282542254775763, -0.0010916597675532103, -0.001055065426044166, -0.001018471084535122, -0.000981876626610756, -0.0009452822851017118, -0.0009086878853850067, -0.0008720934856683016, -0.0008354991441592574, -0.0007989047444425523, -0.0007623103447258472, -0.0007257159450091422, -0.0006891215452924371, -0.0006525272037833929, -0.0006159328040666878, -0.0005793384043499827, -0.0005427440628409386, -0.0005061496631242335, -0.0004695552634075284, -0.0004329608636908233, -0.0003963664930779487, -0.00035977212246507406, -0.000323177722748369, -0.0002865833230316639, -0.00024998895241878927, -0.00021339458180591464, -0.00017680018208920956, -0.0001402057969244197, -0.00010361141175962985, -6.701702659483999e-05, -3.0422641430050135e-05, 6.171743734739721e-06, 4.2766128899529576e-05, 7.93604995124042e-05, 0.00011595489922910929, 0.00015254928439389914, 0.000189143669558689, 0.00022573805472347885, 0.0002623324398882687, 0.0002989268396049738, 0.0003355212102178484, 0.00037211558083072305, 0.00040870998054742813, 0.0004453043802641332, 0.00048189875087700784, 0.0005184931214898825, 0.0005550875212065876, 0.0005916819209232926, 0.0006282762624323368, 0.0006648706621490419, 0.000701465061865747, 0.0007380594615824521, 0.0007746538612991571, 0.0008112482028082013, 0.0008478426025249064, 0.0008844370022416115, 0.0009210313437506557, 0.0009576257434673607, 0.0009942201431840658]}, "gradients/graph_1base.mlp.fc2.0.0.bias": {"_type": "histogram", "values": [1.0, 2.0, 1.0, 0.0, 0.0, 0.0, 2.0, 0.0, 0.0, 0.0, 1.0, 1.0, 1.0, 0.0, 0.0, 0.0, 0.0, 3.0, 0.0, 2.0, 0.0, 4.0, 20.0, 10.0, 2.0, 0.0, 1.0, 2.0, 0.0, 2.0, 0.0, 0.0, 1.0, 1.0, 1.0, 0.0, 1.0, 0.0, 0.0, 0.0, 0.0, 0.0, 0.0, 2.0, 1.0, 0.0, 0.0, 0.0, 0.0, 0.0, 1.0, 0.0, 0.0, 0.0, 0.0, 0.0, 0.0, 0.0, 0.0, 0.0, 0.0, 0.0, 0.0, 1.0], "bins": [-0.0005526463501155376, -0.0005283821374177933, -0.0005041179247200489, -0.0004798536829184741, -0.0004555894702207297, -0.00043132525752298534, -0.0004070610157214105, -0.00038279680302366614, -0.0003585325903259218, -0.0003342683776281774, -0.00031000416493043303, -0.0002857399231288582, -0.00026147571043111384, -0.00023721149773336947, -0.00021294727048370987, -0.00018868304323405027, -0.0001644188305363059, -0.00014015461783856153, -0.00011589039058890194, -9.162617061519995e-05, -6.736195064149797e-05, -4.3097730667795986e-05, -1.8833510694094002e-05, 5.430716555565596e-06, 2.9694929253309965e-05, 5.395914922701195e-05, 7.822336920071393e-05, 0.00010248758917441592, 0.0001267518091481179, 0.00015101602184586227, 0.00017528024909552187, 0.00019954447634518147, 0.00022380868904292583, 0.0002480729017406702, 0.0002723371144384146, 0.0002966013562399894, 0.00032086556893773377, 0.00034512978163547814, 0.00036939402343705297, 0.00039365823613479733, 0.0004179224488325417, 0.0004421866615302861, 0.00046645087422803044, 0.0004907150869257748, 0.0005149793578311801, 0.0005392435705289245, 0.0005635077832266688, 0.0005877719959244132, 0.0006120362086221576, 0.0006363004213199019, 0.0006605646340176463, 0.0006848288467153907, 0.000709093059413135, 0.0007333573303185403, 0.0007576215430162847, 0.0007818857557140291, 0.0008061499684117734, 0.0008304141811095178, 0.0008546783938072622, 0.0008789426065050066, 0.0009032068774104118, 0.0009274710901081562, 0.0009517353028059006, 0.0009759995155036449, 0.0010002637282013893]}, "gradients/graph_1base.mlp.fc2.0.0.weight": {"_type": "histogram", "values": [3.0, 5.0, 7.0, 0.0, 5.0, 1.0, 4.0, 5.0, 4.0, 1.0, 6.0, 4.0, 5.0, 20.0, 31.0, 31.0, 22.0, 63.0, 114.0, 106.0, 201.0, 476.0, 2222.0, 216.0, 171.0, 136.0, 100.0, 21.0, 21.0, 15.0, 17.0, 14.0, 6.0, 8.0, 3.0, 2.0, 4.0, 0.0, 3.0, 2.0, 2.0, 3.0, 3.0, 2.0, 2.0, 0.0, 0.0, 1.0, 2.0, 2.0, 0.0, 0.0, 0.0, 0.0, 0.0, 0.0, 0.0, 0.0, 0.0, 1.0, 0.0, 1.0, 1.0, 1.0], "bins": [-0.0017394489841535687, -0.001661095768213272, -0.0015827425522729754, -0.0015043893363326788, -0.0014260360039770603, -0.0013476827880367637, -0.001269329572096467, -0.0011909762397408485, -0.0011126231402158737, -0.001034269924275577, -0.0009559166501276195, -0.0008775634341873229, -0.0007992101600393653, -0.0007208569440990686, -0.000642503728158772, -0.0005641504540108144, -0.00048579717986285686, -0.00040744393481872976, -0.00032909068977460265, -0.000250737473834306, -0.0001723842287901789, -9.403098374605179e-05, -1.567776780575514e-05, 6.267550634220243e-05, 0.00014102872228249907, 0.00021938196732662618, 0.0002977352123707533, 0.00037608842831104994, 0.00045444167335517704, 0.0005327949183993042, 0.0006111481343396008, 0.0006895014084875584, 0.0007678545080125332, 0.0008462077239528298, 0.0009245609981007874, 0.001002914272248745, 0.0010812674881890416, 0.0011596207041293383, 0.001237973920069635, 0.0013163271360099316, 0.00139468046836555, 0.0014730336843058467, 0.0015513869002461433, 0.0016297402326017618, 0.0017080934485420585, 0.0017864466644823551, 0.0018647998804226518, 0.0019431530963629484, 0.002021506428718567, 0.0020998597610741854, 0.00217821286059916, 0.0022565661929547787, 0.0023349192924797535, 0.002413272624835372, 0.0024916259571909904, 0.0025699790567159653, 0.00264833215624094, 0.0027266854885965586, 0.0028050385881215334, 0.002883391920477152, 0.0029617450200021267, 0.003040098352357745, 0.0031184516847133636, 0.0031968047842383385, 0.003275158116593957]}, "gradients/graph_1base.mlp.fc1.2.weight": {"_type": "histogram", "values": [1.0, 0.0, 0.0, 0.0, 0.0, 0.0, 1.0, 0.0, 0.0, 0.0, 0.0, 0.0, 0.0, 0.0, 0.0, 0.0, 0.0, 0.0, 0.0, 0.0, 1.0, 0.0, 2.0, 0.0, 0.0, 1.0, 0.0, 2.0, 1.0, 4.0, 1.0, 0.0, 3.0, 2.0, 5.0, 4.0, 1.0, 3.0, 0.0, 1.0, 3.0, 3.0, 3.0, 1.0, 3.0, 3.0, 3.0, 0.0, 1.0, 1.0, 0.0, 5.0, 0.0, 0.0, 0.0, 2.0, 0.0, 1.0, 1.0, 0.0, 0.0, 0.0, 0.0, 1.0], "bins": [-0.0008471025503240526, -0.000825132243335247, -0.0008031618781387806, -0.0007811915711499751, -0.0007592212641611695, -0.0007372508989647031, -0.0007152805919758976, -0.000693310284987092, -0.0006713399197906256, -0.00064936961280182, -0.0006273992476053536, -0.0006054289406165481, -0.0005834585754200816, -0.0005614882684312761, -0.0005395179614424706, -0.0005175475962460041, -0.0004955772892571986, -0.0004736069531645626, -0.0004516366170719266, -0.00042966631008312106, -0.00040769597399048507, -0.0003857256378978491, -0.00036375533090904355, -0.00034178499481640756, -0.00031981465872377157, -0.0002978443226311356, -0.0002758739865384996, -0.00025390367954969406, -0.00023193334345705807, -0.00020996300736442208, -0.00018799268582370132, -0.00016602236428298056, -0.00014405196998268366, -0.00012208163389004767, -0.00010011131234932691, -7.814098353264853e-05, -5.617065471597016e-05, -3.4200325899291784e-05, -1.2229997082613409e-05, 9.740324458107352e-06, 3.171066055074334e-05, 5.3680989367421716e-05, 7.565131818410009e-05, 9.762164700077847e-05, 0.00011959197581745684, 0.00014156231191009283, 0.0001635326334508136, 0.00018550295499153435, 0.00020747329108417034, 0.00022944362717680633, 0.0002514139632694423, 0.00027338427025824785, 0.00029535460635088384, 0.00031732494244351983, 0.00033929524943232536, 0.00036126558552496135, 0.00038323592161759734, 0.00040520625771023333, 0.0004271765938028693, 0.00044914690079167485, 0.00047111723688431084, 0.0004930875729769468, 0.0005150578799657524, 0.0005370281869545579, 0.0005589985521510243]}, "gradients/graph_1base.mlp.fc1.2.bias": {"_type": "histogram", "values": [1.0, 0.0, 0.0, 0.0, 0.0, 0.0, 0.0, 0.0, 0.0, 0.0, 2.0, 0.0, 0.0, 1.0, 0.0, 1.0, 0.0, 0.0, 0.0, 3.0, 1.0, 0.0, 3.0, 0.0, 2.0, 0.0, 2.0, 3.0, 1.0, 0.0, 5.0, 1.0, 1.0, 2.0, 1.0, 2.0, 4.0, 2.0, 0.0, 0.0, 1.0, 3.0, 1.0, 4.0, 2.0, 1.0, 1.0, 2.0, 1.0, 3.0, 0.0, 0.0, 1.0, 1.0, 2.0, 2.0, 0.0, 0.0, 0.0, 0.0, 0.0, 0.0, 0.0, 1.0], "bins": [-0.0009893802925944328, -0.0009642392979003489, -0.000939098303206265, -0.000913957308512181, -0.0008888163138180971, -0.0008636753191240132, -0.0008385343244299293, -0.0008133933879435062, -0.0007882523350417614, -0.0007631113403476775, -0.0007379703456535935, -0.0007128293509595096, -0.0006876883562654257, -0.0006625473615713418, -0.0006374063668772578, -0.0006122654303908348, -0.0005871244356967509, -0.000561983441002667, -0.000536842446308583, -0.0005117014516144991, -0.00048656045692041516, -0.00046141946222633123, -0.00043627849663607776, -0.00041113750194199383, -0.0003859965072479099, -0.000360855512553826, -0.00033571451785974205, -0.0003105735522694886, -0.00028543255757540464, -0.0002602915628813207, -0.00023515056818723679, -0.00021000957349315286, -0.00018486857879906893, -0.000159727584104985, -0.00013458658941090107, -0.00010944560926873237, -8.430461457464844e-05, -5.916361988056451e-05, -3.402263973839581e-05, -8.881645044311881e-06, 1.6259349649772048e-05, 4.140034070587717e-05, 6.654133176198229e-05, 9.168231918010861e-05, 0.00011682331387419254, 0.00014196430856827646, 0.00016710528871044517, 0.0001922462834045291, 0.00021738727809861302, 0.00024252827279269695, 0.0002676692674867809, 0.0002928102621808648, 0.00031795125687494874, 0.00034309225156903267, 0.00036823321715928614, 0.00039337421185337007, 0.000418515206547454, 0.00044365620124153793, 0.00046879719593562186, 0.0004939381615258753, 0.0005190791562199593, 0.0005442201509140432, 0.0005693611456081271, 0.000594502140302211, 0.000619643134996295]}, "gradients/graph_1base.mlp.fc1.0.bias": {"_type": "histogram", "values": [1.0, 1.0, 0.0, 0.0, 0.0, 0.0, 0.0, 0.0, 0.0, 0.0, 1.0, 0.0, 0.0, 0.0, 2.0, 1.0, 0.0, 0.0, 0.0, 1.0, 2.0, 0.0, 0.0, 0.0, 1.0, 0.0, 0.0, 2.0, 0.0, 0.0, 1.0, 0.0, 0.0, 2.0, 3.0, 11.0, 7.0, 6.0, 5.0, 1.0, 2.0, 0.0, 2.0, 0.0, 1.0, 1.0, 0.0, 1.0, 2.0, 0.0, 2.0, 0.0, 1.0, 0.0, 0.0, 0.0, 1.0, 1.0, 0.0, 0.0, 0.0, 1.0, 0.0, 1.0], "bins": [-0.00022592760797124356, -0.00021962865139357746, -0.00021332969481591135, -0.00020703073823824525, -0.00020073179621249437, -0.00019443282508291304, -0.00018813388305716217, -0.00018183492647949606, -0.00017553596990182996, -0.00016923701332416385, -0.00016293805674649775, -0.00015663910016883165, -0.00015034014359116554, -0.00014404120156541467, -0.00013774224498774856, -0.00013144328841008246, -0.00012514433183241636, -0.00011884537525475025, -0.00011254641867708415, -0.00010624746937537566, -9.994851279770955e-05, -9.364955622004345e-05, -8.735060691833496e-05, -8.105165034066886e-05, -7.475269376300275e-05, -6.845373718533665e-05, -6.215478060767055e-05, -5.5855831305962056e-05, -4.955687472829595e-05, -4.325791815062985e-05, -3.695896521094255e-05, -3.0660012271255255e-05, -2.436105569358915e-05, -1.806210093491245e-05, -1.176314617623575e-05, -5.46419141755905e-06, 8.347633411176503e-07, 7.133719918783754e-06, 1.3432672858471051e-05, 1.9731625798158348e-05, 2.603058237582445e-05, 3.2329538953490555e-05, 3.862849189317785e-05, 4.492744483286515e-05, 5.122640141053125e-05, 5.7525357988197356e-05, 6.382430728990585e-05, 7.012326386757195e-05, 7.642222044523805e-05, 8.272117702290416e-05, 8.902013360057026e-05, 9.531908290227875e-05, 0.00010161803947994485, 0.00010791699605761096, 0.00011421594535931945, 0.00012051490193698555, 0.00012681385851465166, 0.00013311281509231776, 0.00013941177166998386, 0.00014571072824764997, 0.00015200968482531607, 0.00015830862685106695, 0.00016460758342873305, 0.00017090654000639915, 0.00017720549658406526]}, "gradients/graph_1base.mlp.fc1.0.weight": {"_type": "histogram", "values": [1.0, 0.0, 0.0, 0.0, 0.0, 0.0, 0.0, 0.0, 1.0, 0.0, 2.0, 1.0, 1.0, 2.0, 3.0, 0.0, 0.0, 1.0, 2.0, 2.0, 3.0, 4.0, 1.0, 15.0, 16.0, 33.0, 56.0, 144.0, 327.0, 832.0, 6070.0, 42158.0, 1255.0, 521.0, 241.0, 71.0, 25.0, 22.0, 2.0, 2.0, 3.0, 2.0, 2.0, 0.0, 4.0, 3.0, 4.0, 2.0, 1.0, 0.0, 0.0, 1.0, 1.0, 1.0, 0.0, 0.0, 1.0, 0.0, 0.0, 0.0, 0.0, 0.0, 0.0, 1.0], "bins": [-0.0033185076899826527, -0.003212314797565341, -0.0031061216723173857, -0.002999928779900074, -0.0028937356546521187, -0.002787542762234807, -0.0026813496369868517, -0.00257515674456954, -0.0024689636193215847, -0.002362770726904273, -0.0022565776016563177, -0.002150384709239006, -0.0020441915839910507, -0.001937998691573739, -0.0018318055663257837, -0.001725612673908472, -0.0016194196650758386, -0.001513226656243205, -0.0014070336474105716, -0.001300840638577938, -0.0011946476297453046, -0.001088454620912671, -0.0009822617284953594, -0.000876068661455065, -0.0007698756526224315, -0.000663682643789798, -0.0005574896349571645, -0.0004512966552283615, -0.000345103646395728, -0.00023891066666692495, -0.00013271765783429146, -2.6524649001657963e-05, 7.966835983097553e-05, 0.00018586136866360903, 0.0002920543774962425, 0.00039824735722504556, 0.0005044403951615095, 0.0006106333457864821, 0.0007168263546191156, 0.0008230193634517491, 0.0009292123722843826, 0.0010354053229093552, 0.0011415983317419887, 0.0012477913405746222, 0.0013539843494072556, 0.0014601773582398891, 0.0015663703670725226, 0.0016725633759051561, 0.0017787563847377896, 0.0018849493935704231, 0.001991142285987735, 0.00209733541123569, 0.002203528303653002, 0.002309721428900957, 0.0024159143213182688, 0.002522107446566224, 0.0026283003389835358, 0.0027344932314008474, 0.0028406863566488028, 0.0029468792490661144, 0.0030530723743140697, 0.0031592652667313814, 0.0032654583919793367, 0.0033716512843966484, 0.0034778444096446037]}, "gradients/graph_1base.feature_norm.weight": {"_type": "histogram", "values": [1.0, 0.0, 0.0, 0.0, 0.0, 0.0, 0.0, 0.0, 0.0, 0.0, 0.0, 0.0, 0.0, 0.0, 0.0, 0.0, 0.0, 0.0, 0.0, 0.0, 0.0, 1.0, 0.0, 0.0, 0.0, 0.0, 0.0, 0.0, 0.0, 1.0, 0.0, 2.0, 1.0, 2.0, 4.0, 4.0, 3.0, 5.0, 2.0, 8.0, 16.0, 15.0, 89.0, 212.0, 203.0, 133.0, 37.0, 16.0, 16.0, 15.0, 5.0, 4.0, 2.0, 3.0, 1.0, 0.0, 0.0, 2.0, 0.0, 3.0, 3.0, 0.0, 0.0, 1.0], "bins": [-0.0004041106440126896, -0.000394980248529464, -0.0003858498530462384, -0.00037671945756301284, -0.00036758906207978725, -0.0003584586957003921, -0.00034932830021716654, -0.00034019790473394096, -0.0003310675092507154, -0.0003219371137674898, -0.0003128067182842642, -0.0003036763228010386, -0.0002945459564216435, -0.0002854155609384179, -0.00027628516545519233, -0.00026715476997196674, -0.00025802437448874116, -0.0002488939790055156, -0.00023976358352229, -0.00023063320259097964, -0.00022150280710775405, -0.00021237241162452847, -0.0002032420306932181, -0.00019411163520999253, -0.00018498123972676694, -0.00017585084424354136, -0.00016672044876031578, -0.00015759006782900542, -0.00014845967234577984, -0.00013932927686255425, -0.0001301988959312439, -0.00012106850044801831, -0.00011193807586096227, -0.00010280768037773669, -9.367729217046872e-05, -8.454690396320075e-05, -7.541650847997516e-05, -6.628611299674958e-05, -5.715572478948161e-05, -4.802533658221364e-05, -3.8894941098988056e-05, -2.976454925374128e-05, -2.0634157408494502e-05, -1.1503765563247725e-05, -2.3733737180009484e-06, 6.7570181272458285e-06, 1.5887409972492605e-05, 2.5017798179760575e-05, 3.414819366298616e-05, 4.3278585508232936e-05, 5.240897735347971e-05, 6.153936556074768e-05, 7.066976104397327e-05, 7.980015652719885e-05, 8.893054473446682e-05, 9.806093294173479e-05, 0.00010719132842496037, 0.00011632172390818596, 0.00012545211939141154, 0.0001345825003227219, 0.00014371289580594748, 0.00015284329128917307, 0.00016197367222048342, 0.000171104067703709, 0.0001802344631869346]}, "gradients/graph_1base.feature_norm.bias": {"_type": "histogram", "values": [1.0, 0.0, 2.0, 1.0, 3.0, 4.0, 2.0, 5.0, 7.0, 5.0, 1.0, 7.0, 7.0, 8.0, 8.0, 12.0, 7.0, 19.0, 13.0, 17.0, 21.0, 21.0, 15.0, 16.0, 29.0, 29.0, 34.0, 31.0, 31.0, 36.0, 36.0, 32.0, 25.0, 31.0, 29.0, 34.0, 26.0, 24.0, 22.0, 15.0, 25.0, 20.0, 15.0, 19.0, 13.0, 8.0, 8.0, 9.0, 5.0, 4.0, 10.0, 2.0, 2.0, 1.0, 1.0, 1.0, 0.0, 0.0, 0.0, 0.0, 0.0, 0.0, 0.0, 1.0], "bins": [-8.867299766279757e-05, -8.568282646592706e-05, -8.269265526905656e-05, -7.970248407218605e-05, -7.671231287531555e-05, -7.372214167844504e-05, -7.073197048157454e-05, -6.774179928470403e-05, -6.475162808783352e-05, -6.176145689096302e-05, -5.877128569409251e-05, -5.5781114497222006e-05, -5.27909433003515e-05, -4.9800772103480995e-05, -4.6810604544589296e-05, -4.382043334771879e-05, -4.083026578882709e-05, -3.7840094591956586e-05, -3.484992339508608e-05, -3.1859752198215574e-05, -2.8869582820334472e-05, -2.5879411623463966e-05, -2.2889242245582864e-05, -1.9899071048712358e-05, -1.6908899851841852e-05, -1.3918728654971346e-05, -1.0928558367595542e-05, -7.938388080219738e-06, -4.948216883349232e-06, -1.9580456864787266e-06, 1.0321236914023757e-06, 4.0222948882728815e-06, 7.012458809185773e-06, 1.0002630006056279e-05, 1.2992800293432083e-05, 1.5982970580807887e-05, 1.8973141777678393e-05, 2.19633129745489e-05, 2.495348235243e-05, 2.7943653549300507e-05, 3.093382474617101e-05, 3.392399594304152e-05, 3.6914167139912024e-05, 3.990433469880372e-05, 4.289450589567423e-05, 4.5884677092544734e-05, 4.887484828941524e-05, 5.1865019486285746e-05, 5.485519068315625e-05, 5.784536188002676e-05, 6.0835533076897264e-05, 6.382570427376777e-05, 6.681587547063828e-05, 6.980604666750878e-05, 7.279621786437929e-05, 7.578638906124979e-05, 7.87765602581203e-05, 8.17667314549908e-05, 8.475690265186131e-05, 8.774707384873182e-05, 9.073724504560232e-05, 9.372741624247283e-05, 9.671758743934333e-05, 9.970775863621384e-05, 0.00010269792255712673]}, "_wandb": {"runtime": 12423}}