{"value_loss": 0.25711199939250945, "_timestamp": 1666044029.0867603, "_runtime": 11833.490632295609, "policy_loss": -0.00048047922662526333, "dist_entropy": 1.0316933512687683, "actor_grad_norm": 0.030721286311745644, "critic_grad_norm": 0.25781887769699097, "ratio": 0.9999203681945801, "sm3_ratio_mean": 0.5107621882086449, "drop_ratio_mean": 0.03044029138982296, "drop_ratio_std": 0.16252075135707855, "drop_ratio_min": 0.0, "drop_ratio_max": 1.0, "ue_drop_ratio_mean": 0.029146707859782284, "ue_drop_ratio_std": 0.15075202690911882, "ue_drop_ratio_min": 0.0, "ue_drop_ratio_max": 0.99999950000025, "delay_ratio_mean": 0.1617550551891327, "delay_ratio_std": 0.21072904765605927, "delay_ratio_min": 0.0, "delay_ratio_max": 1.0, "qos_reward_mean": -0.019172421218435647, "qos_reward_std": 0.12216094768376486, "qos_reward_min": -0.99999950000025, "qos_reward_max": 0.003919996081792059, "pc_kw_mean": 0.18303912684788778, "pc_kw_std": 0.050454826914897284, "pc_kw_min": 0.08805325317382813, "pc_kw_max": 0.6528342895507813, "reward_mean": -0.20221154806632344, "reward_std": 0.1320342537732162, "reward_min": -1.4021506723642814, "reward_max": -0.08805325317382813, "_step": 2520000, "gradients/act.action_outs.2.linear.bias": {"_type": "histogram", "values": [1.0, 0.0, 0.0, 0.0, 0.0, 0.0, 0.0, 0.0, 0.0, 0.0, 0.0, 0.0, 0.0, 0.0, 0.0, 0.0, 0.0, 0.0, 0.0, 0.0, 0.0, 0.0, 0.0, 0.0, 0.0, 0.0, 0.0, 0.0, 0.0, 0.0, 0.0, 0.0, 0.0, 0.0, 0.0, 0.0, 0.0, 1.0, 0.0, 0.0, 0.0, 0.0, 0.0, 0.0, 0.0, 0.0, 0.0, 0.0, 0.0, 0.0, 0.0, 0.0, 0.0, 0.0, 0.0, 0.0, 0.0, 0.0, 0.0, 0.0, 0.0, 0.0, 0.0, 1.0], "bins": [-0.000504892785102129, -0.0004899359191767871, -0.00047497902414761484, -0.00046002212911844254, -0.0004450652631931007, -0.0004301083681639284, -0.0004151514731347561, -0.00040019460720941424, -0.00038523771218024194, -0.00037028081715106964, -0.0003553239512257278, -0.0003403670561965555, -0.0003254101611673832, -0.00031045329524204135, -0.00029549640021286905, -0.00028053950518369675, -0.0002655826392583549, -0.0002506257442291826, -0.00023566887830384076, -0.00022071198327466846, -0.00020575510279741138, -0.0001907982223201543, -0.000175841327290982, -0.00016088444681372494, -0.00014592756633646786, -0.0001309706858592108, -0.0001160137981059961, -0.00010105691035278141, -8.610002987552434e-05, -7.114314939826727e-05, -5.618626164505258e-05, -4.1229373891837895e-05, -2.6272493414580822e-05, -1.1315609299344942e-05, 3.641274815890938e-06, 1.8598158931126818e-05, 3.35550430463627e-05, 4.851192352361977e-05, 6.346881127683446e-05, 7.842569903004915e-05, 9.338257950730622e-05, 0.00010833945998456329, 0.00012329634046182036, 0.00013825323549099267, 0.00015321011596824974, 0.0001681669964455068, 0.0001831238914746791, 0.00019808077195193619, 0.00021303765242919326, 0.00022799453290645033, 0.0002429514133837074, 0.0002579083084128797, 0.00027286517433822155, 0.00028782206936739385, 0.00030277896439656615, 0.000317735830321908, 0.0003326927253510803, 0.0003476496203802526, 0.00036260648630559444, 0.00037756338133476675, 0.00039252027636393905, 0.0004074771422892809, 0.0004224340373184532, 0.0004373909323476255, 0.00045234779827296734]}, "gradients/act.action_outs.2.linear.weight": {"_type": "histogram", "values": [1.0, 0.0, 0.0, 0.0, 0.0, 0.0, 0.0, 0.0, 1.0, 0.0, 0.0, 1.0, 1.0, 1.0, 1.0, 1.0, 1.0, 1.0, 2.0, 2.0, 4.0, 2.0, 3.0, 5.0, 6.0, 7.0, 11.0, 11.0, 12.0, 5.0, 11.0, 6.0, 11.0, 8.0, 6.0, 8.0, 7.0, 16.0, 5.0, 5.0, 5.0, 5.0, 3.0, 5.0, 0.0, 1.0, 1.0, 0.0, 2.0, 1.0, 1.0, 3.0, 1.0, 0.0, 1.0, 0.0, 0.0, 0.0, 0.0, 0.0, 0.0, 0.0, 0.0, 1.0], "bins": [-0.0025297952815890312, -0.0024509241338819265, -0.002372052986174822, -0.0022931816056370735, -0.002214310457929969, -0.002135439310222864, -0.0020565681625157595, -0.001977697014808655, -0.0018988257506862283, -0.0018199546029791236, -0.001741083338856697, -0.0016622121911495924, -0.0015833410434424877, -0.0015044697793200612, -0.0014255986316129565, -0.00134672736749053, -0.0012678562197834253, -0.0011889850720763206, -0.0011101138079538941, -0.0010312426602467895, -0.0009523714543320239, -0.0008735002484172583, -0.0007946291007101536, -0.000715757894795388, -0.0006368866888806224, -0.0005580154829658568, -0.00047914430615492165, -0.0004002731293439865, -0.0003214019234292209, -0.00024253071751445532, -0.00016365954070352018, -8.478836389258504e-05, -5.917157977819443e-06, 7.295403338503093e-05, 0.0001518252247478813, 0.00023069641611073166, 0.00030956760747358203, 0.0003884388133883476, 0.00046730999019928277, 0.0005461811670102179, 0.0006250523729249835, 0.0007039235788397491, 0.0007827947847545147, 0.0008616659324616194, 0.000940537138376385, 0.0010194083442911506, 0.0010982794919982553, 0.0011771507561206818, 0.0012560219038277864, 0.0013348930515348911, 0.0014137643156573176, 0.0014926354633644223, 0.0015715067274868488, 0.0016503778751939535, 0.0017292490229010582, 0.0018081201706081629, 0.0018869914347305894, 0.001965862698853016, 0.0020447338465601206, 0.0021236049942672253, 0.00220247614197433, 0.0022813472896814346, 0.002360218670219183, 0.0024390898179262877, 0.0025179609656333923]}, "gradients/act.action_outs.1.linear.bias": {"_type": "histogram", "values": [1.0, 0.0, 0.0, 0.0, 0.0, 0.0, 0.0, 0.0, 1.0, 0.0, 0.0, 0.0, 0.0, 0.0, 0.0, 0.0, 0.0, 0.0, 0.0, 0.0, 0.0, 0.0, 0.0, 0.0, 0.0, 0.0, 1.0, 0.0, 0.0, 0.0, 0.0, 0.0, 0.0, 0.0, 0.0, 0.0, 0.0, 0.0, 0.0, 0.0, 0.0, 0.0, 0.0, 0.0, 0.0, 0.0, 0.0, 0.0, 0.0, 0.0, 0.0, 0.0, 0.0, 0.0, 0.0, 0.0, 0.0, 0.0, 0.0, 0.0, 0.0, 0.0, 0.0, 1.0], "bins": [-0.0011653094552457333, -0.0011185862822458148, -0.0010718631092458963, -0.001025139819830656, -0.0009784166468307376, -0.0009316934738308191, -0.0008849703008309007, -0.0008382471278309822, -0.0007915239548310637, -0.0007448007818311453, -0.0006980775506235659, -0.0006513543776236475, -0.000604631204623729, -0.0005579079734161496, -0.0005111848004162312, -0.0004644616274163127, -0.0004177383962087333, -0.0003710151941049844, -0.00032429202110506594, -0.000277568819001317, -0.00023084563144948334, -0.00018412244389764965, -0.00013739924179390073, -9.067606879398227e-05, -4.395286669023335e-05, 2.7703244995791465e-06, 4.949351568939164e-05, 9.621671051718295e-05, 0.00014293989806901664, 0.00018966308562085032, 0.00023638628772459924, 0.0002831094607245177, 0.0003298326628282666, 0.00037655586493201554, 0.000423279037931934, 0.0004700022400356829, 0.0005167254130356014, 0.0005634486442431808, 0.0006101718172430992, 0.0006568949902430177, 0.0007036181632429361, 0.0007503413362428546, 0.000797064567450434, 0.0008437877404503524, 0.0008905109134502709, 0.0009372341446578503, 0.0009839573176577687, 0.0010306804906576872, 0.0010774037800729275, 0.001124126953072846, 0.0011708501260727644, 0.0012175734154880047, 0.0012642965884879231, 0.0013110197614878416, 0.00135774293448776, 0.0014044661074876785, 0.001451189280487597, 0.0014979124534875154, 0.001544635626487434, 0.0015913587994873524, 0.0016380820889025927, 0.0016848052619025111, 0.0017315284349024296, 0.001778251607902348, 0.0018249747809022665]}, "gradients/act.action_outs.1.linear.weight": {"_type": "histogram", "values": [1.0, 1.0, 0.0, 0.0, 0.0, 0.0, 0.0, 2.0, 0.0, 0.0, 1.0, 0.0, 0.0, 1.0, 1.0, 2.0, 0.0, 3.0, 5.0, 4.0, 14.0, 7.0, 7.0, 8.0, 8.0, 7.0, 9.0, 8.0, 13.0, 12.0, 23.0, 12.0, 9.0, 18.0, 18.0, 18.0, 12.0, 4.0, 3.0, 3.0, 5.0, 3.0, 1.0, 0.0, 1.0, 3.0, 1.0, 3.0, 0.0, 0.0, 1.0, 0.0, 1.0, 0.0, 1.0, 1.0, 0.0, 0.0, 0.0, 0.0, 0.0, 0.0, 0.0, 1.0], "bins": [-0.004402359016239643, -0.004256435204297304, -0.0041105118580162525, -0.003964588046073914, -0.003818664699792862, -0.003672740887850523, -0.0035268173087388277, -0.0033808937296271324, -0.003234970150515437, -0.003089046571403742, -0.0029431229922920465, -0.0027971994131803513, -0.0026512756012380123, -0.0025053522549569607, -0.0023594284430146217, -0.0022135048639029264, -0.002067581284791231, -0.0019216577056795359, -0.0017757341265678406, -0.0016298104310408235, -0.0014838868519291282, -0.0013379632728174329, -0.0011920395772904158, -0.0010461159981787205, -0.0009001924190670252, -0.0007542688399553299, -0.0006083452026359737, -0.00046242159442044795, -0.0003164979862049222, -0.0001705744070932269, -2.4650769773870707e-05, 0.0001212728675454855, 0.0002671959809958935, 0.0004131195892114192, 0.000559043197426945, 0.0007049668347463012, 0.0008508904138579965, 0.0009968139929696918, 0.0011427376884967089, 0.0012886612676084042, 0.0014345848467200994, 0.0015805084258317947, 0.00172643200494349, 0.0018723557004705071, 0.0020182793959975243, 0.002164202742278576, 0.002310126554220915, 0.00245605013333261, 0.0026019737124443054, 0.0027478972915560007, 0.002893820870667696, 0.0030397444497793913, 0.0031856680288910866, 0.0033315918408334255, 0.003477515419945121, 0.003623438999056816, 0.0037693625781685114, 0.003915286157280207, 0.004061209969222546, 0.004207133315503597, 0.004353057127445936, 0.004498980473726988, 0.004644904285669327, 0.004790827631950378, 0.004936751443892717]}, "gradients/act.action_outs.0.linear.bias": {"_type": "histogram", "values": [1.0, 0.0, 0.0, 0.0, 0.0, 0.0, 0.0, 0.0, 0.0, 0.0, 0.0, 0.0, 0.0, 0.0, 0.0, 0.0, 0.0, 0.0, 0.0, 0.0, 0.0, 0.0, 0.0, 0.0, 0.0, 0.0, 0.0, 0.0, 0.0, 0.0, 0.0, 0.0, 0.0, 0.0, 0.0, 0.0, 0.0, 0.0, 0.0, 0.0, 0.0, 0.0, 0.0, 0.0, 0.0, 0.0, 0.0, 0.0, 0.0, 0.0, 0.0, 0.0, 0.0, 0.0, 1.0, 0.0, 0.0, 0.0, 0.0, 0.0, 0.0, 0.0, 0.0, 1.0], "bins": [-0.000770246610045433, -0.0007507413974963129, -0.0007312362431548536, -0.0007117310306057334, -0.0006922258180566132, -0.000672720605507493, -0.0006532154511660337, -0.0006337102386169136, -0.0006142050260677934, -0.0005946998135186732, -0.0005751946591772139, -0.0005556894466280937, -0.0005361842340789735, -0.0005166790215298533, -0.0004971738671883941, -0.0004776686546392739, -0.00045816347119398415, -0.0004386582877486944, -0.00041915307519957423, -0.0003996478917542845, -0.0003801426792051643, -0.0003606374957598746, -0.0003411322832107544, -0.00032162709976546466, -0.00030212191632017493, -0.0002826167328748852, -0.000263111520325765, -0.00024360633688047528, -0.0002241011243313551, -0.00020459594088606536, -0.0001850907428888604, -0.00016558554489165545, -0.0001460803032387048, -0.00012657510524149984, -0.00010706990724429488, -8.756471652304754e-05, -6.805951852584258e-05, -4.855432052863762e-05, -2.9049129807390273e-05, -9.543931810185313e-06, 9.961266187019646e-06, 2.9466462365235202e-05, 4.897165854345076e-05, 6.847685290267691e-05, 8.798205089988187e-05, 0.00010748724889708683, 0.00012699243961833417, 0.00014649763761553913, 0.0001660028356127441, 0.00018550803360994905, 0.000205013231607154, 0.00022451841505244374, 0.00024402362760156393, 0.00026352881104685366, 0.0002830339944921434, 0.0003025392070412636, 0.00032204441959038377, 0.0003415496030356735, 0.0003610548155847937, 0.0003805599990300834, 0.0004000652115792036, 0.00041957039502449334, 0.00043907557846978307, 0.00045858079101890326, 0.000478085974464193]}, "gradients/act.action_outs.0.linear.weight": {"_type": "histogram", "values": [1.0, 0.0, 0.0, 0.0, 0.0, 0.0, 0.0, 0.0, 0.0, 0.0, 0.0, 0.0, 0.0, 0.0, 1.0, 0.0, 0.0, 2.0, 0.0, 1.0, 2.0, 1.0, 2.0, 3.0, 2.0, 6.0, 1.0, 8.0, 2.0, 10.0, 10.0, 11.0, 15.0, 11.0, 8.0, 3.0, 8.0, 7.0, 9.0, 9.0, 8.0, 7.0, 9.0, 6.0, 4.0, 6.0, 2.0, 4.0, 1.0, 2.0, 2.0, 3.0, 1.0, 1.0, 1.0, 0.0, 1.0, 0.0, 0.0, 0.0, 0.0, 0.0, 0.0, 1.0], "bins": [-0.0030063397716730833, -0.0029223246965557337, -0.002838309621438384, -0.0027542945463210344, -0.002670279471203685, -0.002586264396086335, -0.002502249088138342, -0.0024182340130209923, -0.0023342189379036427, -0.002250203862786293, -0.0021661887876689434, -0.0020821737125515938, -0.001998158637434244, -0.0019141435623168945, -0.001830128370784223, -0.0017461132956668735, -0.0016620983369648457, -0.001578083261847496, -0.0014940681867301464, -0.0014100531116127968, -0.0013260380364954472, -0.0012420229613780975, -0.001158007769845426, -0.0010739926947280765, -0.0009899776196107268, -0.0009059625444933772, -0.0008219474693760276, -0.000737932336051017, -0.0006539172609336674, -0.0005699021858163178, -0.00048588705249130726, -0.00040187197737395763, -0.00031785713508725166, -0.0002338420454179868, -0.00014982695574872196, -6.581185152754188e-05, 1.820322358980775e-05, 0.00010221829870715737, 0.0001862334320321679, 0.00027024850714951754, 0.00035426358226686716, 0.0004382786573842168, 0.0005222937325015664, 0.000606308865826577, 0.0006903239409439266, 0.0007743390160612762, 0.0008583541493862867, 0.0009423692245036364, 0.001026384299620986, 0.0011103993747383356, 0.0011944144498556852, 0.0012784295249730349, 0.0013624446000903845, 0.001446459675207734, 0.0015304748667404056, 0.0016144899418577552, 0.0016985050169751048, 0.0017825200920924544, 0.001866535167209804, 0.0019505503587424755, 0.002034565433859825, 0.0021185805089771748, 0.0022025955840945244, 0.002286610659211874, 0.0023706257343292236]}, "gradients/base.mlp.fc2.0.2.weight": {"_type": "histogram", "values": [1.0, 0.0, 1.0, 0.0, 0.0, 0.0, 0.0, 0.0, 2.0, 0.0, 0.0, 0.0, 0.0, 0.0, 0.0, 0.0, 0.0, 0.0, 0.0, 0.0, 1.0, 0.0, 2.0, 1.0, 0.0, 1.0, 2.0, 3.0, 7.0, 4.0, 3.0, 5.0, 7.0, 2.0, 0.0, 0.0, 4.0, 6.0, 3.0, 2.0, 2.0, 0.0, 1.0, 0.0, 0.0, 1.0, 0.0, 0.0, 0.0, 1.0, 0.0, 0.0, 1.0, 0.0, 0.0, 0.0, 0.0, 0.0, 0.0, 0.0, 0.0, 0.0, 0.0, 1.0], "bins": [-0.0005482454434968531, -0.0005329318228177726, -0.000517618260346353, -0.0005023046396672726, -0.0004869910189881921, -0.00047167742741294205, -0.000456363835837692, -0.00044105021515861154, -0.0004257366235833615, -0.0004104230320081115, -0.000395109411329031, -0.00037979581975378096, -0.00036448222817853093, -0.00034916860749945045, -0.0003338550159242004, -0.0003185414243489504, -0.0003032278036698699, -0.00028791421209461987, -0.0002726005914155394, -0.00025728699984028935, -0.0002419733937131241, -0.00022665978758595884, -0.0002113461960107088, -0.00019603258988354355, -0.0001807189837563783, -0.00016540537762921304, -0.00015009177150204778, -0.00013477817992679775, -0.00011946457379963249, -0.00010415096767246723, -8.883736882125959e-05, -7.352376997005194e-05, -5.821019294671714e-05, -4.289659045753069e-05, -2.758298796834424e-05, -1.226938547915779e-05, 3.0442170100286603e-06, 1.8357823137193918e-05, 3.367142198840156e-05, 4.8985020839609206e-05, 6.429862696677446e-05, 7.961223309393972e-05, 9.492583194514737e-05, 0.00011023943079635501, 0.00012555303692352027, 0.00014086664305068552, 0.00015618023462593555, 0.0001714938407531008, 0.00018680744688026607, 0.00020212105300743133, 0.00021743465913459659, 0.00023274825070984662, 0.00024806184228509665, 0.00026337546296417713, 0.00027868905453942716, 0.0002940026461146772, 0.0003093162667937577, 0.0003246298583690077, 0.0003399434790480882, 0.0003552570706233382, 0.0003705706913024187, 0.00038588428287766874, 0.00040119787445291877, 0.00041651149513199925, 0.0004318250867072493]}, "gradients/base.mlp.fc2.0.2.bias": {"_type": "histogram", "values": [1.0, 0.0, 0.0, 0.0, 0.0, 0.0, 0.0, 0.0, 1.0, 0.0, 0.0, 2.0, 0.0, 0.0, 0.0, 1.0, 1.0, 1.0, 1.0, 0.0, 3.0, 1.0, 1.0, 1.0, 0.0, 0.0, 1.0, 1.0, 1.0, 1.0, 1.0, 0.0, 1.0, 1.0, 2.0, 0.0, 1.0, 1.0, 0.0, 0.0, 2.0, 0.0, 0.0, 3.0, 2.0, 1.0, 1.0, 2.0, 7.0, 5.0, 2.0, 2.0, 0.0, 1.0, 2.0, 2.0, 1.0, 1.0, 0.0, 2.0, 0.0, 1.0, 1.0, 1.0], "bins": [-0.00035431014839559793, -0.00034425067133270204, -0.00033419119426980615, -0.00032413171720691025, -0.00031407224014401436, -0.000304012733977288, -0.0002939532569143921, -0.0002838937798514962, -0.0002738343027886003, -0.00026377482572570443, -0.00025371534866280854, -0.00024365585704799742, -0.00023359637998510152, -0.00022353690292220563, -0.0002134774113073945, -0.0002034179342444986, -0.00019335845718160272, -0.00018329898011870682, -0.00017323950305581093, -0.0001631800114409998, -0.0001531205343781039, -0.00014306105731520802, -0.0001330015657003969, -0.000122942088637501, -0.00011288261157460511, -0.00010282313451170921, -9.27636501728557e-05, -8.27041658340022e-05, -7.26446887711063e-05, -6.258521170821041e-05, -5.25257273693569e-05, -4.246624303050339e-05, -3.24067659676075e-05, -2.2347285266732797e-05, -1.2287804565858096e-05, -2.2283238649833947e-06, 7.831156835891306e-06, 1.7890637536766008e-05, 2.795011823764071e-05, 3.800960257649422e-05, 4.806907963939011e-05, 5.812856034026481e-05, 6.818804104113951e-05, 7.824752537999302e-05, 8.830700244288892e-05, 9.836647950578481e-05, 0.00010842596384463832, 0.00011848544818349183, 0.00012854492524638772, 0.00013860440230928361, 0.0001486638793721795, 0.00015872337098699063, 0.00016878284804988652, 0.00017884232511278242, 0.00018890181672759354, 0.00019896129379048944, 0.00020902077085338533, 0.00021908024791628122, 0.00022913972497917712, 0.00023919921659398824, 0.00024925870820879936, 0.00025931818527169526, 0.00026937766233459115, 0.00027943713939748704, 0.00028949661646038294]}, "gradients/base.mlp.fc2.0.0.bias": {"_type": "histogram", "values": [1.0, 0.0, 0.0, 0.0, 0.0, 0.0, 0.0, 0.0, 0.0, 0.0, 0.0, 0.0, 1.0, 0.0, 0.0, 1.0, 1.0, 1.0, 1.0, 1.0, 0.0, 0.0, 1.0, 1.0, 3.0, 0.0, 1.0, 2.0, 2.0, 2.0, 5.0, 0.0, 1.0, 7.0, 6.0, 4.0, 5.0, 0.0, 1.0, 1.0, 3.0, 3.0, 1.0, 1.0, 0.0, 1.0, 1.0, 0.0, 0.0, 2.0, 1.0, 0.0, 0.0, 0.0, 0.0, 1.0, 0.0, 0.0, 0.0, 0.0, 0.0, 0.0, 0.0, 1.0], "bins": [-0.000433291686931625, -0.0004206403100397438, -0.00040798893314786255, -0.0003953375562559813, -0.00038268620846793056, -0.00037003483157604933, -0.0003573834546841681, -0.00034473207779228687, -0.00033208070090040565, -0.0003194293240085244, -0.0003067779471166432, -0.00029412657022476196, -0.00028147519333288074, -0.0002688238164409995, -0.00025617246865294874, -0.0002435210917610675, -0.00023086971486918628, -0.00021821833797730505, -0.00020556696108542383, -0.00019291559874545783, -0.0001802642218535766, -0.00016761284496169537, -0.00015496148262172937, -0.00014231010572984815, -0.00012965872883796692, -0.00011700735194608569, -0.00010435598233016208, -9.170461271423846e-05, -7.905323582235724e-05, -6.640185893047601e-05, -5.3750489314552397e-05, -4.109911969862878e-05, -2.8447742806747556e-05, -1.5796369552845135e-05, -3.144996298942715e-06, 9.506376954959705e-06, 2.2157750208862126e-05, 3.480912710074335e-05, 4.746049671666697e-05, 6.011186633259058e-05, 7.276324322447181e-05, 8.541462011635303e-05, 9.806598973227665e-05, 0.00011071735934820026, 0.0001233687362400815, 0.00013602011313196272, 0.00014867147547192872, 0.00016132285236380994, 0.00017397422925569117, 0.0001866256061475724, 0.00019927698303945363, 0.00021192834537941962, 0.00022457972227130085, 0.00023723109916318208, 0.0002498824615031481, 0.0002625338383950293, 0.00027518521528691053, 0.00028783659217879176, 0.000300487969070673, 0.0003131393459625542, 0.00032579072285443544, 0.00033844209974631667, 0.00035109344753436744, 0.00036374482442624867, 0.0003763962013181299]}, "gradients/base.mlp.fc2.0.0.weight": {"_type": "histogram", "values": [1.0, 0.0, 0.0, 0.0, 0.0, 0.0, 0.0, 0.0, 0.0, 1.0, 0.0, 0.0, 0.0, 1.0, 1.0, 2.0, 1.0, 1.0, 3.0, 1.0, 3.0, 4.0, 8.0, 5.0, 11.0, 14.0, 23.0, 20.0, 37.0, 41.0, 78.0, 101.0, 167.0, 295.0, 422.0, 1199.0, 615.0, 356.0, 240.0, 129.0, 110.0, 68.0, 40.0, 29.0, 17.0, 13.0, 14.0, 3.0, 5.0, 4.0, 4.0, 3.0, 0.0, 1.0, 2.0, 0.0, 0.0, 0.0, 1.0, 0.0, 1.0, 0.0, 0.0, 1.0], "bins": [-0.0013319624122232199, -0.0012947084615007043, -0.0012574545107781887, -0.001220200676470995, -0.0011829467257484794, -0.0011456927750259638, -0.00110843894071877, -0.0010711849899962544, -0.0010339310392737389, -0.0009966770885512233, -0.0009594231960363686, -0.0009221693035215139, -0.0008849153527989984, -0.0008476614020764828, -0.0008104075095616281, -0.0007731536170467734, -0.0007358996663242579, -0.0006986457156017423, -0.0006613918230868876, -0.0006241379305720329, -0.0005868839798495173, -0.0005496300291270018, -0.0005123761366121471, -0.00047512221499346197, -0.00043786829337477684, -0.0004006143717560917, -0.0003633604501374066, -0.00032610652851872146, -0.00028885260690003633, -0.0002515986852813512, -0.00021434476366266608, -0.00017709084204398096, -0.000139836804009974, -0.00010258288239128888, -6.532896077260375e-05, -2.8075039153918624e-05, 9.178882464766502e-06, 4.643280408345163e-05, 8.368672570213675e-05, 0.00012094064732082188, 0.000158194568939507, 0.00019544849055819213, 0.00023270241217687726, 0.0002699563337955624, 0.0003072102554142475, 0.00034446417703293264, 0.00038171809865161777, 0.0004189720202703029, 0.000456225941888988, 0.0004934798926115036, 0.0005307337851263583, 0.0005679876776412129, 0.0006052416283637285, 0.0006424955790862441, 0.0006797494716010988, 0.0007170033641159534, 0.000754257314838469, 0.0007915112655609846, 0.0008287651580758393, 0.000866019050590694, 0.0009032730013132095, 0.0009405269520357251, 0.0009777809027582407, 0.0010150347370654345, 0.00105228868778795]}, "gradients/base.mlp.fc1.2.weight": {"_type": "histogram", "values": [1.0, 0.0, 0.0, 0.0, 0.0, 0.0, 0.0, 0.0, 0.0, 0.0, 0.0, 0.0, 0.0, 0.0, 0.0, 1.0, 1.0, 0.0, 0.0, 1.0, 0.0, 0.0, 0.0, 1.0, 0.0, 1.0, 1.0, 2.0, 1.0, 2.0, 1.0, 0.0, 4.0, 2.0, 1.0, 5.0, 4.0, 4.0, 5.0, 2.0, 5.0, 1.0, 3.0, 2.0, 2.0, 1.0, 2.0, 0.0, 2.0, 2.0, 0.0, 0.0, 1.0, 0.0, 0.0, 1.0, 0.0, 0.0, 0.0, 0.0, 0.0, 1.0, 0.0, 1.0], "bins": [-0.0008649819064885378, -0.0008417844073846936, -0.0008185869082808495, -0.0007953894091770053, -0.0007721919100731611, -0.000748994410969317, -0.0007257969118654728, -0.0007025994127616286, -0.0006794019136577845, -0.0006562044145539403, -0.0006330069154500961, -0.000609809416346252, -0.0005866119172424078, -0.0005634144181385636, -0.0005402169190347195, -0.0005170194199308753, -0.0004938219208270311, -0.00047062442172318697, -0.0004474269226193428, -0.00042422942351549864, -0.00040103192441165447, -0.0003778344253078103, -0.00035463692620396614, -0.000331439427100122, -0.0003082418697886169, -0.00028504437068477273, -0.00026184687158092856, -0.0002386493724770844, -0.00021545187337324023, -0.00019225437426939607, -0.00016905686061363667, -0.0001458593615097925, -0.00012266187695786357, -9.94643778540194e-05, -7.626687875017524e-05, -5.306937237037346e-05, -2.9871873266529292e-05, -6.674374162685126e-06, 1.6523132217116654e-05, 3.972063132096082e-05, 6.291813042480499e-05, 8.611562952864915e-05, 0.00010931312863249332, 0.0001325106422882527, 0.00015570814139209688, 0.00017890564049594104, 0.0002021031395997852, 0.00022530063870362937, 0.00024849813780747354, 0.0002716956369113177, 0.00029489313601516187, 0.00031809063511900604, 0.0003412881342228502, 0.00036448563332669437, 0.000387683161534369, 0.00041088066063821316, 0.0004340781597420573, 0.0004572756588459015, 0.00048047315794974566, 0.0005036706570535898, 0.000526868156157434, 0.0005500656552612782, 0.0005732631543651223, 0.0005964606534689665, 0.0006196581525728106]}, "gradients/base.mlp.fc1.2.bias": {"_type": "histogram", "values": [1.0, 0.0, 0.0, 0.0, 0.0, 0.0, 0.0, 2.0, 1.0, 1.0, 1.0, 0.0, 1.0, 1.0, 1.0, 0.0, 1.0, 1.0, 2.0, 1.0, 1.0, 3.0, 0.0, 3.0, 3.0, 2.0, 2.0, 1.0, 3.0, 0.0, 2.0, 4.0, 2.0, 0.0, 1.0, 2.0, 3.0, 3.0, 0.0, 0.0, 0.0, 0.0, 2.0, 2.0, 1.0, 0.0, 0.0, 1.0, 2.0, 0.0, 1.0, 2.0, 0.0, 0.0, 0.0, 0.0, 2.0, 0.0, 1.0, 0.0, 0.0, 0.0, 0.0, 1.0], "bins": [-0.0006247950368560851, -0.0006043759058229625, -0.0005839567165821791, -0.0005635375855490565, -0.000543118454515934, -0.0005226992652751505, -0.000502280134242028, -0.000481860974105075, -0.000461441813968122, -0.000441022653831169, -0.000420603493694216, -0.0004001843626610935, -0.0003797652025241405, -0.0003593460423871875, -0.00033892691135406494, -0.00031850775121711195, -0.00029808859108015895, -0.00027766943094320595, -0.00025725027080625296, -0.00023683113977313042, -0.00021641197963617742, -0.00019599281949922442, -0.00017557367391418666, -0.0001551545283291489, -0.0001347353681921959, -0.00011431621533120051, -9.389706247020513e-05, -7.347790960920975e-05, -5.3058756748214364e-05, -3.263960388721898e-05, -1.22204510262236e-05, 8.198694558814168e-06, 2.8617912903428078e-05, 4.903706576442346e-05, 6.945621862541884e-05, 8.987537148641422e-05, 0.0001102945243474096, 0.0001307136844843626, 0.00015113283006940037, 0.00017155197565443814, 0.00019197113579139113, 0.00021239029592834413, 0.0002328094415133819, 0.00025322858709841967, 0.00027364774723537266, 0.00029406690737232566, 0.0003144860384054482, 0.0003349051985424012, 0.0003553243586793542, 0.0003757435188163072, 0.0003961626789532602, 0.0004165818099863827, 0.0004370009701233357, 0.0004574201302602887, 0.00047783926129341125, 0.0004982583923265338, 0.0005186775815673172, 0.0005390967126004398, 0.0005595159018412232, 0.0005799350328743458, 0.0006003541639074683, 0.0006207733531482518, 0.0006411924841813743, 0.0006616116734221578, 0.0006820308044552803]}, "gradients/base.mlp.fc1.0.bias": {"_type": "histogram", "values": [1.0, 0.0, 0.0, 0.0, 0.0, 1.0, 1.0, 0.0, 0.0, 0.0, 3.0, 0.0, 0.0, 1.0, 0.0, 0.0, 2.0, 2.0, 1.0, 1.0, 0.0, 1.0, 3.0, 3.0, 2.0, 3.0, 4.0, 11.0, 5.0, 3.0, 0.0, 0.0, 2.0, 1.0, 1.0, 0.0, 0.0, 0.0, 2.0, 0.0, 2.0, 1.0, 0.0, 0.0, 2.0, 0.0, 0.0, 1.0, 2.0, 0.0, 0.0, 0.0, 0.0, 0.0, 0.0, 0.0, 0.0, 0.0, 1.0, 0.0, 0.0, 0.0, 0.0, 1.0], "bins": [-0.0007331690867431462, -0.0007063543889671564, -0.0006795396911911666, -0.0006527249934151769, -0.0006259102374315262, -0.0005990955978631973, -0.0005722808418795466, -0.0005454661441035569, -0.0005186514463275671, -0.0004918367485515773, -0.00046502205077558756, -0.00043820732389576733, -0.00041139262611977756, -0.0003845779283437878, -0.00035776320146396756, -0.0003309485036879778, -0.000304133805911988, -0.00027731910813599825, -0.0002505044103600085, -0.00022368968348018825, -0.00019687498570419848, -0.0001700602879282087, -0.0001432455756003037, -0.00011643086327239871, -8.961616549640894e-05, -6.280146044446155e-05, -3.598675539251417e-05, -9.172050340566784e-06, 1.76426547113806e-05, 4.445735248737037e-05, 7.127206481527537e-05, 9.808677714318037e-05, 0.00012490141671150923, 0.000151716114487499, 0.000178530826815404, 0.000205345539143309, 0.00023216023691929877, 0.00025897493469528854, 0.00028578966157510877, 0.00031260435935109854, 0.0003394190571270883, 0.0003662337549030781, 0.00039304845267906785, 0.0004198631795588881, 0.00044667787733487785, 0.0004734925751108676, 0.0005003073019906878, 0.0005271219997666776, 0.0005539366975426674, 0.0005807513953186572, 0.0006075660930946469, 0.0006343807908706367, 0.0006611954886466265, 0.0006880102446302772, 0.0007148249424062669, 0.0007416396401822567, 0.0007684543379582465, 0.0007952690357342362, 0.000822083733510226, 0.0008488984312862158, 0.0008757131872698665, 0.0009025278268381953, 0.000929342582821846, 0.0009561572805978358, 0.0009829719783738256]}, "gradients/base.mlp.fc1.0.weight": {"_type": "histogram", "values": [1.0, 0.0, 0.0, 0.0, 1.0, 4.0, 3.0, 1.0, 4.0, 5.0, 3.0, 8.0, 9.0, 6.0, 7.0, 20.0, 14.0, 14.0, 20.0, 16.0, 34.0, 31.0, 48.0, 124.0, 160.0, 452.0, 653.0, 3264.0, 1360.0, 546.0, 189.0, 52.0, 37.0, 26.0, 18.0, 13.0, 18.0, 16.0, 13.0, 18.0, 11.0, 13.0, 13.0, 7.0, 7.0, 2.0, 3.0, 1.0, 3.0, 4.0, 8.0, 5.0, 1.0, 2.0, 2.0, 2.0, 0.0, 0.0, 1.0, 0.0, 1.0, 1.0, 0.0, 1.0], "bins": [-0.0025231665931642056, -0.0024320920929312706, -0.0023410178255289793, -0.0022499433252960443, -0.002158869057893753, -0.002067794557660818, -0.001976720057427883, -0.0018856457900255919, -0.001794571289792657, -0.0017034969059750438, -0.0016124225221574306, -0.0015213480219244957, -0.0014302736381068826, -0.0013391992542892694, -0.0012481248704716563, -0.0011570504866540432, -0.00106597610283643, -0.000974901719018817, -0.0008838272769935429, -0.0007927528931759298, -0.0007016784511506557, -0.0006106040673330426, -0.0005195296835154295, -0.00042845524149015546, -0.00033738085767254233, -0.00024630644475109875, -0.0001552320463815704, -6.415764801204205e-05, 2.6916764909401536e-05, 0.00011799117783084512, 0.00020906556164845824, 0.0003001400036737323, 0.0003912143874913454, 0.000482288800412789, 0.0005733632133342326, 0.0006644375971518457, 0.0007555120391771197, 0.0008465864229947329, 0.000937660806812346, 0.001028735190629959, 0.001119809690862894, 0.0012108840746805072, 0.0013019584584981203, 0.0013930329587310553, 0.0014841073425486684, 0.0015751817263662815, 0.0016662561101838946, 0.0017573304940015078, 0.0018484048778191209, 0.001939479261636734, 0.002030553761869669, 0.0021216280292719603, 0.002212702529504895, 0.0023037767969071865, 0.0023948512971401215, 0.0024859257973730564, 0.0025770000647753477, 0.0026680745650082827, 0.002759148832410574, 0.002850223332643509, 0.0029412976000458, 0.003032372100278735, 0.0031234463676810265, 0.0032145208679139614, 0.0033055953681468964]}, "gradients/base.feature_norm.weight": {"_type": "histogram", "values": [1.0, 0.0, 0.0, 0.0, 0.0, 0.0, 0.0, 0.0, 0.0, 0.0, 0.0, 0.0, 0.0, 1.0, 1.0, 1.0, 0.0, 1.0, 0.0, 0.0, 0.0, 0.0, 2.0, 3.0, 7.0, 24.0, 37.0, 18.0, 7.0, 1.0, 1.0, 2.0, 2.0, 1.0, 0.0, 1.0, 1.0, 1.0, 0.0, 0.0, 0.0, 0.0, 0.0, 0.0, 0.0, 0.0, 0.0, 0.0, 0.0, 0.0, 0.0, 0.0, 0.0, 0.0, 0.0, 0.0, 0.0, 0.0, 0.0, 0.0, 0.0, 0.0, 0.0, 1.0], "bins": [-0.002897687256336212, -0.002788966754451394, -0.002680246252566576, -0.002571525750681758, -0.00246280524879694, -0.002354084514081478, -0.00224536401219666, -0.002136643510311842, -0.002027923008427024, -0.0019192025065422058, -0.0018104820046573877, -0.0017017613863572478, -0.0015930408844724298, -0.0014843203825876117, -0.0013755997642874718, -0.0012668792624026537, -0.0011581587605178356, -0.0010494382586330175, -0.0009407176985405385, -0.0008319971384480596, -0.0007232766365632415, -0.0006145561346784234, -0.0005058355745859444, -0.0003971150144934654, -0.00028839451260864735, -0.0001796739816199988, -7.095345063135028e-05, 3.7767080357298255e-05, 0.0001464876113459468, 0.00025520811323076487, 0.00036392867332324386, 0.00047264923341572285, 0.0005813697353005409, 0.000690090237185359, 0.000798810797277838, 0.000907531357370317, 0.001016251859255135, 0.0011249723611399531, 0.001233692979440093, 0.0013424134813249111, 0.0014511339832097292, 0.0015598544850945473, 0.0016685749869793653, 0.0017772956052795053, 0.0018860161071643233, 0.0019947364926338196, 0.0021034572273492813, 0.0022121777292340994, 0.0023208982311189175, 0.0024296187330037355, 0.0025383392348885536, 0.0026470597367733717, 0.0027557802386581898, 0.0028645009733736515, 0.0029732214752584696, 0.0030819419771432877, 0.0031906624790281057, 0.003299382980912924, 0.003408103482797742, 0.00351682398468256, 0.0036255447193980217, 0.003734264988452196, 0.003842985723167658, 0.003951705992221832, 0.004060426726937294]}, "gradients/base.feature_norm.bias": {"_type": "histogram", "values": [1.0, 0.0, 0.0, 0.0, 0.0, 0.0, 0.0, 0.0, 0.0, 0.0, 0.0, 0.0, 0.0, 0.0, 0.0, 0.0, 1.0, 0.0, 0.0, 0.0, 0.0, 0.0, 0.0, 0.0, 1.0, 0.0, 0.0, 0.0, 1.0, 1.0, 0.0, 1.0, 2.0, 0.0, 2.0, 0.0, 3.0, 4.0, 2.0, 2.0, 6.0, 4.0, 8.0, 5.0, 12.0, 14.0, 7.0, 7.0, 7.0, 4.0, 6.0, 2.0, 4.0, 2.0, 1.0, 1.0, 2.0, 0.0, 0.0, 0.0, 0.0, 0.0, 0.0, 1.0], "bins": [-0.0026083835400640965, -0.0025492289569228888, -0.002490074373781681, -0.0024309197906404734, -0.0023717652074992657, -0.002312610624358058, -0.0022534560412168503, -0.0021943014580756426, -0.002135146874934435, -0.002075992291793227, -0.0020168377086520195, -0.001957683125510812, -0.0018985285423696041, -0.0018393739592283964, -0.0017802193760871887, -0.001721064792945981, -0.0016619100933894515, -0.0016027555102482438, -0.0015436009271070361, -0.0014844463439658284, -0.0014252917608246207, -0.001366137177683413, -0.0013069824781268835, -0.0012478278949856758, -0.0011886733118444681, -0.0011295187287032604, -0.0010703641455620527, -0.001011209562420845, -0.0009520549792796373, -0.0008929003961384296, -0.000833745754789561, -0.0007745911716483533, -0.0007154366467148066, -0.0006562820635735989, -0.0005971274804323912, -0.0005379728972911835, -0.0004788182850461453, -0.0004196637019049376, -0.0003605090896598995, -0.0003013545065186918, -0.00024219992337748408, -0.0001830453402362764, -0.00012389074254315346, -6.473614485003054e-05, -5.581561708822846e-06, 5.357302143238485e-05, 0.000112727633677423, 0.0001718822168186307, 0.0002310367999598384, 0.0002901913831010461, 0.0003493459662422538, 0.00040850057848729193, 0.00046765516162849963, 0.0005268097156658769, 0.0005859643570147455, 0.0006451189401559532, 0.0007042735232971609, 0.0007634281064383686, 0.0008225826895795763, 0.0008817373309284449, 0.0009408919140696526, 0.0010000464972108603, 0.001059201080352068, 0.0011183556634932756, 0.0011775102466344833]}, "gradients/graph_1v_out.bias": {"_type": "histogram", "values": [0.0, 0.0, 0.0, 0.0, 0.0, 0.0, 0.0, 0.0, 0.0, 0.0, 0.0, 0.0, 0.0, 0.0, 0.0, 0.0, 0.0, 0.0, 0.0, 0.0, 0.0, 0.0, 0.0, 0.0, 0.0, 0.0, 0.0, 0.0, 0.0, 0.0, 0.0, 1.0, 0.0, 0.0, 0.0, 0.0, 0.0, 0.0, 0.0, 0.0, 0.0, 0.0, 0.0, 0.0, 0.0, 0.0, 0.0, 0.0, 0.0, 0.0, 0.0, 0.0, 0.0, 0.0, 0.0, 0.0, 0.0, 0.0, 0.0, 0.0, 0.0, 0.0, 0.0, 0.0], "bins": [-0.03301183134317398, -0.03301183134317398, -0.03301183134317398, -0.03301183134317398, -0.03301183134317398, -0.03301183134317398, -0.03301183134317398, -0.03301183134317398, -0.03301183134317398, -0.03301183134317398, -0.03301183134317398, -0.03301183134317398, -0.03301183134317398, -0.03301183134317398, -0.03301183134317398, -0.03301183134317398, -0.03301183134317398, -0.03301183134317398, -0.03301183134317398, -0.03301183134317398, -0.03301183134317398, -0.03301183134317398, -0.03301183134317398, -0.03301183134317398, -0.03301183134317398, -0.03301183134317398, -0.03301183134317398, -0.03301183134317398, -0.03301183134317398, -0.03301183134317398, -0.03301183134317398, -0.03301183134317398, -0.03301183134317398, -0.03301183134317398, -0.03301183134317398, -0.03301183134317398, -0.03301183134317398, -0.03301183134317398, -0.03301183134317398, -0.03301183134317398, -0.03301183134317398, -0.03301183134317398, -0.03301183134317398, -0.03301183134317398, -0.03301183134317398, -0.03301183134317398, -0.03301183134317398, -0.03301183134317398, -0.03301183134317398, -0.03301183134317398, -0.03301183134317398, -0.03301183134317398, -0.03301183134317398, -0.03301183134317398, -0.03301183134317398, -0.03301183134317398, -0.03301183134317398, -0.03301183134317398, -0.03301183134317398, -0.03301183134317398, -0.03301183134317398, -0.03301183134317398, -0.03301183134317398, -0.03301183134317398, -0.03301183134317398]}, "gradients/graph_1v_out.weight": {"_type": "histogram", "values": [1.0, 0.0, 0.0, 0.0, 0.0, 0.0, 0.0, 0.0, 0.0, 0.0, 0.0, 0.0, 0.0, 0.0, 0.0, 0.0, 0.0, 0.0, 0.0, 0.0, 0.0, 0.0, 0.0, 0.0, 0.0, 0.0, 0.0, 0.0, 0.0, 1.0, 1.0, 0.0, 0.0, 0.0, 0.0, 0.0, 2.0, 1.0, 1.0, 1.0, 1.0, 1.0, 1.0, 0.0, 0.0, 0.0, 0.0, 1.0, 0.0, 1.0, 0.0, 1.0, 1.0, 0.0, 2.0, 0.0, 1.0, 1.0, 0.0, 4.0, 2.0, 5.0, 7.0, 27.0], "bins": [-0.15381062030792236, -0.15108615159988403, -0.1483616977930069, -0.14563722908496857, -0.14291277527809143, -0.1401883065700531, -0.13746385276317596, -0.13473938405513763, -0.1320149302482605, -0.12929046154022217, -0.12656600773334503, -0.1238415464758873, -0.12111708521842957, -0.11839261651039124, -0.1156681552529335, -0.11294369399547577, -0.11021922528743744, -0.1074947640299797, -0.10477030277252197, -0.10204584151506424, -0.0993213802576065, -0.09659691154956818, -0.09387245029211044, -0.09114798903465271, -0.08842352777719498, -0.08569906651973724, -0.08297460526227951, -0.08025014400482178, -0.07752567529678345, -0.07480121403932571, -0.07207675278186798, -0.06935229152441025, -0.06662782281637192, -0.06390336155891418, -0.06117890030145645, -0.05845443531870842, -0.05572997406125069, -0.053005512803792953, -0.05028104782104492, -0.04755658656358719, -0.044832125306129456, -0.04210766404867172, -0.03938320279121399, -0.03665873780846596, -0.033934276551008224, -0.03120981529355049, -0.02848535217344761, -0.025760889053344727, -0.023036429658532143, -0.02031196653842926, -0.017587505280971527, -0.01486304309219122, -0.012138580903410912, -0.009414118714630604, -0.006689656525850296, -0.003965193405747414, -0.0012407321482896805, 0.0014837300404906273, 0.004208192229270935, 0.006932654418051243, 0.00965711660683155, 0.012381578795611858, 0.015106040984392166, 0.01783050410449505, 0.02055496536195278]}, "gradients/graph_1base.mlp.fc2.0.2.weight": {"_type": "histogram", "values": [1.0, 0.0, 0.0, 0.0, 0.0, 0.0, 0.0, 0.0, 0.0, 0.0, 0.0, 0.0, 0.0, 0.0, 0.0, 0.0, 0.0, 0.0, 0.0, 1.0, 2.0, 1.0, 3.0, 2.0, 0.0, 4.0, 6.0, 3.0, 3.0, 7.0, 6.0, 4.0, 7.0, 3.0, 3.0, 0.0, 1.0, 2.0, 2.0, 1.0, 0.0, 0.0, 0.0, 1.0, 0.0, 0.0, 0.0, 0.0, 0.0, 0.0, 0.0, 0.0, 0.0, 0.0, 0.0, 0.0, 0.0, 0.0, 0.0, 0.0, 0.0, 0.0, 0.0, 1.0], "bins": [-0.013889939524233341, -0.013433770276606083, -0.01297760009765625, -0.012521430850028992, -0.012065261602401733, -0.011609092354774475, -0.011152923107147217, -0.010696752928197384, -0.010240583680570126, -0.009784414432942867, -0.009328244253993034, -0.008872075006365776, -0.008415905758738518, -0.00795973651111126, -0.007503566797822714, -0.007047397084534168, -0.00659122783690691, -0.006135058589279652, -0.005678888875991106, -0.00522271916270256, -0.004766549915075302, -0.004310380667448044, -0.003854210954159498, -0.0033980414737015963, -0.0029418719932436943, -0.0024857025127857924, -0.0020295330323278904, -0.0015733635518699884, -0.0011171940714120865, -0.0006610245909541845, -0.00020485511049628258, 0.0002513143699616194, 0.0007074829190969467, 0.0011636523995548487, 0.0016198218800127506, 0.0020759913604706526, 0.0025321608409285545, 0.0029883303213864565, 0.0034444998018443584, 0.0039006692823022604, 0.004356838762760162, 0.004813008010387421, 0.005269177723675966, 0.005725347436964512, 0.00618151668459177, 0.0066376859322190285, 0.007093855645507574, 0.00755002535879612, 0.008006194606423378, 0.008462363854050636, 0.008918533101677895, 0.009374703280627728, 0.009830872528254986, 0.010287041775882244, 0.010743211954832077, 0.011199381202459335, 0.011655550450086594, 0.012111719697713852, 0.01256788894534111, 0.013024059124290943, 0.013480228371918201, 0.01393639761954546, 0.014392567798495293, 0.014848737046122551, 0.01530490629374981]}, "gradients/graph_1base.mlp.fc2.0.2.bias": {"_type": "histogram", "values": [2.0, 1.0, 1.0, 1.0, 0.0, 0.0, 0.0, 1.0, 0.0, 1.0, 1.0, 0.0, 0.0, 3.0, 1.0, 2.0, 0.0, 1.0, 2.0, 2.0, 0.0, 1.0, 1.0, 1.0, 0.0, 3.0, 3.0, 0.0, 1.0, 1.0, 2.0, 1.0, 1.0, 2.0, 1.0, 1.0, 2.0, 0.0, 1.0, 2.0, 3.0, 1.0, 1.0, 0.0, 0.0, 1.0, 4.0, 0.0, 1.0, 0.0, 1.0, 1.0, 1.0, 0.0, 0.0, 1.0, 1.0, 0.0, 0.0, 2.0, 1.0, 0.0, 0.0, 2.0], "bins": [-0.006305214017629623, -0.006074411794543266, -0.005843609105795622, -0.0056128064170479774, -0.00538200419396162, -0.005151201970875263, -0.004920399282127619, -0.004689596593379974, -0.004458794370293617, -0.00422799214720726, -0.003997189458459616, -0.003766387002542615, -0.003535584546625614, -0.0033047820907086134, -0.0030739796347916126, -0.002843177178874612, -0.002612374722957611, -0.0023815722670406103, -0.0021507698111236095, -0.0019199673552066088, -0.001689164899289608, -0.0014583624433726072, -0.0012275599874556065, -0.0009967575315386057, -0.0007659550756216049, -0.0005351526197046041, -0.0003043501637876034, -7.354770787060261e-05, 0.00015725474804639816, 0.00038805720396339893, 0.0006188596598803997, 0.0008496621157974005, 0.0010804645717144012, 0.001311267027631402, 0.0015420694835484028, 0.0017728719394654036, 0.0020036743953824043, 0.002234476851299405, 0.002465279307216406, 0.0026960817631334066, 0.0029268842190504074, 0.003157686674967408, 0.003388489130884409, 0.0036192915868014097, 0.0038500940427184105, 0.004080896265804768, 0.004311698954552412, 0.0045425016433000565, 0.004773303866386414, 0.005004106089472771, 0.005234908778220415, 0.0054657114669680595, 0.005696513690054417, 0.005927315913140774, 0.006158118601888418, 0.006388921290636063, 0.00661972351372242, 0.006850525736808777, 0.007081328425556421, 0.007312131114304066, 0.007542933337390423, 0.00777373556047678, 0.008004538714885712, 0.008235340937972069, 0.008466143161058426]}, "gradients/graph_1base.mlp.fc2.0.0.bias": {"_type": "histogram", "values": [1.0, 0.0, 0.0, 0.0, 0.0, 0.0, 0.0, 0.0, 0.0, 0.0, 0.0, 0.0, 0.0, 1.0, 2.0, 1.0, 0.0, 1.0, 0.0, 2.0, 0.0, 1.0, 0.0, 1.0, 0.0, 1.0, 0.0, 0.0, 1.0, 2.0, 0.0, 2.0, 2.0, 18.0, 8.0, 3.0, 0.0, 3.0, 1.0, 0.0, 1.0, 1.0, 1.0, 2.0, 1.0, 1.0, 1.0, 0.0, 0.0, 1.0, 1.0, 1.0, 1.0, 0.0, 0.0, 0.0, 0.0, 0.0, 0.0, 0.0, 0.0, 0.0, 0.0, 1.0], "bins": [-0.00545894168317318, -0.005297874566167593, -0.005136807914823294, -0.004975740797817707, -0.0048146736808121204, -0.004653606563806534, -0.0044925399124622345, -0.004331472795456648, -0.004170405678451061, -0.004009338561445475, -0.0038482716772705317, -0.0036872047930955887, -0.003526137676090002, -0.003365070791915059, -0.003204003907740116, -0.0030429367907345295, -0.00288187013939023, -0.002720803255215287, -0.0025597361382097006, -0.0023986692540347576, -0.002237602137029171, -0.002076535252854228, -0.001915468368679285, -0.0017544013680890203, -0.0015933343674987555, -0.0014322673669084907, -0.0012712003663182259, -0.0011101334821432829, -0.0009490664815530181, -0.0007879994809627533, -0.0006269325385801494, -0.00046586559619754553, -0.00030479906126856804, -0.0001437320897821337, 1.7334881704300642e-05, 0.00017840185319073498, 0.0003394688246771693, 0.0005005358252674341, 0.000661602767650038, 0.0008226697100326419, 0.0009837367106229067, 0.0011448037112131715, 0.0013058707118034363, 0.0014669375959783792, 0.001628004596568644, 0.0017890715971589088, 0.0019501384813338518, 0.002111205365508795, 0.0022722724825143814, 0.0024333393666893244, 0.002594406483694911, 0.002755473367869854, 0.0029165404848754406, 0.0030776073690503836, 0.0032386742532253265, 0.003399741370230913, 0.003560808254405856, 0.003721875138580799, 0.0038829422555863857, 0.004044009372591972, 0.004205076023936272, 0.004366143140941858, 0.004527210257947445, 0.004688276909291744, 0.004849344026297331]}, "gradients/graph_1base.mlp.fc2.0.0.weight": {"_type": "histogram", "values": [1.0, 0.0, 0.0, 0.0, 0.0, 0.0, 0.0, 0.0, 0.0, 0.0, 0.0, 0.0, 0.0, 0.0, 2.0, 2.0, 0.0, 1.0, 1.0, 3.0, 0.0, 1.0, 1.0, 1.0, 4.0, 7.0, 4.0, 9.0, 15.0, 23.0, 55.0, 151.0, 353.0, 2527.0, 477.0, 266.0, 86.0, 56.0, 17.0, 6.0, 4.0, 8.0, 3.0, 2.0, 1.0, 1.0, 2.0, 1.0, 0.0, 2.0, 0.0, 1.0, 1.0, 0.0, 0.0, 0.0, 0.0, 0.0, 0.0, 0.0, 0.0, 0.0, 0.0, 1.0], "bins": [-0.02873152680695057, -0.027879901230335236, -0.02702827751636505, -0.026176651939749718, -0.025325026363134384, -0.0244734026491642, -0.023621777072548866, -0.022770151495933533, -0.02191852778196335, -0.021066902205348015, -0.02021527849137783, -0.019363652914762497, -0.018512027338147163, -0.01766040176153183, -0.016808778047561646, -0.015957152470946312, -0.015105526894330978, -0.01425390224903822, -0.013402276672422886, -0.012550652027130127, -0.011699026450514793, -0.010847401805222034, -0.009995777159929276, -0.009144151583313942, -0.008292526938021183, -0.007440901827067137, -0.0065892767161130905, -0.005737652070820332, -0.004886026959866285, -0.004034401848912239, -0.00318277720361948, -0.002331152092665434, -0.0014795251190662384, -0.000627900124527514, 0.00022372487001121044, 0.001075349748134613, 0.0019269748590886593, 0.0027785999700427055, 0.0036302246153354645, 0.004481849726289511, 0.005333474837243557, 0.006185099948197603, 0.0070367250591516495, 0.007888349704444408, 0.008739974349737167, 0.009591599926352501, 0.01044322457164526, 0.011294849216938019, 0.012146474793553352, 0.012998099438846111, 0.013849725015461445, 0.014701349660754204, 0.015552975237369537, 0.01640459895133972, 0.017256224527955055, 0.01810785010457039, 0.018959473818540573, 0.019811099395155907, 0.02066272310912609, 0.021514348685741425, 0.022365974262356758, 0.02321759983897209, 0.024069223552942276, 0.02492084912955761, 0.025772474706172943]}, "gradients/graph_1base.mlp.fc1.2.weight": {"_type": "histogram", "values": [1.0, 0.0, 0.0, 0.0, 0.0, 0.0, 0.0, 0.0, 1.0, 0.0, 0.0, 0.0, 0.0, 2.0, 0.0, 1.0, 0.0, 1.0, 0.0, 2.0, 1.0, 0.0, 3.0, 2.0, 3.0, 0.0, 3.0, 2.0, 5.0, 3.0, 7.0, 8.0, 1.0, 1.0, 2.0, 2.0, 1.0, 1.0, 1.0, 0.0, 1.0, 2.0, 0.0, 1.0, 1.0, 2.0, 0.0, 1.0, 0.0, 1.0, 0.0, 0.0, 0.0, 0.0, 0.0, 0.0, 0.0, 0.0, 0.0, 0.0, 0.0, 0.0, 0.0, 1.0], "bins": [-0.004566506016999483, -0.00441495468840003, -0.004263403359800577, -0.0041118524968624115, -0.0039603011682629585, -0.0038087498396635056, -0.0036571985110640526, -0.0035056471824645996, -0.0033540960866957903, -0.0032025447580963373, -0.003050993662327528, -0.002899442333728075, -0.002747891005128622, -0.0025963399093598127, -0.0024447885807603598, -0.0022932374849915504, -0.0021416861563920975, -0.0019901348277926445, -0.0018385837320238352, -0.0016870324034243822, -0.001535481191240251, -0.00138392997905612, -0.001232378650456667, -0.0010808274382725358, -0.0009292762260884047, -0.0007777250139042735, -0.0006261737435124815, -0.00047462250222451985, -0.00032307126093655825, -0.0001715200487524271, -1.9968778360635042e-05, 0.00013158249203115702, 0.00028313323855400085, 0.00043468447984196246, 0.0005862357211299241, 0.0007377869915217161, 0.0008893382037058473, 0.0010408894158899784, 0.0011924407444894314, 0.0013439919566735625, 0.0014955431688576937, 0.0016470943810418248, 0.001798645593225956, 0.001950196921825409, 0.002101748250424862, 0.0022532993461936712, 0.002404850674793124, 0.0025564017705619335, 0.0027079530991613865, 0.0028595044277608395, 0.0030110555235296488, 0.0031626068521291018, 0.003314157947897911, 0.003465709276497364, 0.003617260605096817, 0.00376881193369627, 0.003920363262295723, 0.004071914590895176, 0.004223465919494629, 0.004375016782432795, 0.0045265681110322475, 0.0046781194396317005, 0.0048296707682311535, 0.0049812220968306065, 0.005132772959768772]}, "gradients/graph_1base.mlp.fc1.2.bias": {"_type": "histogram", "values": [1.0, 0.0, 0.0, 0.0, 0.0, 2.0, 2.0, 0.0, 1.0, 0.0, 1.0, 1.0, 2.0, 1.0, 0.0, 0.0, 1.0, 2.0, 0.0, 4.0, 1.0, 0.0, 3.0, 6.0, 0.0, 4.0, 2.0, 2.0, 2.0, 1.0, 2.0, 4.0, 0.0, 2.0, 4.0, 3.0, 0.0, 1.0, 1.0, 2.0, 1.0, 1.0, 0.0, 1.0, 0.0, 0.0, 0.0, 2.0, 0.0, 0.0, 0.0, 0.0, 0.0, 0.0, 0.0, 0.0, 0.0, 0.0, 0.0, 0.0, 0.0, 0.0, 0.0, 1.0], "bins": [-0.004918593913316727, -0.0047289906069636345, -0.00453938776627183, -0.004349784459918737, -0.0041601816192269325, -0.00397057831287384, -0.003780975006520748, -0.0035913719329982996, -0.003401768859475851, -0.0032121657859534025, -0.003022562712430954, -0.002832959406077862, -0.0026433563325554132, -0.0024537532590329647, -0.0022641499526798725, -0.002074546879157424, -0.0018849438056349754, -0.001695340732112527, -0.0015057375421747565, -0.0013161343522369862, -0.0011265312787145376, -0.0009369281469844282, -0.0007473250152543187, -0.0005577218253165483, -0.0003681187517940998, -0.00017851562006399035, 1.1087511666119099e-05, 0.00020069064339622855, 0.000390293775126338, 0.0005798969068564475, 0.0007695000385865569, 0.0009591032285243273, 0.0011487058363854885, 0.001338308909907937, 0.0015279120998457074, 0.0017175152897834778, 0.0019071183633059263, 0.002096721436828375, 0.002286324743181467, 0.0024759278167039156, 0.002665530890226364, 0.0028551339637488127, 0.003044737037271261, 0.0032343403436243534, 0.003423943417146802, 0.0036135464906692505, 0.0038031497970223427, 0.003992753103375435, 0.00418235594406724, 0.004371959250420332, 0.004561562091112137, 0.004751165397465229, 0.004940768703818321, 0.005130371544510126, 0.005319974850863218, 0.005509577691555023, 0.005699180997908115, 0.005888784304261208, 0.0060783871449530125, 0.006267990451306105, 0.0064575932919979095, 0.006647196598351002, 0.006836799904704094, 0.007026403211057186, 0.007216006051748991]}, "gradients/graph_1base.mlp.fc1.0.bias": {"_type": "histogram", "values": [1.0, 0.0, 0.0, 1.0, 0.0, 0.0, 0.0, 0.0, 0.0, 0.0, 0.0, 0.0, 1.0, 0.0, 0.0, 1.0, 1.0, 0.0, 0.0, 1.0, 0.0, 0.0, 0.0, 1.0, 0.0, 0.0, 1.0, 0.0, 0.0, 1.0, 1.0, 3.0, 2.0, 2.0, 1.0, 4.0, 5.0, 19.0, 1.0, 2.0, 1.0, 0.0, 1.0, 1.0, 2.0, 1.0, 2.0, 0.0, 0.0, 0.0, 1.0, 0.0, 1.0, 1.0, 1.0, 0.0, 0.0, 1.0, 1.0, 0.0, 0.0, 0.0, 0.0, 1.0], "bins": [-0.001867166836746037, -0.0018170308321714401, -0.0017668948275968432, -0.0017167588230222464, -0.0016666228184476495, -0.0016164868138730526, -0.0015663508092984557, -0.0015162148047238588, -0.001466078800149262, -0.001415942795574665, -0.0013658067910000682, -0.0013156707864254713, -0.0012655347818508744, -0.0012153987772762775, -0.0011652627727016807, -0.0011151267681270838, -0.0010649908799678087, -0.0010148548753932118, -0.000964718870818615, -0.0009145828662440181, -0.0008644468616694212, -0.0008143108570948243, -0.0007641748525202274, -0.0007140388479456306, -0.0006639028433710337, -0.0006137668387964368, -0.0005636308342218399, -0.000513494829647243, -0.00046335882507264614, -0.0004132228496018797, -0.00036308684502728283, -0.00031295084045268595, -0.0002628148067742586, -0.00021267880219966173, -0.00016254279762506485, -0.0001124068076023832, -6.227080302778631e-05, -1.2134813005104661e-05, 3.800119156949222e-05, 8.81371961440891e-05, 0.00013827320071868598, 0.00018840920529328287, 0.00023854520986787975, 0.0002886811853386462, 0.00033881718991324306, 0.00038895319448783994, 0.0004390891990624368, 0.0004892252036370337, 0.0005393612082116306, 0.0005894972127862275, 0.0006396332173608243, 0.0006897692219354212, 0.0007399052265100181, 0.0007900411728769541, 0.000840177177451551, 0.0008903131820261478, 0.0009404491866007447, 0.0009905851911753416, 0.0010407211957499385, 0.0010908572003245354, 0.0011409932048991323, 0.0011911292094737291, 0.001241265214048326, 0.001291401218622923, 0.0013415372231975198]}, "gradients/graph_1base.mlp.fc1.0.weight": {"_type": "histogram", "values": [1.0, 0.0, 0.0, 1.0, 0.0, 0.0, 0.0, 0.0, 0.0, 0.0, 0.0, 0.0, 1.0, 0.0, 1.0, 1.0, 0.0, 0.0, 0.0, 0.0, 1.0, 0.0, 0.0, 1.0, 0.0, 1.0, 0.0, 1.0, 1.0, 0.0, 0.0, 4.0, 20.0, 160.0, 275.0, 432.0, 37784.0, 12377.0, 538.0, 222.0, 3.0, 1.0, 1.0, 0.0, 2.0, 3.0, 1.0, 0.0, 0.0, 1.0, 0.0, 2.0, 0.0, 0.0, 0.0, 1.0, 0.0, 1.0, 1.0, 0.0, 0.0, 0.0, 0.0, 1.0], "bins": [-0.03376634418964386, -0.03285232186317444, -0.03193829953670502, -0.031024277210235596, -0.030110254883766174, -0.029196232557296753, -0.02828221023082733, -0.02736818790435791, -0.02645416557788849, -0.025540143251419067, -0.024626120924949646, -0.023712098598480225, -0.022798076272010803, -0.021884053945541382, -0.02097003161907196, -0.02005600929260254, -0.019141986966133118, -0.018227964639663696, -0.017313942313194275, -0.016399919986724854, -0.015485897660255432, -0.01457187533378601, -0.01365785300731659, -0.012743830680847168, -0.011829808354377747, -0.010915786027908325, -0.010001763701438904, -0.009087741374969482, -0.008173719048500061, -0.00725969672203064, -0.006345674395561218, -0.005431652069091797, -0.0045176297426223755, -0.003603607416152954, -0.0026895850896835327, -0.0017755627632141113, -0.0008615404367446899, 5.2481889724731445e-05, 0.0009665042161941528, 0.0018805265426635742, 0.0027945488691329956, 0.003708571195602417, 0.004622593522071838, 0.00553661584854126, 0.006450638175010681, 0.0073646605014801025, 0.008278682827949524, 0.009192705154418945, 0.010106727480888367, 0.011020749807357788, 0.01193477213382721, 0.01284879446029663, 0.013762816786766052, 0.014676839113235474, 0.015590861439704895, 0.016504883766174316, 0.017418906092643738, 0.01833292841911316, 0.01924695074558258, 0.020160973072052002, 0.021074995398521423, 0.021989017724990845, 0.022903040051460266, 0.023817062377929688, 0.02473108470439911]}, "gradients/graph_1base.feature_norm.weight": {"_type": "histogram", "values": [1.0, 0.0, 0.0, 0.0, 0.0, 0.0, 0.0, 0.0, 0.0, 0.0, 0.0, 0.0, 0.0, 0.0, 0.0, 0.0, 0.0, 0.0, 0.0, 0.0, 0.0, 0.0, 0.0, 0.0, 0.0, 0.0, 0.0, 0.0, 0.0, 0.0, 0.0, 0.0, 0.0, 0.0, 0.0, 0.0, 0.0, 0.0, 0.0, 0.0, 0.0, 0.0, 0.0, 0.0, 0.0, 0.0, 0.0, 0.0, 0.0, 0.0, 0.0, 1.0, 3.0, 8.0, 21.0, 197.0, 511.0, 49.0, 8.0, 8.0, 2.0, 0.0, 0.0, 1.0], "bins": [-0.010731162503361702, -0.010540151968598366, -0.010349142365157604, -0.010158131830394268, -0.009967122226953506, -0.00977611169219017, -0.009585101157426834, -0.009394091553986073, -0.009203081019222736, -0.0090120704844594, -0.008821060881018639, -0.008630050346255302, -0.00843904074281454, -0.008248030208051205, -0.008057020604610443, -0.007866010069847107, -0.007675000466406345, -0.0074839903973042965, -0.007292980328202248, -0.0071019697934389114, -0.0069109597243368626, -0.006719949655234814, -0.006528939586132765, -0.006337929517030716, -0.00614691898226738, -0.005955908913165331, -0.005764898844063282, -0.005573888309299946, -0.005382878240197897, -0.005191868171095848, -0.005000858101993799, -0.00480984803289175, -0.004618837498128414, -0.004427827429026365, -0.004236817359924316, -0.00404580682516098, -0.003854796988889575, -0.0036637866869568825, -0.0034727766178548336, -0.0032817665487527847, -0.003090756479650736, -0.002899746410548687, -0.0027087361086159945, -0.0025177260395139456, -0.0023267159704118967, -0.002135705668479204, -0.0019446955993771553, -0.0017536855302751064, -0.0015626754611730576, -0.0013716652756556869, -0.001180655206553638, -0.0009896450210362673, -0.0007986348937265575, -0.0006076247664168477, -0.000416614580899477, -0.00022560451179742813, -3.459432628005743e-05, 0.00015641581558156759, 0.0003474259574431926, 0.0005384361138567328, 0.0007294462411664426, 0.0009204563684761524, 0.0011114665539935231, 0.001302476623095572, 0.0014934868086129427]}, "gradients/graph_1base.feature_norm.bias": {"_type": "histogram", "values": [4.0, 1.0, 0.0, 1.0, 2.0, 2.0, 5.0, 2.0, 1.0, 3.0, 4.0, 6.0, 4.0, 8.0, 14.0, 12.0, 14.0, 14.0, 16.0, 16.0, 13.0, 25.0, 16.0, 21.0, 22.0, 22.0, 31.0, 26.0, 28.0, 26.0, 31.0, 26.0, 24.0, 43.0, 16.0, 26.0, 29.0, 31.0, 28.0, 17.0, 15.0, 29.0, 21.0, 11.0, 12.0, 14.0, 10.0, 13.0, 13.0, 7.0, 3.0, 4.0, 4.0, 5.0, 5.0, 5.0, 2.0, 1.0, 2.0, 3.0, 0.0, 0.0, 0.0, 1.0], "bins": [-0.0006776996306143701, -0.0006567188538610935, -0.000635738018900156, -0.0006147572421468794, -0.0005937764653936028, -0.0005727956304326653, -0.0005518148536793888, -0.0005308340769261122, -0.0005098532419651747, -0.0004888724652118981, -0.00046789165935479105, -0.000446910853497684, -0.00042593004764057696, -0.0004049492417834699, -0.00038396846503019333, -0.0003629876591730863, -0.0003420068824198097, -0.00032102607656270266, -0.00030004529980942607, -0.000279064493952319, -0.000258083688095212, -0.00023710289679002017, -0.00021612210548482835, -0.0001951412996277213, -0.0001741605083225295, -0.00015317971701733768, -0.00013219891116023064, -0.00011121811985503882, -9.023732127388939e-05, -6.925652269273996e-05, -4.827573138754815e-05, -2.7294925530441105e-05, -6.3141342252492905e-06, 1.4666662536910735e-05, 3.564745929907076e-05, 5.662825424224138e-05, 7.760905282339081e-05, 9.858985140454024e-05, 0.00011957064270973206, 0.0001405514485668391, 0.00016153223987203091, 0.00018251303117722273, 0.00020349383703432977, 0.0002244746283395216, 0.0002454554196447134, 0.00026643622550182045, 0.0002874170313589275, 0.0003083978081122041, 0.0003293786139693111, 0.00035035941982641816, 0.00037134019657969475, 0.0003923210024368018, 0.00041330180829390883, 0.0004342825850471854, 0.00045526339090429246, 0.0004762441967613995, 0.0004972249735146761, 0.0005182057502679527, 0.0005391865852288902, 0.0005601673619821668, 0.0005811481387354434, 0.0006021289736963809, 0.0006231097504496574, 0.0006440905854105949, 0.0006650713621638715]}, "_wandb": {"runtime": 11833}}