{"value_loss": 0.09473410472273827, "_timestamp": 1665420671.4587936, "_runtime": 12907.819103717804, "policy_loss": -0.0006340810179517487, "dist_entropy": 0.9680069625377655, "actor_grad_norm": 0.028782162815332413, "critic_grad_norm": 0.1507020741701126, "ratio": 1.0000470876693726, "sm3_ratio_mean": 0.2842763605442218, "drop_ratio_mean": 0.0028453143313527107, "drop_ratio_std": 0.04447963088750839, "drop_ratio_min": 0.0, "drop_ratio_max": 1.0, "ue_drop_ratio_mean": 0.003521933238516317, "ue_drop_ratio_std": 0.048736785178536655, "ue_drop_ratio_min": 0.0, "ue_drop_ratio_max": 0.9999990000010001, "delay_ratio_mean": 0.12102369219064713, "delay_ratio_std": 0.1415233016014099, "delay_ratio_min": 0.0, "delay_ratio_max": 1.0, "qos_reward_mean": 0.0005773331185776362, "qos_reward_std": 0.028944779475026893, "qos_reward_min": -0.9999990000010001, "qos_reward_max": 0.003933329396526999, "pc_kw_mean": 0.21258233007642957, "pc_kw_std": 0.050293254933809074, "pc_kw_min": 0.09709968566894532, "pc_kw_max": 0.6208925170898437, "reward_mean": -0.2096956644835414, "reward_std": 0.15193288737443914, "reward_min": -5.2267270556690635, "reward_max": -0.09462814514361294, "_step": 2520000, "gradients/act.action_outs.2.linear.bias": {"_type": "histogram", "values": [1.0, 0.0, 0.0, 0.0, 0.0, 0.0, 0.0, 0.0, 0.0, 0.0, 0.0, 0.0, 0.0, 0.0, 0.0, 0.0, 0.0, 0.0, 0.0, 0.0, 0.0, 0.0, 0.0, 0.0, 0.0, 0.0, 0.0, 0.0, 0.0, 0.0, 1.0, 0.0, 0.0, 0.0, 0.0, 0.0, 0.0, 0.0, 0.0, 0.0, 0.0, 0.0, 0.0, 0.0, 0.0, 0.0, 0.0, 0.0, 0.0, 0.0, 0.0, 0.0, 0.0, 0.0, 0.0, 0.0, 0.0, 0.0, 0.0, 0.0, 0.0, 0.0, 0.0, 1.0], "bins": [-0.0008156306575983763, -0.000789715675637126, -0.0007638006354682148, -0.0007378855952993035, -0.0007119706133380532, -0.0006860556313768029, -0.0006601405912078917, -0.0006342255510389805, -0.0006083105690777302, -0.0005823955871164799, -0.0005564805469475687, -0.0005305655067786574, -0.0005046505248174071, -0.00047873551375232637, -0.0004528205026872456, -0.00042690549162216485, -0.0004009904805570841, -0.0003750754694920033, -0.00034916045842692256, -0.0003232454473618418, -0.00029733043629676104, -0.0002714154252316803, -0.0002455004141665995, -0.00021958540310151875, -0.000193670392036438, -0.00016775538097135723, -0.00014184036990627646, -0.0001159253588411957, -9.001034777611494e-05, -6.409533671103418e-05, -3.818032564595342e-05, -1.2265314580872655e-05, 1.3649696484208107e-05, 3.956470754928887e-05, 6.547971861436963e-05, 9.139472967945039e-05, 0.00011730974074453115, 0.00014322475180961192, 0.00016913976287469268, 0.00019505477393977344, 0.0002209697850048542, 0.00024688479606993496, 0.0002727998071350157, 0.0002987148182000965, 0.00032462982926517725, 0.000350544840330258, 0.0003764598513953388, 0.00040237486246041954, 0.0004282898735255003, 0.00045420488459058106, 0.0004801198956556618, 0.000506034935824573, 0.0005319499177858233, 0.0005578648997470737, 0.0005837799399159849, 0.0006096949800848961, 0.0006356099620461464, 0.0006615249440073967, 0.0006874399841763079, 0.0007133550243452191, 0.0007392700063064694, 0.0007651849882677197, 0.000791100028436631, 0.0008170150686055422, 0.0008429300505667925]}, "gradients/act.action_outs.2.linear.weight": {"_type": "histogram", "values": [1.0, 0.0, 0.0, 0.0, 0.0, 0.0, 0.0, 2.0, 1.0, 1.0, 0.0, 0.0, 0.0, 1.0, 2.0, 1.0, 0.0, 2.0, 1.0, 4.0, 3.0, 4.0, 1.0, 6.0, 5.0, 11.0, 10.0, 6.0, 8.0, 8.0, 11.0, 13.0, 10.0, 11.0, 6.0, 11.0, 8.0, 15.0, 3.0, 7.0, 2.0, 3.0, 1.0, 2.0, 1.0, 1.0, 0.0, 1.0, 2.0, 0.0, 0.0, 0.0, 0.0, 1.0, 0.0, 0.0, 1.0, 0.0, 0.0, 0.0, 1.0, 1.0, 1.0, 1.0], "bins": [-0.0030995537526905537, -0.003001107834279537, -0.002902661683037877, -0.0028042157646268606, -0.002705769846215844, -0.002607323694974184, -0.0025088777765631676, -0.002410431858152151, -0.0023119859397411346, -0.002213540021330118, -0.002115093870088458, -0.0020166479516774416, -0.0019182020332664251, -0.0018197559984400868, -0.0017213099636137486, -0.001622864045202732, -0.0015244180103763938, -0.0014259719755500555, -0.001327526057139039, -0.0012290800223127007, -0.0011306341039016843, -0.001032188069075346, -0.0009337420924566686, -0.0008352961158379912, -0.0007368501392193139, -0.0006384041626006365, -0.0005399581859819591, -0.00044151218025945127, -0.0003430662036407739, -0.00024462019791826606, -0.00014617422129958868, -4.77282446809113e-05, 5.0717731937766075e-05, 0.00014916370855644345, 0.00024760968517512083, 0.00034605569089762866, 0.00044450166751630604, 0.0005429476732388139, 0.0006413936498574913, 0.0007398396264761686, 0.000838285603094846, 0.0009367315797135234, 0.0010351776145398617, 0.0011336235329508781, 0.0012320695677772164, 0.0013305156026035547, 0.0014289615210145712, 0.0015274074394255877, 0.001625853474251926, 0.0017242995090782642, 0.0018227454274892807, 0.001921191462315619, 0.0020196374971419573, 0.0021180834155529737, 0.00221652933396399, 0.0023149754852056503, 0.002413421403616667, 0.0025118673220276833, 0.0026103134732693434, 0.00270875939168036, 0.0028072053100913763, 0.0029056514613330364, 0.003004097379744053, 0.0031025432981550694, 0.003200989216566086]}, "gradients/act.action_outs.1.linear.bias": {"_type": "histogram", "values": [1.0, 0.0, 0.0, 0.0, 0.0, 0.0, 0.0, 0.0, 0.0, 0.0, 0.0, 0.0, 0.0, 0.0, 0.0, 0.0, 0.0, 1.0, 0.0, 0.0, 0.0, 0.0, 0.0, 0.0, 0.0, 0.0, 0.0, 0.0, 0.0, 0.0, 0.0, 0.0, 0.0, 0.0, 0.0, 0.0, 0.0, 0.0, 0.0, 0.0, 0.0, 0.0, 0.0, 0.0, 0.0, 0.0, 0.0, 0.0, 0.0, 0.0, 0.0, 0.0, 0.0, 0.0, 0.0, 0.0, 0.0, 0.0, 0.0, 0.0, 0.0, 1.0, 0.0, 1.0], "bins": [-0.0002518982801120728, -0.000244848954025656, -0.00023779961338732392, -0.00023075028730090708, -0.000223700946662575, -0.00021665162057615817, -0.00020960229448974133, -0.00020255295385140926, -0.0001955036132130772, -0.00018845428712666035, -0.00018140494648832828, -0.00017435562040191144, -0.00016730627976357937, -0.00016025695367716253, -0.0001532076275907457, -0.00014615828695241362, -0.00013910896086599678, -0.00013205963477957994, -0.00012501029414124787, -0.00011796096805483103, -0.00011091162741649896, -0.00010386230133008212, -9.681296796770766e-05, -8.976363460533321e-05, -8.271430124295875e-05, -7.56649678805843e-05, -6.861563451820984e-05, -6.156630115583539e-05, -5.451697143143974e-05, -4.746763806906529e-05, -4.041830834466964e-05, -3.3368974982295185e-05, -2.631964161992073e-05, -1.9270308257546276e-05, -1.2220976714161225e-05, -5.1716451707761735e-06, 1.8776881915982813e-06, 8.927021553972736e-06, 1.5976351278368384e-05, 2.302568464074284e-05, 3.0075018003117293e-05, 3.712435136549175e-05, 4.41736847278662e-05, 5.122301445226185e-05, 5.8272347814636305e-05, 6.532168481498957e-05, 7.237101090140641e-05, 7.942034426378086e-05, 8.646967762615532e-05, 9.351901098852977e-05, 0.00010056834435090423, 0.00010761767043732107, 0.00011466701107565314, 0.00012171633716206998, 0.00012876567780040205, 0.00013581500388681889, 0.00014286432997323573, 0.00014991365605965257, 0.00015696299669798464, 0.00016401232278440148, 0.00017106166342273355, 0.00017811098950915039, 0.00018516031559556723, 0.0001922096562338993, 0.00019925899687223136]}, "gradients/act.action_outs.1.linear.weight": {"_type": "histogram", "values": [1.0, 0.0, 0.0, 1.0, 0.0, 0.0, 1.0, 1.0, 0.0, 0.0, 0.0, 1.0, 3.0, 0.0, 0.0, 1.0, 2.0, 2.0, 9.0, 3.0, 6.0, 6.0, 6.0, 4.0, 4.0, 6.0, 8.0, 11.0, 9.0, 14.0, 14.0, 21.0, 16.0, 9.0, 17.0, 12.0, 10.0, 6.0, 6.0, 8.0, 5.0, 1.0, 2.0, 3.0, 3.0, 5.0, 3.0, 1.0, 1.0, 1.0, 2.0, 3.0, 0.0, 2.0, 0.0, 1.0, 1.0, 1.0, 1.0, 0.0, 0.0, 1.0, 0.0, 1.0], "bins": [-0.0023669064976274967, -0.0022927583195269108, -0.002218610141426325, -0.002144461963325739, -0.0020703135523945093, -0.0019961653742939234, -0.0019220171961933374, -0.0018478690180927515, -0.0017737208399921656, -0.0016995726618915796, -0.0016254243673756719, -0.001551276189275086, -0.0014771280111745, -0.0014029797166585922, -0.0013288315385580063, -0.0012546833604574203, -0.0011805350659415126, -0.0011063868878409266, -0.0010322385933250189, -0.0009580904152244329, -0.000883942237123847, -0.0008097940008156002, -0.0007356457645073533, -0.0006614975864067674, -0.0005873493500985205, -0.0005132011137902737, -0.00043905293568968773, -0.0003649046993814409, -0.0002907564921770245, -0.0002166082849726081, -0.00014246004866436124, -6.83118705637753e-05, 5.83636574447155e-06, 7.998458022484556e-05, 0.00015413279470521957, 0.0002282810164615512, 0.0003024292236659676, 0.000376577430870384, 0.00045072566717863083, 0.0005248738452792168, 0.0005990220815874636, 0.0006731703178957105, 0.0007473184959962964, 0.0008214667323045433, 0.0008956149686127901, 0.000969763146713376, 0.001043911324813962, 0.001118059502914548, 0.0011922077974304557, 0.0012663559755310416, 0.0013405042700469494, 0.0014146524481475353, 0.0014888006262481213, 0.0015629488043487072, 0.001637097098864615, 0.001711245276965201, 0.0017853935714811087, 0.0018595417495816946, 0.0019336900440976024, 0.00200783833861351, 0.002081986516714096, 0.002156134694814682, 0.002230282872915268, 0.002304431051015854, 0.00237857922911644]}, "gradients/act.action_outs.0.linear.bias": {"_type": "histogram", "values": [1.0, 0.0, 0.0, 0.0, 0.0, 0.0, 0.0, 0.0, 0.0, 0.0, 0.0, 0.0, 0.0, 0.0, 0.0, 0.0, 0.0, 0.0, 0.0, 0.0, 0.0, 0.0, 0.0, 0.0, 0.0, 0.0, 0.0, 0.0, 0.0, 0.0, 0.0, 0.0, 0.0, 0.0, 0.0, 0.0, 0.0, 0.0, 0.0, 0.0, 0.0, 0.0, 0.0, 1.0, 0.0, 0.0, 0.0, 0.0, 0.0, 0.0, 0.0, 0.0, 0.0, 0.0, 0.0, 0.0, 0.0, 0.0, 0.0, 0.0, 0.0, 0.0, 0.0, 1.0], "bins": [-0.000357918965164572, -0.000347895547747612, -0.000337872130330652, -0.000327848712913692, -0.000317825295496732, -0.00030780190718360245, -0.00029777848976664245, -0.00028775507234968245, -0.00027773165493272245, -0.00026770823751576245, -0.00025768482009880245, -0.00024766140268184245, -0.00023763799981679767, -0.00022761458239983767, -0.0002175911795347929, -0.0002075677621178329, -0.0001975443447008729, -0.0001875209272839129, -0.0001774975098669529, -0.00016747410700190812, -0.00015745068958494812, -0.00014742727216798812, -0.00013740386930294335, -0.00012738045188598335, -0.00011735703446902335, -0.00010733361705206335, -9.731020691106096e-05, -8.728679677005857e-05, -7.726337935309857e-05, -6.723996193613857e-05, -5.7216551795136184e-05, -4.71931416541338e-05, -3.7169724237173796e-05, -2.7146310458192602e-05, -1.7122896679211408e-05, -7.099482900230214e-06, 2.92393087875098e-06, 1.2947344657732174e-05, 2.2970758436713368e-05, 3.2994168577715755e-05, 4.3017585994675756e-05, 5.304099977365695e-05, 6.306441355263814e-05, 7.308782369364053e-05, 8.311124111060053e-05, 9.313465852756053e-05, 0.00010315806866856292, 0.0001131814788095653, 0.0001232048962265253, 0.0001332283136434853, 0.0001432517310604453, 0.00015327513392549008, 0.00016329855134245008, 0.00017332196875941008, 0.00018334537162445486, 0.00019336878904141486, 0.00020339220645837486, 0.00021341562387533486, 0.00022343904129229486, 0.00023346244415733963, 0.00024348586157429963, 0.0002535092644393444, 0.0002635326818563044, 0.0002735560992732644, 0.0002835795166902244]}, "gradients/act.action_outs.0.linear.weight": {"_type": "histogram", "values": [1.0, 1.0, 0.0, 0.0, 0.0, 0.0, 0.0, 0.0, 0.0, 0.0, 0.0, 0.0, 0.0, 1.0, 2.0, 0.0, 1.0, 0.0, 0.0, 1.0, 1.0, 1.0, 1.0, 2.0, 3.0, 2.0, 4.0, 1.0, 5.0, 2.0, 5.0, 5.0, 7.0, 9.0, 12.0, 19.0, 6.0, 17.0, 12.0, 8.0, 9.0, 10.0, 8.0, 1.0, 8.0, 5.0, 2.0, 4.0, 4.0, 5.0, 2.0, 1.0, 0.0, 2.0, 0.0, 0.0, 0.0, 0.0, 0.0, 0.0, 0.0, 0.0, 1.0, 1.0], "bins": [-0.003115538042038679, -0.003030932042747736, -0.0029463262762874365, -0.0028617202769964933, -0.002777114510536194, -0.0026925085112452507, -0.0026079025119543076, -0.0025232965126633644, -0.002438690746203065, -0.0023540847469121218, -0.0022694789804518223, -0.002184872981160879, -0.002100266981869936, -0.0020156612154096365, -0.0019310552161186934, -0.001846449333243072, -0.0017618434503674507, -0.0016772375674918294, -0.001592631684616208, -0.001508025685325265, -0.0014234198024496436, -0.0013388139195740223, -0.0012542079202830791, -0.0011696020374074578, -0.0010849961545318365, -0.0010003902716562152, -0.000915784330572933, -0.0008311783894896507, -0.0007465725066140294, -0.0006619666237384081, -0.0005773606826551259, -0.0004927547415718436, -0.00040814909152686596, -0.0003235431795474142, -0.0002389372675679624, -0.00015433135558851063, -6.972544360905886e-05, 1.4880468370392919e-05, 9.94863803498447e-05, 0.00018409232143312693, 0.00026869820430874825, 0.0003533041162882, 0.0004379100282676518, 0.000522515969350934, 0.0006071218522265553, 0.0006917277351021767, 0.0007763336761854589, 0.0008609396172687411, 0.0009455455001443624, 0.0010301513830199838, 0.001114757265895605, 0.0011993632651865482, 0.0012839691480621696, 0.0013685750309377909, 0.001453181030228734, 0.0015377869131043553, 0.0016223927959799767, 0.001706998678855598, 0.0017916045617312193, 0.0018762105610221624, 0.001960816327482462, 0.002045422326773405, 0.0021300283260643482, 0.0022146343253552914, 0.002299240091815591]}, "gradients/base.mlp.fc2.0.2.weight": {"_type": "histogram", "values": [1.0, 0.0, 0.0, 1.0, 1.0, 0.0, 0.0, 0.0, 0.0, 0.0, 1.0, 1.0, 1.0, 1.0, 2.0, 1.0, 1.0, 1.0, 4.0, 2.0, 2.0, 1.0, 4.0, 3.0, 4.0, 1.0, 1.0, 3.0, 2.0, 2.0, 2.0, 2.0, 3.0, 2.0, 1.0, 1.0, 2.0, 0.0, 0.0, 1.0, 0.0, 0.0, 1.0, 0.0, 0.0, 1.0, 0.0, 1.0, 0.0, 1.0, 2.0, 0.0, 1.0, 0.0, 0.0, 0.0, 0.0, 0.0, 0.0, 0.0, 0.0, 0.0, 1.0, 1.0], "bins": [-0.00012324826093390584, -0.00011803302186308429, -0.00011281779006822035, -0.0001076025509973988, -0.00010238731920253485, -9.71720801317133e-05, -9.195684106089175e-05, -8.674160926602781e-05, -8.152637019520625e-05, -7.63111311243847e-05, -7.109589932952076e-05, -6.588066025869921e-05, -6.066542482585646e-05, -5.5450189393013716e-05, -5.023495032219216e-05, -4.5019714889349416e-05, -3.980447945650667e-05, -3.458924402366392e-05, -2.9374006771831773e-05, -2.4158769519999623e-05, -1.8943534087156877e-05, -1.372829865431413e-05, -8.513059583492577e-06, -3.2978241506498307e-06, 1.9174112821929157e-06, 7.132647624530364e-06, 1.2347883966867812e-05, 1.7563121218699962e-05, 2.2778356651542708e-05, 2.7993592084385455e-05, 3.320883115520701e-05, 3.8424066588049755e-05, 4.36393020208925e-05, 4.885453745373525e-05, 5.4069772886577994e-05, 5.928501195739955e-05, 6.450024375226349e-05, 6.971548282308504e-05, 7.49307218939066e-05, 8.014595368877053e-05, 8.536119275959209e-05, 9.057643183041364e-05, 9.579166362527758e-05, 0.00010100690269609913, 0.00010622214176692069, 0.00011143737356178463, 0.00011665261263260618, 0.00012186785170342773, 0.00012708308349829167, 0.0001322983152931556, 0.00013751356163993478, 0.00014272879343479872, 0.00014794402522966266, 0.0001531592570245266, 0.00015837450337130576, 0.0001635897351661697, 0.00016880498151294887, 0.0001740202133078128, 0.00017923545965459198, 0.00018445069144945592, 0.00018966592324431986, 0.00019488116959109902, 0.00020009640138596296, 0.0002053116331808269, 0.00021052686497569084]}, "gradients/base.mlp.fc2.0.2.bias": {"_type": "histogram", "values": [1.0, 1.0, 1.0, 0.0, 1.0, 0.0, 2.0, 1.0, 1.0, 1.0, 0.0, 1.0, 1.0, 5.0, 1.0, 6.0, 6.0, 3.0, 1.0, 0.0, 1.0, 2.0, 1.0, 2.0, 0.0, 2.0, 1.0, 1.0, 0.0, 0.0, 0.0, 0.0, 0.0, 0.0, 1.0, 0.0, 1.0, 5.0, 0.0, 0.0, 0.0, 1.0, 1.0, 1.0, 2.0, 1.0, 0.0, 0.0, 0.0, 1.0, 0.0, 2.0, 0.0, 0.0, 0.0, 1.0, 1.0, 0.0, 0.0, 1.0, 0.0, 0.0, 0.0, 2.0], "bins": [-0.00011889070447068661, -0.00011493127385620028, -0.00011097184324171394, -0.0001070124126272276, -0.00010305298201274127, -9.909355139825493e-05, -9.513411350781098e-05, -9.117468289332464e-05, -8.72152522788383e-05, -8.325582166435197e-05, -7.929639104986563e-05, -7.53369604353793e-05, -7.137752254493535e-05, -6.741809193044901e-05, -6.345866131596267e-05, -5.9499230701476336e-05, -5.553980008699e-05, -5.158036947250366e-05, -4.7620938858017325e-05, -4.366150460555218e-05, -3.9702073991065845e-05, -3.574264337657951e-05, -3.1783209124114364e-05, -2.7823778509628028e-05, -2.386434789514169e-05, -1.9904917280655354e-05, -1.5945484847179614e-05, -1.1986053323198576e-05, -8.026621799217537e-06, -4.0671911847312e-06, -1.0775875125546008e-07, 3.85167368222028e-06, 7.811118848621845e-06, 1.1770550372602884e-05, 1.5729981896583922e-05, 1.9689414330059662e-05, 2.3648844944546e-05, 2.7608275559032336e-05, 3.156770981149748e-05, 3.5527140425983816e-05, 3.948657104047015e-05, 4.344600165495649e-05, 4.7405432269442827e-05, 5.136486652190797e-05, 5.532429713639431e-05, 5.9283727750880644e-05, 6.324316200334579e-05, 6.720259261783212e-05, 7.116202323231846e-05, 7.51214538468048e-05, 7.908088446129113e-05, 8.304031507577747e-05, 8.699974569026381e-05, 9.095917630475014e-05, 9.49186141951941e-05, 9.887804480968043e-05, 0.00010283747542416677, 0.0001067969060386531, 0.00011075633665313944, 0.00011471576726762578, 0.00011867520515806973, 0.00012263463577255607, 0.0001265940663870424, 0.00013055349700152874, 0.00013451292761601508]}, "gradients/base.mlp.fc2.0.0.bias": {"_type": "histogram", "values": [1.0, 1.0, 0.0, 1.0, 0.0, 1.0, 1.0, 0.0, 1.0, 0.0, 0.0, 4.0, 2.0, 2.0, 1.0, 2.0, 0.0, 2.0, 2.0, 3.0, 2.0, 3.0, 4.0, 5.0, 2.0, 1.0, 1.0, 1.0, 2.0, 1.0, 1.0, 1.0, 3.0, 1.0, 2.0, 0.0, 1.0, 0.0, 1.0, 0.0, 1.0, 0.0, 1.0, 1.0, 0.0, 0.0, 1.0, 0.0, 0.0, 1.0, 1.0, 0.0, 0.0, 0.0, 1.0, 0.0, 0.0, 0.0, 0.0, 0.0, 0.0, 0.0, 0.0, 1.0], "bins": [-0.0001027177058858797, -9.831178613239899e-05, -9.390585910296068e-05, -8.949993934947997e-05, -8.509401959599927e-05, -8.068809984251857e-05, -7.628217281308025e-05, -7.187625305959955e-05, -6.747033330611885e-05, -6.306441355263814e-05, -5.8658490161178634e-05, -5.4252566769719124e-05, -4.984664701623842e-05, -4.544072362477891e-05, -4.10348002333194e-05, -3.66288804798387e-05, -3.222295345040038e-05, -2.7817031877930276e-05, -2.341111030546017e-05, -1.900518691400066e-05, -1.4599265341530554e-05, -1.0193343769060448e-05, -5.787420377600938e-06, -1.3815006241202354e-06, 3.0244227673392743e-06, 7.430344794556731e-06, 1.1836266821774188e-05, 1.6242189303738996e-05, 2.0648110876209103e-05, 2.505403244867921e-05, 2.945995584013872e-05, 3.386587559361942e-05, 3.827179898507893e-05, 4.267772237653844e-05, 4.708364213001914e-05, 5.148956552147865e-05, 5.5895485274959356e-05, 6.0301408666418865e-05, 6.470733205787838e-05, 6.911325181135908e-05, 7.351917156483978e-05, 7.792509131832048e-05, 8.23310183477588e-05, 8.67369381012395e-05, 9.11428578547202e-05, 9.554877760820091e-05, 9.995470463763922e-05, 0.00010436062439111993, 0.00010876655142055824, 0.00011317247117403895, 0.00011757839820347726, 0.00012198431795695797, 0.00012639023771043867, 0.00013079616473987699, 0.00013520207721740007, 0.0001396080042468384, 0.0001440139312762767, 0.00014841985830571502, 0.0001528257707832381, 0.00015723169781267643, 0.00016163762484211475, 0.00016604353731963784, 0.00017044946434907615, 0.00017485537682659924, 0.00017926130385603756]}, "gradients/base.mlp.fc2.0.0.weight": {"_type": "histogram", "values": [1.0, 0.0, 0.0, 0.0, 0.0, 0.0, 1.0, 0.0, 1.0, 0.0, 0.0, 5.0, 5.0, 3.0, 1.0, 4.0, 7.0, 7.0, 13.0, 11.0, 28.0, 23.0, 48.0, 61.0, 79.0, 114.0, 164.0, 258.0, 396.0, 683.0, 839.0, 499.0, 287.0, 177.0, 104.0, 61.0, 47.0, 36.0, 31.0, 20.0, 23.0, 13.0, 10.0, 9.0, 3.0, 5.0, 3.0, 3.0, 2.0, 1.0, 1.0, 0.0, 0.0, 2.0, 0.0, 2.0, 1.0, 1.0, 0.0, 1.0, 1.0, 0.0, 0.0, 1.0], "bins": [-0.0005398879293352365, -0.0005219438462518156, -0.0005039997631683946, -0.0004860556509811431, -0.00046811153879389167, -0.0004501674557104707, -0.0004322233726270497, -0.00041427926043979824, -0.0003963351482525468, -0.0003783910651691258, -0.00036044695298187435, -0.00034250286989845335, -0.0003245587577112019, -0.0003066146746277809, -0.0002886705915443599, -0.0002707264793571085, -0.0002527823962736875, -0.00023483829863835126, -0.00021689420100301504, -0.00019895011791959405, -0.0001810060057323426, -0.0001630619226489216, -0.0001451178250135854, -0.00012717372737824917, -0.00010922962974291295, -9.128553210757673e-05, -7.334143447224051e-05, -5.53973441128619e-05, -3.745324647752568e-05, -1.950914884218946e-05, -1.565058482810855e-06, 1.6379039152525365e-05, 3.4323136787861586e-05, 5.2267234423197806e-05, 7.021133205853403e-05, 8.815542241791263e-05, 0.00010609952005324885, 0.00012404361041262746, 0.00014198770804796368, 0.0001599318056832999, 0.00017787590331863612, 0.00019582000095397234, 0.00021376409858930856, 0.00023170819622464478, 0.00024965227930806577, 0.0002675963914953172, 0.0002855404745787382, 0.0003034845576621592, 0.00032142866984941065, 0.00033937275293283165, 0.0003573168651200831, 0.0003752609482035041, 0.00039320506039075553, 0.0004111491434741765, 0.000429093255661428, 0.00044703733874484897, 0.00046498142182826996, 0.00048292550491169095, 0.0005008695879951119, 0.0005188137292861938, 0.0005367578123696148, 0.0005547018954530358, 0.0005726459785364568, 0.0005905900616198778, 0.0006085342029109597]}, "gradients/base.mlp.fc1.2.weight": {"_type": "histogram", "values": [1.0, 0.0, 0.0, 0.0, 0.0, 0.0, 1.0, 1.0, 0.0, 0.0, 1.0, 0.0, 1.0, 1.0, 0.0, 0.0, 2.0, 2.0, 3.0, 2.0, 1.0, 1.0, 4.0, 2.0, 3.0, 1.0, 1.0, 4.0, 6.0, 2.0, 3.0, 4.0, 2.0, 3.0, 2.0, 2.0, 1.0, 1.0, 1.0, 1.0, 0.0, 1.0, 0.0, 0.0, 2.0, 0.0, 0.0, 0.0, 0.0, 0.0, 0.0, 0.0, 0.0, 0.0, 0.0, 0.0, 0.0, 0.0, 0.0, 0.0, 0.0, 0.0, 0.0, 1.0], "bins": [-0.0002791813458316028, -0.0002688418608158827, -0.00025850237580016255, -0.0002481628907844424, -0.00023782339121680707, -0.00022748390620108694, -0.00021714440663345158, -0.00020680492161773145, -0.00019646543660201132, -0.0001861259515862912, -0.00017578646657057106, -0.0001654469670029357, -0.00015510748198721558, -0.00014476799697149545, -0.0001344284974038601, -0.00012408901238813996, -0.00011374952737241983, -0.0001034100423566997, -9.307055006502196e-05, -8.273105777334422e-05, -7.239157275762409e-05, -6.205208774190396e-05, -5.171259545022622e-05, -4.1373103158548474e-05, -3.1033618142828345e-05, -2.069412948912941e-05, -1.0354640835430473e-05, -1.5152181731536984e-08, 1.0324336471967399e-05, 2.0663825125666335e-05, 3.100331377936527e-05, 4.1342806071043015e-05, 5.168226198293269e-05, 6.202174699865282e-05, 7.236123929033056e-05, 8.27007315820083e-05, 9.304021659772843e-05, 0.00010337970161344856, 0.0001137191939051263, 0.00012405868619680405, 0.00013439817121252418, 0.0001447376562282443, 0.00015507714124396443, 0.0001654166408115998, 0.00017575612582731992, 0.00018609561084304005, 0.0001964351104106754, 0.00020677459542639554, 0.00021711408044211566, 0.0002274535654578358, 0.00023779305047355592, 0.00024813253548927605, 0.00025847204960882664, 0.00026881153462454677, 0.0002791510196402669, 0.000289490504655987, 0.00029982998967170715, 0.0003101694746874273, 0.0003205089597031474, 0.00033084844471886754, 0.00034118792973458767, 0.00035152744385413826, 0.0003618669288698584, 0.0003722064138855785, 0.00038254589890129864]}, "gradients/base.mlp.fc1.2.bias": {"_type": "histogram", "values": [1.0, 0.0, 0.0, 0.0, 0.0, 1.0, 0.0, 0.0, 2.0, 0.0, 0.0, 1.0, 0.0, 0.0, 3.0, 2.0, 3.0, 0.0, 1.0, 2.0, 1.0, 4.0, 3.0, 0.0, 4.0, 4.0, 4.0, 1.0, 0.0, 1.0, 0.0, 1.0, 2.0, 4.0, 6.0, 0.0, 0.0, 1.0, 0.0, 1.0, 2.0, 2.0, 0.0, 3.0, 0.0, 1.0, 1.0, 0.0, 0.0, 0.0, 1.0, 0.0, 0.0, 0.0, 0.0, 0.0, 0.0, 0.0, 0.0, 0.0, 0.0, 0.0, 0.0, 1.0], "bins": [-0.00021725088299717754, -0.00020942323317285627, -0.00020159556879661977, -0.0001937679189722985, -0.00018594026914797723, -0.00017811260477174073, -0.00017028495494741946, -0.00016245729057118297, -0.0001546296407468617, -0.00014680199092254043, -0.00013897432654630393, -0.00013114667672198266, -0.00012331901234574616, -0.00011549136252142489, -0.00010766371269710362, -9.983605559682474e-05, -9.200839849654585e-05, -8.418074139626697e-05, -7.635308429598808e-05, -6.852543447166681e-05, -6.069777737138793e-05, -5.2870120271109045e-05, -4.504246680880897e-05, -3.721481334650889e-05, -2.9387156246230006e-05, -2.1559500964940526e-05, -1.3731845683651045e-05, -5.904190402361564e-06, 1.9234648789279163e-06, 9.7511219792068e-06, 1.7578775441506878e-05, 2.5406428903806955e-05, 3.323407145217061e-05, 4.1061728552449495e-05, 4.888938201474957e-05, 5.671703547704965e-05, 6.454469257732853e-05, 7.237234967760742e-05, 8.019999950192869e-05, 8.802765660220757e-05, 9.585531370248646e-05, 0.00010368297080276534, 0.00011151062790304422, 0.0001193382777273655, 0.00012716592755168676, 0.00013499359192792326, 0.00014282124175224453, 0.00015064890612848103, 0.0001584765559528023, 0.00016630420577712357, 0.00017413187015336007, 0.00018195951997768134, 0.00018978718435391784, 0.0001976148341782391, 0.00020544248400256038, 0.00021327013382688165, 0.00022109779820311815, 0.00022892544802743942, 0.00023675311240367591, 0.0002445807622279972, 0.00025240841205231845, 0.0002602360909804702, 0.00026806374080479145, 0.0002758913906291127, 0.000283719040453434]}, "gradients/base.mlp.fc1.0.bias": {"_type": "histogram", "values": [1.0, 0.0, 0.0, 0.0, 0.0, 0.0, 3.0, 0.0, 1.0, 3.0, 2.0, 3.0, 5.0, 5.0, 5.0, 11.0, 5.0, 3.0, 3.0, 2.0, 6.0, 0.0, 0.0, 1.0, 1.0, 0.0, 0.0, 1.0, 0.0, 1.0, 0.0, 0.0, 1.0, 0.0, 0.0, 0.0, 0.0, 0.0, 0.0, 0.0, 0.0, 0.0, 0.0, 0.0, 0.0, 0.0, 0.0, 0.0, 0.0, 0.0, 0.0, 0.0, 0.0, 0.0, 0.0, 0.0, 0.0, 0.0, 0.0, 0.0, 0.0, 0.0, 0.0, 1.0], "bins": [-0.0002200907765654847, -0.00020562800636980683, -0.00019116522162221372, -0.00017670245142653584, -0.00016223968123085797, -0.0001477769110351801, -0.00013331414083950222, -0.00011885135609190911, -0.00010438858589623123, -8.992581570055336e-05, -7.546303822891787e-05, -6.100026439526118e-05, -4.65374905616045e-05, -3.207472036592662e-05, -1.7611942894291133e-05, -3.149165422655642e-06, 1.1313604773022234e-05, 2.5776378606678918e-05, 4.02391524403356e-05, 5.4701926273992285e-05, 6.916470010764897e-05, 8.362747030332685e-05, 9.809024777496234e-05, 0.00011255302524659783, 0.0001270157954422757, 0.00014147856563795358, 0.00015594135038554668, 0.00017040412058122456, 0.00018486689077690244, 0.00019932966097258031, 0.0002137924311682582, 0.0002282552159158513, 0.00024271797155961394, 0.0002571807417552918, 0.0002716435119509697, 0.00028610628214664757, 0.00030056905234232545, 0.0003150318516418338, 0.00032949462183751166, 0.00034395739203318954, 0.0003584201622288674, 0.0003728829324245453, 0.00038734570262022316, 0.00040180847281590104, 0.0004162712721154094, 0.0004307340132072568, 0.00044519681250676513, 0.000459659582702443, 0.0004741223528981209, 0.0004885851521976292, 0.0005030478932894766, 0.000517510692588985, 0.0005319734336808324, 0.0005464362329803407, 0.0005608989740721881, 0.0005753617733716965, 0.0005898245144635439, 0.0006042873137630522, 0.0006187500548548996, 0.000633212854154408, 0.0006476755952462554, 0.0006621383945457637, 0.0006766011356376112, 0.0006910639349371195, 0.0007055267342366278]}, "gradients/base.mlp.fc1.0.weight": {"_type": "histogram", "values": [2.0, 2.0, 0.0, 1.0, 0.0, 0.0, 4.0, 0.0, 2.0, 1.0, 2.0, 2.0, 2.0, 4.0, 6.0, 13.0, 19.0, 31.0, 96.0, 84.0, 125.0, 402.0, 2500.0, 3344.0, 270.0, 113.0, 87.0, 55.0, 41.0, 19.0, 20.0, 11.0, 8.0, 4.0, 3.0, 5.0, 0.0, 1.0, 3.0, 3.0, 3.0, 2.0, 0.0, 1.0, 0.0, 1.0, 0.0, 1.0, 1.0, 0.0, 0.0, 0.0, 1.0, 0.0, 0.0, 0.0, 0.0, 0.0, 0.0, 0.0, 0.0, 0.0, 0.0, 1.0], "bins": [-0.0013248651521280408, -0.0012673366582021117, -0.0012098082806915045, -0.0011522797867655754, -0.0010947514092549682, -0.001037222915329039, -0.0009796945378184319, -0.0009221660438925028, -0.0008646376081742346, -0.0008071091724559665, -0.0007495807367376983, -0.0006920523010194302, -0.0006345238070935011, -0.0005769954295828938, -0.0005194669356569648, -0.0004619384999386966, -0.00040441006422042847, -0.0003468816285021603, -0.00028935319278389215, -0.00023182472796179354, -0.00017429629224352539, -0.00011676785652525723, -5.923939170315862e-05, -1.710955984890461e-06, 5.5817479733377695e-05, 0.00011334592272760347, 0.00017087436572182924, 0.00022840281599201262, 0.0002859312517102808, 0.00034345968742854893, 0.00040098815225064754, 0.0004585165879689157, 0.000516044907271862, 0.0005735733429901302, 0.0006311017787083983, 0.0006886302726343274, 0.0007461586501449347, 0.0008036871440708637, 0.0008612155797891319, 0.0009187440155074, 0.0009762724512256682, 0.0010338008869439363, 0.0010913293808698654, 0.0011488577583804727, 0.0012063862523064017, 0.001263914629817009, 0.001321443123742938, 0.0013789716176688671, 0.0014364999951794744, 0.0014940284891054034, 0.0015515568666160107, 0.0016090853605419397, 0.001666613738052547, 0.001724142231978476, 0.0017816706094890833, 0.0018391991034150124, 0.0018967275973409414, 0.0019542560912668705, 0.0020117845851927996, 0.002069312846288085, 0.002126841340214014, 0.002184369834139943, 0.002241898328065872, 0.0022994265891611576, 0.0023569550830870867]}, "gradients/base.feature_norm.weight": {"_type": "histogram", "values": [1.0, 0.0, 1.0, 0.0, 0.0, 0.0, 0.0, 1.0, 0.0, 0.0, 2.0, 2.0, 1.0, 0.0, 0.0, 0.0, 1.0, 1.0, 0.0, 1.0, 0.0, 1.0, 14.0, 16.0, 16.0, 18.0, 17.0, 9.0, 4.0, 3.0, 1.0, 0.0, 0.0, 0.0, 0.0, 0.0, 0.0, 0.0, 0.0, 0.0, 0.0, 0.0, 2.0, 1.0, 0.0, 0.0, 0.0, 0.0, 0.0, 0.0, 0.0, 0.0, 0.0, 0.0, 0.0, 0.0, 0.0, 0.0, 0.0, 0.0, 0.0, 0.0, 0.0, 1.0], "bins": [-0.0005583052989095449, -0.000535610830411315, -0.000512916361913085, -0.0004902218352071941, -0.0004675273667089641, -0.00044483289821073413, -0.0004221384006086737, -0.00039944390300661325, -0.0003767494345083833, -0.0003540549660101533, -0.00033136046840809286, -0.0003086659708060324, -0.00028597150230780244, -0.00026327703380957246, -0.00024058253620751202, -0.0002178880531573668, -0.0001951935701072216, -0.0001724990870570764, -0.00014980460400693119, -0.00012711012095678598, -0.00010441563790664077, -8.172115485649556e-05, -5.902667180635035e-05, -3.633218875620514e-05, -1.3637705706059933e-05, 9.056777344085276e-06, 3.1751260394230485e-05, 5.4445743444375694e-05, 7.71402264945209e-05, 9.983470954466611e-05, 0.00012252919259481132, 0.00014522367564495653, 0.00016791821690276265, 0.00019061269995290786, 0.00021330718300305307, 0.00023600166605319828, 0.0002586961491033435, 0.00028139061760157347, 0.0003040851152036339, 0.00032677961280569434, 0.0003494740813039243, 0.0003721685498021543, 0.00039486304740421474, 0.0004175575450062752, 0.00044025201350450516, 0.00046294648200273514, 0.0004856409796047956, 0.000508335477206856, 0.000531029945705086, 0.000553724414203316, 0.0005764189409092069, 0.0005991134094074368, 0.0006218078779056668, 0.0006445023464038968, 0.0006671968149021268, 0.0006898913416080177, 0.0007125858101062477, 0.0007352802786044776, 0.0007579748053103685, 0.0007806692738085985, 0.0008033637423068285, 0.0008260582108050585, 0.0008487526793032885, 0.0008714472060091794, 0.0008941416745074093]}, "gradients/base.feature_norm.bias": {"_type": "histogram", "values": [1.0, 0.0, 0.0, 0.0, 0.0, 0.0, 1.0, 0.0, 1.0, 1.0, 2.0, 0.0, 2.0, 0.0, 0.0, 1.0, 0.0, 0.0, 1.0, 2.0, 2.0, 3.0, 3.0, 4.0, 2.0, 4.0, 3.0, 4.0, 5.0, 0.0, 2.0, 5.0, 5.0, 4.0, 7.0, 2.0, 3.0, 6.0, 2.0, 3.0, 5.0, 5.0, 1.0, 6.0, 4.0, 3.0, 2.0, 2.0, 1.0, 1.0, 0.0, 0.0, 1.0, 0.0, 0.0, 0.0, 0.0, 0.0, 0.0, 1.0, 0.0, 0.0, 0.0, 1.0], "bins": [-0.00041135726496577263, -0.0003991836856584996, -0.00038701010635122657, -0.00037483652704395354, -0.0003626629477366805, -0.0003504893684294075, -0.00033831578912213445, -0.0003261422389186919, -0.0003139686305075884, -0.00030179505120031536, -0.0002896214718930423, -0.0002774478925857693, -0.00026527431327849627, -0.00025310073397122324, -0.00024092716921586543, -0.0002287535899085924, -0.0002165800251532346, -0.00020440644584596157, -0.00019223286653868854, -0.0001800592872314155, -0.00016788570792414248, -0.00015571212861686945, -0.00014353856386151165, -0.00013136498455423862, -0.00011919140524696559, -0.00010701782593969256, -9.484424663241953e-05, -8.267067460110411e-05, -7.049709529383108e-05, -5.832351598655805e-05, -4.6149943955242634e-05, -3.3976364647969604e-05, -2.1802785340696573e-05, -9.629207852412947e-06, 2.5443696358706802e-06, 1.4717945305164903e-05, 2.6891524612437934e-05, 3.9065103919710964e-05, 5.123867595102638e-05, 6.341225525829941e-05, 7.558583456557244e-05, 8.775941387284547e-05, 9.99329931801185e-05, 0.00011210656521143392, 0.00012428013724274933, 0.00013645371655002236, 0.0001486272958572954, 0.00016080087516456842, 0.00017297445447184145, 0.00018514803377911448, 0.00019732161308638752, 0.00020949519239366055, 0.00022166877170093358, 0.0002338423510082066, 0.0002460159012116492, 0.00025818950962275267, 0.00027036305982619524, 0.00028253663913346827, 0.0002947102184407413, 0.00030688379774801433, 0.00031905737705528736, 0.0003312309563625604, 0.0003434045356698334, 0.000355578085873276, 0.0003677516942843795]}, "gradients/graph_1v_out.bias": {"_type": "histogram", "values": [0.0, 0.0, 0.0, 0.0, 0.0, 0.0, 0.0, 0.0, 0.0, 0.0, 0.0, 0.0, 0.0, 0.0, 0.0, 0.0, 0.0, 0.0, 0.0, 0.0, 0.0, 0.0, 0.0, 0.0, 0.0, 0.0, 0.0, 0.0, 0.0, 0.0, 0.0, 0.0, 1.0, 0.0, 0.0, 0.0, 0.0, 0.0, 0.0, 0.0, 0.0, 0.0, 0.0, 0.0, 0.0, 0.0, 0.0, 0.0, 0.0, 0.0, 0.0, 0.0, 0.0, 0.0, 0.0, 0.0, 0.0, 0.0, 0.0, 0.0, 0.0, 0.0, 0.0, 0.0], "bins": [-0.015981195494532585, -0.015981195494532585, -0.015981195494532585, -0.015981195494532585, -0.015981195494532585, -0.015981195494532585, -0.015981195494532585, -0.015981195494532585, -0.015981195494532585, -0.015981195494532585, -0.015981195494532585, -0.015981195494532585, -0.015981195494532585, -0.015981195494532585, -0.015981195494532585, -0.015981195494532585, -0.015981195494532585, -0.015981195494532585, -0.015981195494532585, -0.015981195494532585, -0.015981195494532585, -0.015981195494532585, -0.015981195494532585, -0.015981195494532585, -0.015981195494532585, -0.015981195494532585, -0.015981195494532585, -0.015981195494532585, -0.015981195494532585, -0.015981195494532585, -0.015981195494532585, -0.015981195494532585, -0.015981195494532585, -0.015981195494532585, -0.015981195494532585, -0.015981195494532585, -0.015981195494532585, -0.015981195494532585, -0.015981195494532585, -0.015981195494532585, -0.015981195494532585, -0.015981195494532585, -0.015981195494532585, -0.015981195494532585, -0.015981195494532585, -0.015981195494532585, -0.015981195494532585, -0.015981195494532585, -0.015981195494532585, -0.015981195494532585, -0.015981195494532585, -0.015981195494532585, -0.015981195494532585, -0.015981195494532585, -0.015981195494532585, -0.015981195494532585, -0.015981195494532585, -0.015981195494532585, -0.015981195494532585, -0.015981195494532585, -0.015981195494532585, -0.015981195494532585, -0.015981195494532585, -0.015981195494532585, -0.015981195494532585]}, "gradients/graph_1v_out.weight": {"_type": "histogram", "values": [1.0, 0.0, 0.0, 0.0, 0.0, 0.0, 0.0, 0.0, 0.0, 0.0, 0.0, 0.0, 0.0, 0.0, 0.0, 0.0, 0.0, 0.0, 0.0, 0.0, 0.0, 1.0, 0.0, 1.0, 0.0, 0.0, 0.0, 0.0, 0.0, 0.0, 2.0, 0.0, 1.0, 0.0, 0.0, 0.0, 0.0, 0.0, 0.0, 0.0, 0.0, 1.0, 0.0, 0.0, 0.0, 0.0, 0.0, 0.0, 0.0, 0.0, 1.0, 0.0, 0.0, 2.0, 3.0, 3.0, 1.0, 0.0, 2.0, 3.0, 2.0, 2.0, 4.0, 34.0], "bins": [-0.07109181582927704, -0.06985581666231155, -0.06861981749534607, -0.06738381832838058, -0.0661478191614151, -0.06491181254386902, -0.06367581337690353, -0.06243981420993805, -0.061203815042972565, -0.05996781587600708, -0.058731816709041595, -0.05749581381678581, -0.05625981464982033, -0.05502381548285484, -0.05378781259059906, -0.052551813423633575, -0.05131581425666809, -0.050079815089702606, -0.04884381592273712, -0.04760781303048134, -0.046371813863515854, -0.04513581469655037, -0.043899811804294586, -0.0426638126373291, -0.04142781347036362, -0.04019181430339813, -0.03895581513643265, -0.037719812244176865, -0.03648381307721138, -0.035247813910245895, -0.03401181101799011, -0.03277581185102463, -0.03153981268405914, -0.03030381351709366, -0.029067812487483025, -0.02783181145787239, -0.026595812290906906, -0.02535981312394142, -0.024123812094330788, -0.022887811064720154, -0.02165181003510952, -0.020415809005498886, -0.0191798098385334, -0.017943810671567917, -0.016707809641957283, -0.015471809543669224, -0.014235809445381165, -0.012999809347093105, -0.011763809248805046, -0.010527809150516987, -0.009291809052228928, -0.008055808953940868, -0.006819808855652809, -0.00558380875736475, -0.004347808659076691, -0.0031118085607886314, -0.0018758084625005722, -0.000639808364212513, 0.0005961917340755463, 0.0018321918323636055, 0.0030681919306516647, 0.004304192028939724, 0.005540192127227783, 0.0067761922255158424, 0.008012192323803902]}, "gradients/graph_1base.mlp.fc2.0.2.weight": {"_type": "histogram", "values": [1.0, 0.0, 0.0, 0.0, 0.0, 0.0, 0.0, 1.0, 0.0, 0.0, 0.0, 0.0, 0.0, 0.0, 0.0, 0.0, 0.0, 0.0, 2.0, 1.0, 2.0, 2.0, 2.0, 3.0, 3.0, 5.0, 5.0, 5.0, 10.0, 2.0, 6.0, 4.0, 1.0, 1.0, 1.0, 4.0, 0.0, 0.0, 0.0, 0.0, 0.0, 0.0, 0.0, 0.0, 1.0, 0.0, 1.0, 0.0, 0.0, 0.0, 0.0, 0.0, 0.0, 0.0, 0.0, 0.0, 0.0, 0.0, 0.0, 0.0, 0.0, 0.0, 0.0, 1.0], "bins": [-0.005927588790655136, -0.005719332955777645, -0.005511077586561441, -0.00530282175168395, -0.005094566382467747, -0.004886310547590256, -0.004678054712712765, -0.004469799343496561, -0.004261543974280357, -0.004053288139402866, -0.0038450327701866627, -0.0036367769353091717, -0.003428521566092968, -0.003220265731215477, -0.0030120101291686296, -0.0028037545271217823, -0.0025954986922442913, -0.002387243090197444, -0.0021789874881505966, -0.0019707316532731056, -0.00176247616764158, -0.0015542205655947328, -0.0013459648471325636, -0.0011377092450857162, -0.0009294536430388689, -0.0007211980409920216, -0.0005129423807375133, -0.00030468672048300505, -9.64311184361577e-05, 0.00011182448361068964, 0.0003200802020728588, 0.0005283358041197062, 0.0007365909405052662, 0.0009448465425521135, 0.0011531021445989609, 0.00136135786306113, 0.0015696134651079774, 0.0017778690671548247, 0.001986124785616994, 0.0021943803876638412, 0.0024026359897106886, 0.002610891591757536, 0.0028191471938043833, 0.0030274027958512306, 0.0032356586307287216, 0.0034439139999449253, 0.0036521698348224163, 0.0038604254368692636, 0.004068681038916111, 0.004276936873793602, 0.004485192243009806, 0.004693448077887297, 0.0049017034471035, 0.005109959281980991, 0.005318215116858482, 0.005526470486074686, 0.00573472585529089, 0.005942981690168381, 0.006151237059384584, 0.006359492894262075, 0.006567748263478279, 0.00677600409835577, 0.006984259933233261, 0.007192515302449465, 0.007400771137326956]}, "gradients/graph_1base.mlp.fc2.0.2.bias": {"_type": "histogram", "values": [3.0, 1.0, 1.0, 0.0, 0.0, 0.0, 1.0, 0.0, 0.0, 1.0, 1.0, 1.0, 2.0, 1.0, 0.0, 2.0, 1.0, 1.0, 2.0, 1.0, 0.0, 0.0, 3.0, 1.0, 1.0, 1.0, 2.0, 0.0, 1.0, 1.0, 1.0, 2.0, 3.0, 1.0, 1.0, 2.0, 1.0, 0.0, 0.0, 3.0, 3.0, 0.0, 1.0, 1.0, 1.0, 1.0, 3.0, 0.0, 1.0, 0.0, 2.0, 1.0, 0.0, 0.0, 0.0, 2.0, 0.0, 1.0, 1.0, 0.0, 1.0, 0.0, 0.0, 2.0], "bins": [-0.0030399998649954796, -0.002928501460701227, -0.002817003056406975, -0.0027055046521127224, -0.00259400624781847, -0.0024825078435242176, -0.002371009439229965, -0.002259511034935713, -0.0021480126306414604, -0.002036514226347208, -0.0019250158220529556, -0.0018135174177587032, -0.0017020190134644508, -0.0015905206091701984, -0.0014790223212912679, -0.0013675239169970155, -0.001256025629118085, -0.0011445272248238325, -0.0010330288205295801, -0.0009215304744429886, -0.0008100320701487362, -0.0006985336658544838, -0.0005870353197678924, -0.00047553691547363997, -0.00036403851117938757, -0.0002525401068851352, -0.00014104173169471323, -2.9543356504291296e-05, 8.19550477899611e-05, 0.0001934534520842135, 0.000304951798170805, 0.0004164502024650574, 0.0005279486067593098, 0.0006394470110535622, 0.0007509454153478146, 0.000862443761434406, 0.0009739421657286584, 0.0010854406282305717, 0.0011969389161095023, 0.0013084373204037547, 0.001419935724698007, 0.0015314341289922595, 0.001642932533286512, 0.0017544308211654425, 0.0018659292254596949, 0.0019774276297539473, 0.0020889260340481997, 0.002200424438342452, 0.0023119228426367044, 0.002423421246930957, 0.0025349196512252092, 0.0026464180555194616, 0.002757916459813714, 0.0028694148641079664, 0.002980913035571575, 0.0030924114398658276, 0.00320390984416008, 0.0033154082484543324, 0.0034269066527485847, 0.003538405057042837, 0.0036499034613370895, 0.003761401865631342, 0.0038729002699255943, 0.003984398674219847, 0.004095897078514099]}, "gradients/graph_1base.mlp.fc2.0.0.bias": {"_type": "histogram", "values": [1.0, 0.0, 0.0, 0.0, 0.0, 0.0, 0.0, 0.0, 0.0, 0.0, 0.0, 0.0, 0.0, 0.0, 0.0, 0.0, 1.0, 0.0, 0.0, 2.0, 1.0, 0.0, 0.0, 0.0, 1.0, 0.0, 0.0, 2.0, 1.0, 0.0, 1.0, 3.0, 1.0, 2.0, 0.0, 0.0, 1.0, 2.0, 23.0, 4.0, 2.0, 1.0, 2.0, 1.0, 1.0, 0.0, 3.0, 1.0, 0.0, 0.0, 0.0, 1.0, 0.0, 0.0, 0.0, 2.0, 0.0, 0.0, 1.0, 1.0, 1.0, 0.0, 0.0, 1.0], "bins": [-0.0028469793032854795, -0.0027732972521334887, -0.0026996154338121414, -0.0026259333826601505, -0.0025522515643388033, -0.0024785695131868124, -0.002404887694865465, -0.0023312056437134743, -0.002257523825392127, -0.002183841774240136, -0.002110159955918789, -0.002036477904766798, -0.0019627960864454508, -0.0018891141517087817, -0.0018154322169721127, -0.0017417501658201218, -0.0016680682310834527, -0.0015943862963467836, -0.0015207043616101146, -0.0014470224268734455, -0.0013733404921367764, -0.0012996585574001074, -0.0012259765062481165, -0.0011522946879267693, -0.0010786126367747784, -0.0010049307020381093, -0.0009312487673014402, -0.0008575668325647712, -0.0007838848978281021, -0.000710202963091433, -0.0006365209701471031, -0.000562839035410434, -0.0004891572752967477, -0.0004154753405600786, -0.00034179340582340956, -0.00026811144198291004, -0.00019442950724624097, -0.00012074757250957191, -4.706560866907239e-05, 2.6616326067596674e-05, 0.00010029826080426574, 0.0001739801955409348, 0.00024766213027760386, 0.0003213440941181034, 0.00039502602885477245, 0.0004687079635914415, 0.000542389927431941, 0.0006160718621686101, 0.0006897537969052792, 0.0007634357316419482, 0.0008371176663786173, 0.0009107996011152864, 0.0009844815358519554, 0.0010581634705886245, 0.0011318454053252935, 0.0012055274564772844, 0.0012792092747986317, 0.0013528912095353007, 0.0014265731442719698, 0.0015002550790086389, 0.001573937013745308, 0.001647618948481977, 0.001721300883218646, 0.001794982934370637, 0.001868664869107306]}, "gradients/graph_1base.mlp.fc2.0.0.weight": {"_type": "histogram", "values": [1.0, 0.0, 0.0, 0.0, 0.0, 1.0, 0.0, 0.0, 0.0, 1.0, 0.0, 0.0, 0.0, 0.0, 0.0, 1.0, 0.0, 1.0, 2.0, 1.0, 0.0, 3.0, 1.0, 6.0, 2.0, 3.0, 0.0, 3.0, 2.0, 8.0, 13.0, 14.0, 13.0, 46.0, 123.0, 179.0, 293.0, 2313.0, 503.0, 243.0, 159.0, 51.0, 18.0, 35.0, 20.0, 12.0, 4.0, 1.0, 1.0, 1.0, 2.0, 1.0, 3.0, 1.0, 4.0, 0.0, 2.0, 2.0, 1.0, 1.0, 0.0, 0.0, 0.0, 1.0], "bins": [-0.010916119441390038, -0.01062710490077734, -0.010338089428842068, -0.01004907488822937, -0.009760059416294098, -0.0094710448756814, -0.009182030335068703, -0.00889301486313343, -0.008604000322520733, -0.008314985781908035, -0.008025970309972763, -0.0077369557693600655, -0.0074479407630860806, -0.007158925756812096, -0.006869911216199398, -0.006580896209925413, -0.006291881203651428, -0.006002866197377443, -0.005713851191103458, -0.005424836650490761, -0.005135821644216776, -0.004846806637942791, -0.004557792097330093, -0.0042687770910561085, -0.0039797620847821236, -0.0036907470785081387, -0.0034017323050647974, -0.003112717531621456, -0.0028237025253474712, -0.0025346875190734863, -0.002245672745630145, -0.001956657972186804, -0.0016676434315741062, -0.0013786285417154431, -0.00108961365185678, -0.000800598761998117, -0.0005115838721394539, -0.0002225689822807908, 6.644590757787228e-05, 0.00035546068102121353, 0.0006444756872951984, 0.0009334905771538615, 0.0012225054670125246, 0.0015115203568711877, 0.0018005352467298508, 0.0020895502530038357, 0.002378565026447177, 0.002667579799890518, 0.002956594806164503, 0.003245609812438488, 0.0035346245858818293, 0.0038236393593251705, 0.004112654365599155, 0.00440166937187314, 0.004690684378147125, 0.004979698918759823, 0.005268713925033808, 0.005557728931307793, 0.00584674347192049, 0.006135758478194475, 0.00642477348446846, 0.006713788490742445, 0.00700280349701643, 0.0072918180376291275, 0.007580833043903112]}, "gradients/graph_1base.mlp.fc1.2.weight": {"_type": "histogram", "values": [1.0, 0.0, 0.0, 0.0, 0.0, 1.0, 0.0, 0.0, 0.0, 0.0, 0.0, 0.0, 1.0, 1.0, 1.0, 1.0, 2.0, 1.0, 0.0, 2.0, 3.0, 2.0, 3.0, 3.0, 3.0, 2.0, 5.0, 4.0, 4.0, 3.0, 4.0, 1.0, 1.0, 1.0, 3.0, 1.0, 1.0, 2.0, 1.0, 0.0, 1.0, 0.0, 2.0, 0.0, 0.0, 0.0, 0.0, 0.0, 0.0, 1.0, 0.0, 0.0, 0.0, 0.0, 1.0, 0.0, 0.0, 0.0, 0.0, 0.0, 0.0, 0.0, 0.0, 1.0], "bins": [-0.0018865097081288695, -0.0018179381731897593, -0.001749366638250649, -0.0016807951033115387, -0.0016122236847877502, -0.0015436520334333181, -0.0014750806149095297, -0.0014065090799704194, -0.0013379375450313091, -0.0012693660100921988, -0.0012007944751530886, -0.0011322229402139783, -0.001063651405274868, -0.0009950799867510796, -0.0009265084518119693, -0.000857936916872859, -0.0007893653819337487, -0.0007207938469946384, -0.0006522223120555282, -0.0005836508353240788, -0.0005150793003849685, -0.00044650776544585824, -0.0003779362596105784, -0.0003093647537752986, -0.00024079321883618832, -0.00017222169844899327, -0.00010365017806179821, -3.5078657674603164e-05, 3.3492862712591887e-05, 0.00010206439765170217, 0.000170635903486982, 0.0002392074093222618, 0.00030777882784605026, 0.00037635036278516054, 0.00044492186862044036, 0.0005134933744557202, 0.0005820649093948305, 0.0006506364443339407, 0.0007192079210653901, 0.0007877794560045004, 0.0008563509909436107, 0.000924922525882721, 0.0009934940608218312, 0.0010620655957609415, 0.00113063701428473, 0.001199208665639162, 0.0012677800841629505, 0.0013363516191020608, 0.001404923154041171, 0.0014734946889802814, 0.0015420662239193916, 0.001610637758858502, 0.0016792092937976122, 0.0017477807123214006, 0.001816352247260511, 0.0018849237821996212, 0.0019534952007234097, 0.002022066619247198, 0.00209063827060163, 0.0021592096891254187, 0.0022277813404798508, 0.0022963527590036392, 0.0023649244103580713, 0.0024334958288818598, 0.002502067480236292]}, "gradients/graph_1base.mlp.fc1.2.bias": {"_type": "histogram", "values": [1.0, 1.0, 0.0, 1.0, 0.0, 0.0, 0.0, 1.0, 2.0, 4.0, 0.0, 0.0, 3.0, 2.0, 0.0, 0.0, 0.0, 1.0, 2.0, 3.0, 2.0, 1.0, 0.0, 2.0, 2.0, 2.0, 2.0, 4.0, 2.0, 2.0, 1.0, 3.0, 2.0, 2.0, 3.0, 1.0, 2.0, 1.0, 0.0, 0.0, 1.0, 0.0, 1.0, 1.0, 2.0, 0.0, 0.0, 1.0, 0.0, 0.0, 0.0, 1.0, 0.0, 0.0, 0.0, 1.0, 0.0, 0.0, 0.0, 0.0, 0.0, 0.0, 0.0, 1.0], "bins": [-0.0017705755308270454, -0.0016944954404607415, -0.0016184153500944376, -0.0015423353761434555, -0.0014662552857771516, -0.0013901751954108477, -0.0013140951050445437, -0.0012380150146782398, -0.0011619350407272577, -0.0010858549503609538, -0.0010097748599946499, -0.0009336948278360069, -0.0008576147956773639, -0.00078153470531106, -0.000705454614944756, -0.000629374582786113, -0.0005532944342121482, -0.0004772143729496747, -0.00040113431168720126, -0.00032505422132089734, -0.0002489741600584239, -0.0001728940987959504, -9.681400842964649e-05, -2.0733976271003485e-05, 5.5346114095300436e-05, 0.0001314261753577739, 0.0002075062511721626, 0.0002835863269865513, 0.00035966638824902475, 0.0004357464495114982, 0.0005118265398778021, 0.0005879065720364451, 0.0006639866624027491, 0.000740066752769053, 0.000816146784927696, 0.0008922268752939999, 0.0009683069074526429, 0.0010443869978189468, 0.0011204670881852508, 0.0011965471785515547, 0.0012726271525025368, 0.0013487072428688407, 0.0014247873332351446, 0.0015008673071861267, 0.0015769473975524306, 0.0016530274879187346, 0.0017291075782850385, 0.0018051876686513424, 0.0018812677590176463, 0.0019573478493839502, 0.0020334278233349323, 0.002109508030116558, 0.00218558800406754, 0.0022616679780185223, 0.002337748184800148, 0.00241382815875113, 0.002489908365532756, 0.002565988339483738, 0.0026420685462653637, 0.002718148520216346, 0.0027942287269979715, 0.0028703087009489536, 0.0029463889077305794, 0.0030224688816815615, 0.0030985488556325436]}, "gradients/graph_1base.mlp.fc1.0.bias": {"_type": "histogram", "values": [1.0, 0.0, 0.0, 0.0, 0.0, 0.0, 0.0, 1.0, 2.0, 0.0, 0.0, 1.0, 0.0, 1.0, 0.0, 1.0, 2.0, 0.0, 0.0, 2.0, 3.0, 0.0, 1.0, 1.0, 1.0, 1.0, 1.0, 2.0, 17.0, 4.0, 4.0, 3.0, 1.0, 1.0, 2.0, 2.0, 3.0, 0.0, 2.0, 0.0, 0.0, 1.0, 0.0, 0.0, 1.0, 1.0, 0.0, 0.0, 0.0, 0.0, 0.0, 0.0, 0.0, 0.0, 0.0, 0.0, 0.0, 0.0, 0.0, 0.0, 0.0, 0.0, 0.0, 1.0], "bins": [-0.0007364495540969074, -0.0007105236290954053, -0.0006845977623015642, -0.0006586718373000622, -0.0006327459705062211, -0.000606820045504719, -0.0005808941787108779, -0.0005549682537093759, -0.0005290423287078738, -0.0005031164037063718, -0.00047719053691253066, -0.0004512646119110286, -0.0004253387451171875, -0.00039941282011568546, -0.0003734869242180139, -0.0003475610283203423, -0.0003216351615265012, -0.0002957092656288296, -0.000269783369731158, -0.0002438574592815712, -0.00021793156338389963, -0.00019200566748622805, -0.00016607975703664124, -0.00014015386113896966, -0.00011422796524129808, -8.83020693436265e-05, -6.23761661699973e-05, -3.645026299636811e-05, -1.052436709869653e-05, 1.540152879897505e-05, 4.132743924856186e-05, 6.725333514623344e-05, 9.317928925156593e-05, 0.00011910518514923751, 0.0001450310810469091, 0.0001709569914964959, 0.00019688288739416748, 0.00022280878329183906, 0.00024873469374142587, 0.00027466058963909745, 0.00030058648553676903, 0.0003265123814344406, 0.0003524382773321122, 0.0003783641732297838, 0.0004042900982312858, 0.00043021596502512693, 0.00045614189002662897, 0.00048206778592430055, 0.0005079936818219721, 0.0005339196068234742, 0.0005598454736173153, 0.0005857713986188173, 0.0006116972654126585, 0.0006376231904141605, 0.0006635490572080016, 0.0006894749822095037, 0.0007154009072110057, 0.0007413268322125077, 0.0007672526990063488, 0.0007931786240078509, 0.000819104490801692, 0.000845030415803194, 0.0008709563408046961, 0.0008968822075985372, 0.0009228080743923783]}, "gradients/graph_1base.mlp.fc1.0.weight": {"_type": "histogram", "values": [1.0, 0.0, 0.0, 0.0, 0.0, 1.0, 0.0, 0.0, 0.0, 1.0, 1.0, 0.0, 0.0, 2.0, 0.0, 2.0, 1.0, 0.0, 2.0, 1.0, 4.0, 4.0, 11.0, 8.0, 105.0, 373.0, 1490.0, 38799.0, 10340.0, 435.0, 154.0, 44.0, 38.0, 2.0, 7.0, 3.0, 3.0, 2.0, 1.0, 2.0, 1.0, 0.0, 1.0, 0.0, 0.0, 0.0, 0.0, 0.0, 0.0, 0.0, 0.0, 0.0, 0.0, 0.0, 0.0, 0.0, 0.0, 0.0, 0.0, 0.0, 0.0, 0.0, 0.0, 1.0], "bins": [-0.009687293320894241, -0.009339021518826485, -0.008990750648081303, -0.008642478846013546, -0.00829420704394579, -0.007945936173200607, -0.007597664371132851, -0.007249392569065094, -0.006901121232658625, -0.006552849896252155, -0.006204578094184399, -0.005856306757777929, -0.00550803542137146, -0.005159763619303703, -0.004811492282897234, -0.004463220946490765, -0.004114949144423008, -0.003766677575185895, -0.003418406005948782, -0.0030701346695423126, -0.0027218631003051996, -0.0023735915310680866, -0.0020253201946616173, -0.0016770486254245043, -0.0013287770561873913, -0.0009805054869502783, -0.0006322340341284871, -0.00028396258130669594, 6.430898793041706e-05, 0.00041258055716753006, 0.0007608518935739994, 0.0011091234628111124, 0.0014573959633708, 0.001805667532607913, 0.002153939101845026, 0.0025022104382514954, 0.0028504820074886084, 0.0031987535767257214, 0.0035470249131321907, 0.0038952964823693037, 0.004243568051606417, 0.004591839388012886, 0.004940111190080643, 0.005288382526487112, 0.005636653862893581, 0.005984925664961338, 0.006333197001367807, 0.006681468337774277, 0.007029740139842033, 0.007378011476248503, 0.007726283278316259, 0.008074554614722729, 0.008422826416790485, 0.008771097287535667, 0.009119369089603424, 0.00946764089167118, 0.009815912693738937, 0.010164184495806694, 0.010512455366551876, 0.010860727168619633, 0.01120899897068739, 0.011557269841432571, 0.011905541643500328, 0.012253813445568085, 0.012602084316313267]}, "gradients/graph_1base.feature_norm.weight": {"_type": "histogram", "values": [1.0, 0.0, 0.0, 0.0, 0.0, 0.0, 0.0, 0.0, 0.0, 0.0, 0.0, 0.0, 0.0, 0.0, 0.0, 0.0, 0.0, 0.0, 0.0, 0.0, 0.0, 0.0, 0.0, 0.0, 0.0, 0.0, 0.0, 0.0, 0.0, 0.0, 0.0, 0.0, 0.0, 1.0, 0.0, 0.0, 0.0, 0.0, 0.0, 0.0, 0.0, 0.0, 2.0, 3.0, 6.0, 26.0, 157.0, 490.0, 101.0, 12.0, 4.0, 5.0, 1.0, 0.0, 0.0, 0.0, 0.0, 0.0, 0.0, 0.0, 0.0, 0.0, 0.0, 1.0], "bins": [-0.0033518762793391943, -0.003281093668192625, -0.003210310824215412, -0.003139528213068843, -0.0030687456019222736, -0.0029979629907757044, -0.002927180379629135, -0.0028563975356519222, -0.002785614924505353, -0.0027148323133587837, -0.002644049469381571, -0.0025732668582350016, -0.0025024842470884323, -0.002431701635941863, -0.002360919024795294, -0.002290136180818081, -0.0022193535696715117, -0.0021485709585249424, -0.0020777881145477295, -0.0020070055034011602, -0.001936222892254591, -0.0018654402811080217, -0.0017946575535461307, -0.0017238748259842396, -0.0016530922148376703, -0.001582309603691101, -0.00151152687612921, -0.001440744148567319, -0.0013699615374207497, -0.0012991789262741804, -0.0012283961987122893, -0.0011576134711503983, -0.001086830860003829, -0.0010160482488572598, -0.0009452655212953687, -0.0008744828519411385, -0.0008037001825869083, -0.0007329175132326782, -0.000662134843878448, -0.0005913521745242178, -0.0005205695051699877, -0.0004497868358157575, -0.00037900416646152735, -0.0003082214971072972, -0.00023743882775306702, -0.00016665615839883685, -9.587348904460669e-05, -2.509081969037652e-05, 4.5691849663853645e-05, 0.00011647451901808381, 0.00018725718837231398, 0.00025803985772654414, 0.0003288225270807743, 0.00039960519643500447, 0.00047038786578923464, 0.0005411705351434648, 0.000611953204497695, 0.0006827358738519251, 0.0007535185432061553, 0.0008243012125603855, 0.0008950838819146156, 0.0009658665512688458, 0.001036649220623076, 0.001107431948184967, 0.0011782145593315363]}, "gradients/graph_1base.feature_norm.bias": {"_type": "histogram", "values": [1.0, 0.0, 1.0, 1.0, 3.0, 4.0, 5.0, 3.0, 3.0, 3.0, 5.0, 3.0, 9.0, 11.0, 8.0, 6.0, 14.0, 16.0, 20.0, 22.0, 17.0, 30.0, 41.0, 38.0, 25.0, 30.0, 27.0, 18.0, 31.0, 31.0, 37.0, 30.0, 30.0, 29.0, 35.0, 33.0, 24.0, 22.0, 15.0, 24.0, 16.0, 15.0, 13.0, 6.0, 13.0, 5.0, 5.0, 6.0, 8.0, 7.0, 1.0, 4.0, 1.0, 1.0, 1.0, 0.0, 1.0, 0.0, 0.0, 1.0, 0.0, 0.0, 0.0, 1.0], "bins": [-0.0003134261933155358, -0.00030290859285742044, -0.00029239096329547465, -0.0002818733628373593, -0.00027135576237924397, -0.0002608381328172982, -0.00025032053235918283, -0.0002398029319010675, -0.00022928531689103693, -0.00021876770188100636, -0.00020825010142289102, -0.00019773248641286045, -0.00018721487140282989, -0.00017669727094471455, -0.00016617965593468398, -0.0001556620409246534, -0.00014514444046653807, -0.0001346268254565075, -0.00012410922499839216, -0.0001135916099883616, -0.00010307400225428864, -9.255639452021569e-05, -8.203877951018512e-05, -7.152117177611217e-05, -6.1003564042039216e-05, -5.048595630796626e-05, -3.99683449359145e-05, -2.945073356386274e-05, -1.8933125829789788e-05, -8.415518095716834e-06, 2.1020969143137336e-06, 1.2619704648386687e-05, 2.3137341486290097e-05, 3.365494922036305e-05, 4.417256059241481e-05, 5.469017196446657e-05, 6.520777969853953e-05, 7.572538743261248e-05, 8.624300244264305e-05, 9.6760610176716e-05, 0.00010727821791078895, 0.0001177958256448619, 0.00012831343337893486, 0.00013883104838896543, 0.000149348663398996, 0.00015986626385711133, 0.0001703838788671419, 0.00018090149387717247, 0.0001914190943352878, 0.00020193670934531838, 0.00021245430980343372, 0.00022297192481346428, 0.00023348952527157962, 0.0002440071402816102, 0.00025452475529164076, 0.0002650423557497561, 0.00027555995620787144, 0.0002860775566659868, 0.00029659518622793257, 0.0003071127866860479, 0.00031763038714416325, 0.00032814801670610905, 0.0003386656171642244, 0.0003491832176223397, 0.0003597008471842855]}, "_wandb": {"runtime": 12907}}