{"value_loss": 0.11937628239393235, "_timestamp": 1665382130.2732928, "_runtime": 12640.621570825577, "policy_loss": -0.0007803227372690458, "dist_entropy": 1.0213657021522522, "actor_grad_norm": 0.04283834248781204, "critic_grad_norm": 0.1035446748137474, "ratio": 0.9999328851699829, "sm3_ratio_mean": 0.26810232426303204, "drop_ratio_mean": 0.004458893556147814, "drop_ratio_std": 0.05507432296872139, "drop_ratio_min": 0.0, "drop_ratio_max": 1.0, "ue_drop_ratio_mean": 0.006435936446803154, "ue_drop_ratio_std": 0.06780989452809753, "ue_drop_ratio_min": 0.0, "ue_drop_ratio_max": 0.9999990000010001, "delay_ratio_mean": 0.12511909008026123, "delay_ratio_std": 0.16199150681495667, "delay_ratio_min": 0.0, "delay_ratio_max": 1.0, "qos_reward_mean": -0.0008386956711238585, "qos_reward_std": 0.036320855012144056, "qos_reward_min": -0.9999990000010001, "qos_reward_max": 0.003933329396526999, "pc_kw_mean": 0.21149459972442147, "pc_kw_std": 0.04587347079196067, "pc_kw_min": 0.10123897552490235, "pc_kw_max": 0.6497246704101562, "reward_mean": -0.21568807808004073, "reward_std": 0.18905353097213878, "reward_min": -5.337258000493282, "reward_max": -0.10123897552490235, "_step": 2520000, "gradients/act.action_outs.2.linear.bias": {"_type": "histogram", "values": [1.0, 0.0, 0.0, 0.0, 0.0, 0.0, 0.0, 0.0, 0.0, 0.0, 0.0, 0.0, 0.0, 0.0, 0.0, 0.0, 0.0, 0.0, 0.0, 0.0, 0.0, 0.0, 0.0, 0.0, 0.0, 0.0, 1.0, 0.0, 0.0, 0.0, 0.0, 0.0, 0.0, 0.0, 0.0, 0.0, 0.0, 0.0, 0.0, 0.0, 0.0, 0.0, 0.0, 0.0, 0.0, 0.0, 0.0, 0.0, 0.0, 0.0, 0.0, 0.0, 0.0, 0.0, 0.0, 0.0, 0.0, 0.0, 0.0, 0.0, 0.0, 0.0, 0.0, 1.0], "bins": [-0.004018563311547041, -0.0038857420440763235, -0.0037529210094362497, -0.0036200997419655323, -0.0034872787073254585, -0.003354457439854741, -0.0032216361723840237, -0.00308881513774395, -0.0029559938702732325, -0.002823172602802515, -0.0026903515681624413, -0.002557530300691724, -0.0024247090332210064, -0.0022918879985809326, -0.002159066731110215, -0.0020262454636394978, -0.001893424428999424, -0.0017606032779440284, -0.0016277821268886328, -0.0014949608594179153, -0.0013621397083625197, -0.0012293185573071241, -0.0010964972898364067, -0.0009636761387810111, -0.0008308549877256155, -0.0006980338366702199, -0.0005652126274071634, -0.0004323914472479373, -0.00029957026708871126, -0.00016674911603331566, -3.392790677025914e-05, 9.889330249279737e-05, 0.00023171491920948029, 0.00036453609936870635, 0.0004973572795279324, 0.0006301784887909889, 0.0007629996398463845, 0.0008958207909017801, 0.0010286420583724976, 0.0011614632094278932, 0.0012942843604832888, 0.0014271055115386844, 0.00155992666259408, 0.0016927479300647974, 0.001825569081120193, 0.0019583902321755886, 0.002091211499646306, 0.0022240327671170235, 0.0023568538017570972, 0.0024896750692278147, 0.0026224961038678885, 0.002755317371338606, 0.0028881384059786797, 0.003020959673449397, 0.0031537809409201145, 0.0032866019755601883, 0.0034194232430309057, 0.003552244510501623, 0.003685065545141697, 0.0038178868126124144, 0.003950708080083132, 0.004083529114723206, 0.004216350149363279, 0.00434917164966464, 0.004481992684304714]}, "gradients/act.action_outs.2.linear.weight": {"_type": "histogram", "values": [2.0, 0.0, 0.0, 0.0, 1.0, 0.0, 0.0, 0.0, 0.0, 0.0, 2.0, 0.0, 1.0, 1.0, 0.0, 1.0, 1.0, 12.0, 2.0, 4.0, 4.0, 10.0, 2.0, 9.0, 5.0, 8.0, 6.0, 8.0, 7.0, 10.0, 19.0, 13.0, 9.0, 7.0, 5.0, 7.0, 3.0, 6.0, 4.0, 11.0, 0.0, 1.0, 2.0, 1.0, 1.0, 0.0, 0.0, 0.0, 0.0, 0.0, 2.0, 2.0, 1.0, 0.0, 0.0, 1.0, 0.0, 0.0, 0.0, 0.0, 0.0, 0.0, 0.0, 1.0], "bins": [-0.009150429628789425, -0.008837469853460789, -0.008524510078132153, -0.008211550302803516, -0.00789859052747488, -0.007585630752146244, -0.007272670976817608, -0.006959711201488972, -0.0066467514261603355, -0.006333791650831699, -0.006020831875503063, -0.005707872100174427, -0.005394912324845791, -0.005081952549517155, -0.0047689927741885185, -0.004456032998859882, -0.004143073223531246, -0.00383011344820261, -0.003517153672873974, -0.0032041938975453377, -0.0028912341222167015, -0.0025782743468880653, -0.002265314571559429, -0.001952354796230793, -0.0016393950209021568, -0.0013264352455735207, -0.0010134754702448845, -0.0007005156949162483, -0.00038755591958761215, -7.459614425897598e-05, 0.0002383636310696602, 0.0005513234063982964, 0.0008642822504043579, 0.001177242025732994, 0.0014902018010616302, 0.0018031615763902664, 0.0021161213517189026, 0.0024290811270475388, 0.002742040902376175, 0.003055000677704811, 0.0033679604530334473, 0.0036809202283620834, 0.00399388000369072, 0.004306839779019356, 0.004619799554347992, 0.004932759329676628, 0.005245719105005264, 0.0055586788803339005, 0.005871638655662537, 0.006184598430991173, 0.006497558206319809, 0.006810517981648445, 0.007123477756977081, 0.0074364375323057175, 0.007749397307634354, 0.00806235708296299, 0.008375316858291626, 0.008688276633620262, 0.009001236408948898, 0.009314196184277534, 0.00962715595960617, 0.009940115734934807, 0.010253075510263443, 0.01056603528559208, 0.010878995060920715]}, "gradients/act.action_outs.1.linear.bias": {"_type": "histogram", "values": [1.0, 0.0, 0.0, 0.0, 0.0, 0.0, 0.0, 0.0, 0.0, 0.0, 0.0, 0.0, 0.0, 0.0, 0.0, 0.0, 0.0, 0.0, 0.0, 0.0, 0.0, 0.0, 0.0, 0.0, 0.0, 0.0, 0.0, 0.0, 0.0, 0.0, 0.0, 0.0, 0.0, 0.0, 0.0, 0.0, 0.0, 0.0, 0.0, 0.0, 0.0, 0.0, 0.0, 0.0, 0.0, 0.0, 0.0, 0.0, 0.0, 0.0, 0.0, 1.0, 0.0, 0.0, 0.0, 0.0, 0.0, 0.0, 0.0, 0.0, 0.0, 0.0, 0.0, 2.0], "bins": [-0.002534545259550214, -0.0024780272506177425, -0.0024215090088546276, -0.0023649909999221563, -0.0023084727581590414, -0.00225195474922657, -0.002195436507463455, -0.002138918498530984, -0.002082400256767869, -0.0020258822478353977, -0.001969364006072283, -0.0019128458807244897, -0.0018563277553766966, -0.0017998097464442253, -0.0017432915046811104, -0.001686773495748639, -0.0016302554868161678, -0.0015737373614683747, -0.0015172192361205816, -0.0014607011107727885, -0.0014041829854249954, -0.0013476649764925241, -0.0012911467347294092, -0.001234628725796938, -0.001178110484033823, -0.00112159235868603, -0.0010650742333382368, -0.0010085561079904437, -0.0009520380408503115, -0.0008955199155025184, -0.0008390017901547253, -0.0007824837230145931, -0.0007259655976668, -0.0006694474723190069, -0.0006129293469712138, -0.0005564112216234207, -0.0004998931544832885, -0.0004433750291354954, -0.0003868569037877023, -0.0003303388075437397, -0.0002738206821959466, -0.0002173025714000687, -0.00016078446060419083, -0.00010426633525639772, -4.774822446051985e-05, 8.769886335358024e-06, 6.528801168315113e-05, 0.00012180610792711377, 0.00017832423327490687, 0.00023484234407078475, 0.0002913604548666626, 0.0003478785802144557, 0.00040439667645841837, 0.00046091480180621147, 0.0005174329271540046, 0.0005739510525017977, 0.0006304691778495908, 0.0006869873031973839, 0.000743505428545177, 0.0008000235538929701, 0.0008565416210331023, 0.0009130597463808954, 0.0009695778717286885, 0.0010260959388688207, 0.0010826140642166138]}, "gradients/act.action_outs.1.linear.weight": {"_type": "histogram", "values": [1.0, 0.0, 0.0, 0.0, 0.0, 0.0, 0.0, 2.0, 1.0, 0.0, 0.0, 0.0, 0.0, 0.0, 0.0, 0.0, 2.0, 0.0, 1.0, 1.0, 0.0, 3.0, 1.0, 5.0, 1.0, 2.0, 7.0, 6.0, 34.0, 16.0, 16.0, 30.0, 9.0, 11.0, 16.0, 15.0, 8.0, 11.0, 7.0, 8.0, 6.0, 8.0, 4.0, 5.0, 11.0, 3.0, 1.0, 0.0, 2.0, 0.0, 1.0, 0.0, 0.0, 0.0, 0.0, 0.0, 0.0, 0.0, 0.0, 0.0, 0.0, 0.0, 0.0, 1.0], "bins": [-0.005854067858308554, -0.005677307490259409, -0.005500546656548977, -0.005323786288499832, -0.005147025920450687, -0.004970265552401543, -0.004793505184352398, -0.004616744350641966, -0.004439983982592821, -0.004263223614543676, -0.004086462780833244, -0.0039097024127841, -0.003732942044734955, -0.00355618167668581, -0.0033794210758060217, -0.0032026604749262333, -0.0030259001068770885, -0.002849139738827944, -0.0026723791379481554, -0.002495618537068367, -0.0023188581690192223, -0.0021420978009700775, -0.001965337200090289, -0.0017885767156258225, -0.001611816231161356, -0.0014350557466968894, -0.0012582952622324228, -0.0010815347777679563, -0.0009047742933034897, -0.0007280138088390231, -0.0005512533243745565, -0.00037449283991008997, -0.0001977318897843361, -2.0971405319869518e-05, 0.00015578907914459705, 0.0003325495636090636, 0.0005093100480735302, 0.0006860705325379968, 0.0008628310170024633, 0.00103959150146693, 0.0012163519859313965, 0.001393112470395863, 0.0015698729548603296, 0.0017466334393247962, 0.0019233939237892628, 0.0021001542918384075, 0.002276914892718196, 0.0024536754935979843, 0.002630435861647129, 0.002807196229696274, 0.002983956830576062, 0.0031607174314558506, 0.0033374777995049953, 0.00351423816755414, 0.0036909987684339285, 0.003867759369313717, 0.004044519737362862, 0.004221280105412006, 0.004398040473461151, 0.004574801307171583, 0.004751561675220728, 0.004928322043269873, 0.005105082876980305, 0.0052818432450294495, 0.005458603613078594]}, "gradients/act.action_outs.0.linear.bias": {"_type": "histogram", "values": [1.0, 0.0, 0.0, 0.0, 0.0, 0.0, 0.0, 0.0, 0.0, 0.0, 0.0, 1.0, 0.0, 0.0, 0.0, 0.0, 0.0, 0.0, 0.0, 0.0, 0.0, 0.0, 0.0, 0.0, 0.0, 0.0, 0.0, 0.0, 0.0, 0.0, 0.0, 0.0, 0.0, 0.0, 0.0, 0.0, 0.0, 0.0, 0.0, 0.0, 0.0, 0.0, 0.0, 0.0, 0.0, 0.0, 0.0, 0.0, 0.0, 0.0, 0.0, 0.0, 0.0, 0.0, 0.0, 0.0, 0.0, 0.0, 0.0, 0.0, 0.0, 0.0, 0.0, 1.0], "bins": [-5.601809243671596e-05, -5.37900414201431e-05, -5.1561990403570235e-05, -4.933394302497618e-05, -4.7105892008403316e-05, -4.487784099183045e-05, -4.26497936132364e-05, -4.0421742596663535e-05, -3.819369158009067e-05, -3.596564056351781e-05, -3.3737589546944946e-05, -3.150954216835089e-05, -2.9281491151778027e-05, -2.7053440135205165e-05, -2.4825390937621705e-05, -2.2597341740038246e-05, -2.0369290723465383e-05, -1.814123970689252e-05, -1.591319050930906e-05, -1.36851404022309e-05, -1.1457090295152739e-05, -9.229040188074578e-06, -7.0009900809964165e-06, -4.772940883412957e-06, -2.5448898668400943e-06, -3.1683975976193324e-07, 1.911210347316228e-06, 4.139260454394389e-06, 6.36731056147255e-06, 8.595360668550711e-06, 1.0823410775628872e-05, 1.3051459973212332e-05, 1.5279510989785194e-05, 1.7507562006358057e-05, 1.9735611203941517e-05, 2.1963660401524976e-05, 2.419171141809784e-05, 2.64197624346707e-05, 2.864781163225416e-05, 3.087586082983762e-05, 3.310391184641048e-05, 3.5331962862983346e-05, 3.756001387955621e-05, 3.9788061258150265e-05, 4.201611227472313e-05, 4.424416329129599e-05, 4.6472210669890046e-05, 4.870026168646291e-05, 5.092831270303577e-05, 5.3156363719608635e-05, 5.53844147361815e-05, 5.761246211477555e-05, 5.9840513131348416e-05, 6.206856050994247e-05, 6.429661152651533e-05, 6.65246625430882e-05, 6.875271355966106e-05, 7.098076457623392e-05, 7.320881559280679e-05, 7.543686660937965e-05, 7.76649103499949e-05, 7.989296136656776e-05, 8.212101238314062e-05, 8.434906339971349e-05, 8.657711441628635e-05]}, "gradients/act.action_outs.0.linear.weight": {"_type": "histogram", "values": [1.0, 1.0, 1.0, 0.0, 0.0, 0.0, 0.0, 0.0, 1.0, 1.0, 0.0, 1.0, 1.0, 1.0, 1.0, 2.0, 0.0, 4.0, 5.0, 5.0, 4.0, 3.0, 6.0, 6.0, 9.0, 16.0, 11.0, 8.0, 12.0, 11.0, 7.0, 14.0, 9.0, 9.0, 6.0, 8.0, 3.0, 6.0, 1.0, 4.0, 2.0, 2.0, 0.0, 1.0, 3.0, 2.0, 0.0, 2.0, 0.0, 0.0, 0.0, 0.0, 0.0, 0.0, 0.0, 0.0, 1.0, 0.0, 0.0, 0.0, 0.0, 0.0, 0.0, 1.0], "bins": [-0.001964039169251919, -0.0018956918502226472, -0.0018273445311933756, -0.001758997212164104, -0.0016906498931348324, -0.0016223026905208826, -0.001553955371491611, -0.0014856080524623394, -0.0014172607334330678, -0.0013489134144037962, -0.0012805660953745246, -0.001212218776345253, -0.0011438715737313032, -0.0010755241382867098, -0.00100717693567276, -0.0009388296166434884, -0.0008704822976142168, -0.0008021349785849452, -0.0007337876595556736, -0.0006654403987340629, -0.0005970930797047913, -0.0005287457606755197, -0.00046039847075007856, -0.0003920511808246374, -0.0003237038617953658, -0.0002553565427660942, -0.00018700925284065306, -0.00011866194836329669, -5.031464388594031e-05, 1.803267514333129e-05, 8.637996506877244e-05, 0.00015472725499421358, 0.00022307457402348518, 0.0002914218930527568, 0.00035976918297819793, 0.0004281164729036391, 0.0004964637919329107, 0.0005648111109621823, 0.000633158371783793, 0.0007015056908130646, 0.0007698530098423362, 0.0008382003288716078, 0.0009065476479008794, 0.0009748949087224901, 0.0010432421695441008, 0.0011115896049886942, 0.001179936807602644, 0.0012482841266319156, 0.0013166314456611872, 0.0013849787646904588, 0.0014533260837197304, 0.001521673402749002, 0.0015900207217782736, 0.0016583679243922234, 0.001726715243421495, 0.0017950625624507666, 0.0018634098814800382, 0.0019317572005093098, 0.0020001044031232595, 0.002068451838567853, 0.0021367990411818027, 0.002205146476626396, 0.002273493679240346, 0.0023418408818542957, 0.002410188317298889]}, "gradients/base.mlp.fc2.0.2.weight": {"_type": "histogram", "values": [1.0, 0.0, 0.0, 0.0, 0.0, 0.0, 0.0, 1.0, 0.0, 0.0, 0.0, 0.0, 1.0, 3.0, 3.0, 3.0, 8.0, 7.0, 8.0, 7.0, 4.0, 4.0, 2.0, 5.0, 0.0, 0.0, 1.0, 0.0, 0.0, 2.0, 0.0, 0.0, 1.0, 0.0, 1.0, 0.0, 0.0, 0.0, 0.0, 0.0, 0.0, 0.0, 0.0, 0.0, 0.0, 0.0, 0.0, 0.0, 0.0, 0.0, 0.0, 0.0, 0.0, 1.0, 0.0, 0.0, 0.0, 0.0, 0.0, 0.0, 0.0, 0.0, 0.0, 1.0], "bins": [-0.000575724639929831, -0.0005501963314600289, -0.0005246680229902267, -0.0004991396563127637, -0.00047361134784296155, -0.0004480830393731594, -0.00042255473090335727, -0.0003970264224335551, -0.00037149808485992253, -0.0003459697763901204, -0.0003204414388164878, -0.00029491313034668565, -0.0002693848218768835, -0.0002438564843032509, -0.00021832817583344877, -0.0001927998528117314, -0.00016727152979001403, -0.00014174320676829666, -0.0001162148910225369, -9.068657527677715e-05, -6.515825225505978e-05, -3.962992923334241e-05, -1.4101620763540268e-05, 1.1426702258177102e-05, 3.695502527989447e-05, 6.248334830161184e-05, 8.80116640473716e-05, 0.00011353997979313135, 0.00013906830281484872, 0.0001645966258365661, 0.00019012493430636823, 0.0002156532573280856, 0.00024118158034980297, 0.0002667098888196051, 0.0002922382263932377, 0.00031776653486303985, 0.00034329487243667245, 0.0003688231809064746, 0.00039435148937627673, 0.00041987979784607887, 0.00044540813541971147, 0.0004709364438895136, 0.0004964647814631462, 0.0005219930899329484, 0.0005475213984027505, 0.0005730497650802135, 0.0005985780153423548, 0.0006241063820198178, 0.00064963469048962, 0.0006751629989594221, 0.0007006913074292243, 0.0007262196158990264, 0.0007517479825764894, 0.0007772762910462916, 0.0008028045995160937, 0.0008283329079858959, 0.000853861216455698, 0.0008793895249255002, 0.0009049178333953023, 0.0009304462000727654, 0.0009559745085425675, 0.0009815028170123696, 0.0010070311836898327, 0.001032559433951974, 0.001058087800629437]}, "gradients/base.mlp.fc2.0.2.bias": {"_type": "histogram", "values": [1.0, 0.0, 0.0, 0.0, 0.0, 0.0, 0.0, 0.0, 0.0, 0.0, 0.0, 0.0, 0.0, 0.0, 0.0, 0.0, 0.0, 1.0, 0.0, 0.0, 0.0, 1.0, 0.0, 0.0, 1.0, 2.0, 0.0, 0.0, 3.0, 2.0, 1.0, 1.0, 1.0, 2.0, 1.0, 4.0, 1.0, 3.0, 3.0, 1.0, 0.0, 2.0, 0.0, 5.0, 6.0, 4.0, 3.0, 4.0, 2.0, 1.0, 1.0, 1.0, 0.0, 0.0, 0.0, 1.0, 0.0, 1.0, 1.0, 1.0, 1.0, 0.0, 0.0, 1.0], "bins": [-0.0010243505239486694, -0.000997374881990254, -0.0009703992400318384, -0.0009434235980734229, -0.0009164479561150074, -0.0008894723141565919, -0.0008624966721981764, -0.0008355210302397609, -0.0008085453882813454, -0.0007815697463229299, -0.0007545941043645144, -0.0007276184624060988, -0.0007006428204476833, -0.0006736671784892678, -0.0006466915365308523, -0.0006197158945724368, -0.0005927401944063604, -0.0005657645524479449, -0.0005387889104895294, -0.0005118132685311139, -0.00048483762657269835, -0.00045786198461428285, -0.0004308863135520369, -0.0004039106715936214, -0.00037693502963520586, -0.00034995938767679036, -0.00032298374571837485, -0.0002960080746561289, -0.0002690324326977134, -0.0002420568052912131, -0.00021508114878088236, -0.00018810550682246685, -0.00016112992307171226, -0.00013415428111329675, -0.00010717863187892362, -8.02029826445505e-05, -5.3227340686134994e-05, -2.6251698727719486e-05, 7.239577826112509e-07, 2.769959974102676e-05, 5.467524169944227e-05, 8.165088365785778e-05, 0.0001086265328922309, 0.00013560218212660402, 0.00016257782408501953, 0.00018955346604343504, 0.00021652912255376577, 0.00024350476451218128, 0.0002704804064705968, 0.0002974560484290123, 0.0003244316903874278, 0.0003514073323458433, 0.0003783829743042588, 0.00040535861626267433, 0.0004323342873249203, 0.0004593099292833358, 0.0004862855712417513, 0.0005132612423039973, 0.0005402368842624128, 0.0005672125262208283, 0.0005941881681792438, 0.0006211638101376593, 0.0006481394520960748, 0.0006751150940544903, 0.0007020907360129058]}, "gradients/base.mlp.fc2.0.0.bias": {"_type": "histogram", "values": [1.0, 0.0, 0.0, 0.0, 0.0, 0.0, 0.0, 0.0, 0.0, 0.0, 0.0, 1.0, 0.0, 0.0, 0.0, 0.0, 0.0, 0.0, 0.0, 0.0, 0.0, 0.0, 1.0, 0.0, 0.0, 1.0, 0.0, 6.0, 1.0, 1.0, 1.0, 4.0, 0.0, 4.0, 4.0, 2.0, 12.0, 6.0, 4.0, 2.0, 0.0, 0.0, 4.0, 1.0, 0.0, 1.0, 1.0, 1.0, 0.0, 1.0, 0.0, 1.0, 0.0, 1.0, 0.0, 1.0, 0.0, 0.0, 0.0, 0.0, 0.0, 0.0, 0.0, 1.0], "bins": [-0.000888801587279886, -0.0008645704365335405, -0.0008403393439948559, -0.0008161081932485104, -0.0007918770425021648, -0.0007676459499634802, -0.0007434147992171347, -0.0007191837066784501, -0.0006949525559321046, -0.0006707214051857591, -0.0006464903126470745, -0.0006222591619007289, -0.0005980280111543834, -0.0005737969186156988, -0.0005495657678693533, -0.0005253346171230078, -0.0005011034663766623, -0.0004768723447341472, -0.00045264119398780167, -0.0004284100723452866, -0.00040417895070277154, -0.0003799478290602565, -0.00035571667831391096, -0.0003314855566713959, -0.00030725443502888083, -0.00028302331338636577, -0.00025879216264002025, -0.0002345610409975052, -0.00021032991935499012, -0.00018609878316055983, -0.00016186764696612954, -0.00013763652532361448, -0.00011340540368109941, -8.917427476262674e-05, -6.494314584415406e-05, -4.071200964972377e-05, -1.648088073125109e-05, 7.750248187221587e-06, 3.198138438165188e-05, 5.621250602416694e-05, 8.044364221859723e-05, 0.00010467477113706991, 0.0001289059000555426, 0.00015313703624997288, 0.00017736817244440317, 0.00020159929408691823, 0.00022583043028134853, 0.0002500615664757788, 0.0002742926881182939, 0.00029852380976080894, 0.00032275496050715446, 0.00034698608214966953, 0.0003712172037921846, 0.0003954483545385301, 0.0004196794761810452, 0.00044391059782356024, 0.00046814174856990576, 0.0004923728993162513, 0.0005166039918549359, 0.0005408351426012814, 0.0005650662933476269, 0.0005892973858863115, 0.000613528536632657, 0.0006377596873790026, 0.0006619907799176872]}, "gradients/base.mlp.fc2.0.0.weight": {"_type": "histogram", "values": [1.0, 0.0, 0.0, 0.0, 1.0, 0.0, 0.0, 0.0, 0.0, 0.0, 0.0, 1.0, 0.0, 2.0, 1.0, 1.0, 1.0, 0.0, 2.0, 3.0, 0.0, 1.0, 1.0, 2.0, 2.0, 2.0, 3.0, 8.0, 16.0, 12.0, 17.0, 35.0, 48.0, 62.0, 92.0, 123.0, 252.0, 276.0, 950.0, 1061.0, 460.0, 226.0, 187.0, 46.0, 42.0, 28.0, 25.0, 18.0, 17.0, 21.0, 10.0, 3.0, 15.0, 13.0, 1.0, 2.0, 0.0, 0.0, 1.0, 0.0, 2.0, 0.0, 1.0, 2.0], "bins": [-0.001999255269765854, -0.001948053133673966, -0.001896850997582078, -0.00184564886149019, -0.001794446725398302, -0.0017432445893064141, -0.0016920424532145262, -0.0016408402007073164, -0.0015896381810307503, -0.0015384360449388623, -0.0014872339088469744, -0.0014360317727550864, -0.0013848296366631985, -0.0013336275005713105, -0.0012824253644794226, -0.0012312231119722128, -0.0011800209758803248, -0.0011288188397884369, -0.001077616703696549, -0.001026414567604661, -0.000975212431512773, -0.0009240102954208851, -0.0008728081011213362, -0.0008216059650294483, -0.0007704038289375603, -0.0007192016928456724, -0.0006679995567537844, -0.0006167973624542356, -0.0005655952263623476, -0.0005143930902704597, -0.0004631909541785717, -0.00041198881808668375, -0.0003607867984101176, -0.0003095846623182297, -0.0002583825262263417, -0.00020718036103062332, -0.00015597822493873537, -0.00010477608884684741, -5.357392365112901e-05, -2.3717875592410564e-06, 4.8830348532646894e-05, 0.00010003249190049246, 0.00015123463526833802, 0.0002024367859121412, 0.00025363892200402915, 0.0003048410580959171, 0.0003560432232916355, 0.00040724535938352346, 0.0004584474954754114, 0.0005096496315672994, 0.0005608517676591873, 0.0006120539037510753, 0.0006632560398429632, 0.0007144581759348512, 0.0007656603702344, 0.000816862506326288, 0.0008680646424181759, 0.0009192667785100639, 0.0009704689146019518, 0.0010216711089015007, 0.0010728732449933887, 0.0011240753810852766, 0.0011752775171771646, 0.0012264796532690525, 0.0012776817893609405]}, "gradients/base.mlp.fc1.2.weight": {"_type": "histogram", "values": [1.0, 0.0, 0.0, 0.0, 0.0, 1.0, 1.0, 0.0, 1.0, 1.0, 2.0, 0.0, 0.0, 1.0, 3.0, 1.0, 4.0, 3.0, 1.0, 0.0, 4.0, 1.0, 2.0, 1.0, 0.0, 3.0, 4.0, 4.0, 5.0, 1.0, 3.0, 2.0, 2.0, 1.0, 2.0, 0.0, 1.0, 1.0, 1.0, 0.0, 1.0, 0.0, 0.0, 0.0, 0.0, 0.0, 1.0, 0.0, 0.0, 0.0, 0.0, 0.0, 1.0, 0.0, 0.0, 0.0, 0.0, 0.0, 1.0, 1.0, 0.0, 0.0, 0.0, 1.0], "bins": [-0.0007052842993289232, -0.0006780956755392253, -0.0006509069935418665, -0.0006237183697521687, -0.0005965297459624708, -0.000569341063965112, -0.0005421524401754141, -0.0005149637581780553, -0.0004877751343883574, -0.00046058648149482906, -0.0004333978577051312, -0.00040620920481160283, -0.0003790205519180745, -0.00035183189902454615, -0.00032464327523484826, -0.0002974546223413199, -0.00027026599855162203, -0.00024307736021000892, -0.00021588870731648058, -0.00018870006897486746, -0.00016151141608133912, -0.000134322777739726, -0.00010713413939811289, -7.994548650458455e-05, -5.275684816297144e-05, -2.5568204364390112e-05, 1.620439434191212e-06, 2.8809081413783133e-05, 5.599772703135386e-05, 8.318637264892459e-05, 0.0001103750109905377, 0.00013756366388406605, 0.00016475230222567916, 0.00019194094056729227, 0.00021912959346082062, 0.00024631823180243373, 0.00027350688469596207, 0.0003006955375894904, 0.0003278841613791883, 0.00035507281427271664, 0.000382261467166245, 0.0004094501200597733, 0.0004366387438494712, 0.00046382739674299955, 0.0004910160205326974, 0.0005182047025300562, 0.0005453933263197541, 0.0005725820083171129, 0.0005997705738991499, 0.0006269591976888478, 0.0006541478796862066, 0.0006813365034759045, 0.0007085251272656024, 0.0007357138092629611, 0.000762902433052659, 0.0007900911150500178, 0.0008172797388397157, 0.0008444683626294136, 0.0008716570446267724, 0.0008988456684164703, 0.0009260342922061682, 0.000953222974203527, 0.0009804116562008858, 0.0010076002217829227, 0.0010347889037802815]}, "gradients/base.mlp.fc1.2.bias": {"_type": "histogram", "values": [1.0, 0.0, 1.0, 0.0, 1.0, 1.0, 0.0, 0.0, 2.0, 0.0, 1.0, 0.0, 0.0, 0.0, 0.0, 3.0, 2.0, 2.0, 1.0, 1.0, 2.0, 1.0, 3.0, 0.0, 2.0, 2.0, 1.0, 4.0, 1.0, 0.0, 2.0, 0.0, 3.0, 0.0, 0.0, 4.0, 1.0, 2.0, 2.0, 2.0, 1.0, 1.0, 3.0, 2.0, 0.0, 1.0, 1.0, 2.0, 0.0, 1.0, 0.0, 0.0, 0.0, 2.0, 0.0, 0.0, 0.0, 0.0, 0.0, 0.0, 0.0, 0.0, 0.0, 2.0], "bins": [-0.0008764605736359954, -0.0008466598228551447, -0.000816859130281955, -0.0007870583795011044, -0.0007572576869279146, -0.000727456936147064, -0.0006976561853662133, -0.0006678554927930236, -0.0006380548002198339, -0.0006082540494389832, -0.0005784533568657935, -0.0005486526060849428, -0.0005188519135117531, -0.0004890511627309024, -0.00045925044105388224, -0.00042944971937686205, -0.0003996489685960114, -0.0003698482469189912, -0.000340047525241971, -0.00031024677446112037, -0.00028044608188793063, -0.00025064533110708, -0.0002208446094300598, -0.0001910438877530396, -0.0001612431660760194, -0.00013144244439899921, -0.00010164171544602141, -7.18409864930436e-05, -4.204026481602341e-05, -1.2239543139003217e-05, 1.7561193089932203e-05, 4.7361914766952395e-05, 7.716263644397259e-05, 0.00010696335812099278, 0.00013676407979801297, 0.0001665648160269484, 0.00019636553770396858, 0.00022616625938098878, 0.0002559669956099242, 0.0002857677172869444, 0.0003155684389639646, 0.0003453691606409848, 0.00037516988231800497, 0.00040497060399502516, 0.0004347713547758758, 0.00046457204734906554, 0.0004943727981299162, 0.0005241734907031059, 0.0005539742414839566, 0.0005837749922648072, 0.000613575684837997, 0.0006433764356188476, 0.0006731771281920373, 0.000702977878972888, 0.0007327785715460777, 0.0007625793223269284, 0.000792380073107779, 0.0008221808238886297, 0.0008519815164618194, 0.0008817822672426701, 0.0009115829598158598, 0.0009413837105967104, 0.0009711844613775611, 0.0010009851539507508, 0.0010307858465239406]}, "gradients/base.mlp.fc1.0.bias": {"_type": "histogram", "values": [1.0, 0.0, 0.0, 1.0, 0.0, 1.0, 0.0, 0.0, 1.0, 1.0, 1.0, 0.0, 0.0, 0.0, 0.0, 0.0, 2.0, 1.0, 0.0, 2.0, 1.0, 1.0, 2.0, 1.0, 1.0, 1.0, 0.0, 7.0, 3.0, 15.0, 4.0, 0.0, 4.0, 2.0, 0.0, 0.0, 0.0, 1.0, 0.0, 1.0, 0.0, 1.0, 1.0, 2.0, 0.0, 0.0, 0.0, 1.0, 0.0, 0.0, 0.0, 1.0, 0.0, 0.0, 1.0, 0.0, 0.0, 0.0, 0.0, 0.0, 1.0, 0.0, 0.0, 1.0], "bins": [-0.000994494534097612, -0.0009609798435121775, -0.0009274652111344039, -0.0008939505787566304, -0.000860435888171196, -0.0008269211975857615, -0.000793406565207988, -0.0007598919328302145, -0.0007263772422447801, -0.0006928625516593456, -0.0006593479192815721, -0.0006258332869037986, -0.0005923185963183641, -0.0005588039057329297, -0.0005252892733551562, -0.0004917746409773827, -0.0004582599503919482, -0.00042474528891034424, -0.00039123062742874026, -0.0003577159659471363, -0.0003242013044655323, -0.0002906866429839283, -0.00025717198150232434, -0.00022365732002072036, -0.00019014265853911638, -0.0001566279970575124, -0.00012311333557590842, -8.959867409430444e-05, -5.608401261270046e-05, -2.2569351131096482e-05, 1.0945310350507498e-05, 4.445997183211148e-05, 7.797451689839363e-05, 0.00011148917837999761, 0.0001450038398616016, 0.00017851850134320557, 0.00021203316282480955, 0.00024554782430641353, 0.0002790624857880175, 0.0003125771472696215, 0.00034609180875122547, 0.00037960647023282945, 0.00041312113171443343, 0.0004466357931960374, 0.0004801504546776414, 0.0005136651452630758, 0.0005471797776408494, 0.0005806944100186229, 0.0006142091006040573, 0.0006477237911894917, 0.0006812384235672653, 0.0007147530559450388, 0.0007482677465304732, 0.0007817824371159077, 0.0008152970694936812, 0.0008488117018714547, 0.0008823263924568892, 0.0009158410830423236, 0.0009493557154200971, 0.0009828703477978706, 0.001016385038383305, 0.0010498997289687395, 0.0010834143031388521, 0.0011169289937242866, 0.001150443684309721]}, "gradients/base.mlp.fc1.0.weight": {"_type": "histogram", "values": [1.0, 0.0, 0.0, 0.0, 1.0, 0.0, 1.0, 2.0, 3.0, 4.0, 1.0, 7.0, 1.0, 10.0, 9.0, 8.0, 9.0, 12.0, 8.0, 8.0, 11.0, 9.0, 15.0, 20.0, 25.0, 22.0, 32.0, 71.0, 145.0, 190.0, 175.0, 478.0, 479.0, 3314.0, 898.0, 507.0, 256.0, 249.0, 121.0, 20.0, 13.0, 22.0, 8.0, 15.0, 10.0, 14.0, 15.0, 6.0, 8.0, 7.0, 6.0, 9.0, 5.0, 7.0, 6.0, 4.0, 2.0, 2.0, 4.0, 5.0, 2.0, 1.0, 0.0, 3.0], "bins": [-0.0026308810338377953, -0.0025524331722408533, -0.0024739853106439114, -0.0023955372162163258, -0.002317089354619384, -0.002238641493022442, -0.0021601936314255, -0.002081745769828558, -0.0020032976754009724, -0.0019248498138040304, -0.0018464018357917666, -0.0017679539741948247, -0.001689505996182561, -0.001611058134585619, -0.001532610272988677, -0.001454162411391735, -0.0013757145497947931, -0.0012972666881978512, -0.0012188187101855874, -0.0011403708485886455, -0.0010619228705763817, -0.0009834750089794397, -0.0009050271473824978, -0.0008265792275778949, -0.0007481313077732921, -0.0006696833879686892, -0.0005912354681640863, -0.0005127876065671444, -0.00043433968676254153, -0.00035589176695793867, -0.00027744387625716627, -0.00019899598555639386, -0.00012054829858243465, -4.210039332974702e-05, 3.634751192294061e-05, 0.00011479541717562824, 0.00019324332242831588, 0.00027169124223291874, 0.00035013913293369114, 0.00042858702363446355, 0.0005070349434390664, 0.0005854828632436693, 0.0006639307830482721, 0.0007423786446452141, 0.0008208265644498169, 0.0008992744842544198, 0.0009777223458513618, 0.0010561703238636255, 0.0011346181854605675, 0.0012130660470575094, 0.0012915140250697732, 0.0013699618866667151, 0.001448409864678979, 0.0015268577262759209, 0.0016053055878728628, 0.0016837534494698048, 0.0017622014274820685, 0.0018406492890790105, 0.0019190972670912743, 0.001997545128688216, 0.002075992990285158, 0.0021544410847127438, 0.0022328889463096857, 0.0023113368079066277, 0.0023897846695035696]}, "gradients/base.feature_norm.weight": {"_type": "histogram", "values": [1.0, 0.0, 0.0, 0.0, 1.0, 0.0, 1.0, 1.0, 0.0, 0.0, 0.0, 0.0, 0.0, 0.0, 0.0, 0.0, 0.0, 1.0, 0.0, 1.0, 0.0, 2.0, 1.0, 0.0, 3.0, 7.0, 13.0, 11.0, 9.0, 16.0, 8.0, 7.0, 4.0, 12.0, 2.0, 3.0, 2.0, 0.0, 0.0, 0.0, 1.0, 0.0, 0.0, 0.0, 0.0, 2.0, 0.0, 0.0, 0.0, 1.0, 2.0, 0.0, 0.0, 1.0, 0.0, 0.0, 0.0, 0.0, 0.0, 0.0, 0.0, 0.0, 0.0, 1.0], "bins": [-0.0013619321398437023, -0.0013161341194063425, -0.0012703362153843045, -0.0012245381949469447, -0.0011787402909249067, -0.001132942270487547, -0.001087144366465509, -0.0010413463460281491, -0.0009955484420061111, -0.0009497504797764122, -0.0009039525175467134, -0.0008581545553170145, -0.0008123565930873156, -0.0007665586308576167, -0.0007207606686279178, -0.000674962648190558, -0.0006291646859608591, -0.0005833667237311602, -0.0005375687615014613, -0.0004917707992717624, -0.0004459728370420635, -0.0004001748748123646, -0.0003543768834788352, -0.00030857892124913633, -0.00026278095901943743, -0.00021698299678973854, -0.00017118503456003964, -0.00012538705777842551, -7.958909554872662e-05, -3.379113331902772e-05, 1.2006843462586403e-05, 5.78048056922853e-05, 0.0001036027679219842, 0.0001494007301516831, 0.000195198692381382, 0.0002409966691629961, 0.0002867946168407798, 0.0003325925790704787, 0.00037839057040400803, 0.00042418853263370693, 0.0004699864948634058, 0.0005157844861969352, 0.0005615824484266341, 0.000607380410656333, 0.0006531783728860319, 0.0006989763351157308, 0.0007447742973454297, 0.0007905722595751286, 0.0008363702218048275, 0.0008821681840345263, 0.0009279661462642252, 0.0009737641084939241, 0.001019562128931284, 0.001065360032953322, 0.0011111580533906817, 0.0011569559574127197, 0.0012027539778500795, 0.0012485519982874393, 0.0012943499023094773, 0.0013401479227468371, 0.0013859458267688751, 0.001431743847206235, 0.001477541751228273, 0.0015233397716656327, 0.0015691376756876707]}, "gradients/base.feature_norm.bias": {"_type": "histogram", "values": [2.0, 0.0, 0.0, 0.0, 0.0, 0.0, 0.0, 0.0, 0.0, 0.0, 0.0, 0.0, 0.0, 1.0, 0.0, 0.0, 0.0, 0.0, 0.0, 0.0, 1.0, 0.0, 0.0, 1.0, 0.0, 1.0, 2.0, 2.0, 5.0, 2.0, 5.0, 4.0, 2.0, 5.0, 5.0, 1.0, 17.0, 6.0, 6.0, 8.0, 12.0, 9.0, 7.0, 4.0, 1.0, 1.0, 1.0, 0.0, 1.0, 0.0, 0.0, 1.0, 0.0, 0.0, 0.0, 0.0, 0.0, 0.0, 0.0, 0.0, 0.0, 0.0, 0.0, 1.0], "bins": [-0.0028490102849900723, -0.0027705624233931303, -0.0026921145617961884, -0.00261366693302989, -0.002535219071432948, -0.002456771209836006, -0.002378323348239064, -0.0022998754866421223, -0.002221427857875824, -0.002142979996278882, -0.00206453213468194, -0.001986084505915642, -0.0019076366443186998, -0.0018291887827217579, -0.001750740921124816, -0.0016722931759431958, -0.0015938453143462539, -0.001515397452749312, -0.0014369497075676918, -0.0013585018459707499, -0.0012800541007891297, -0.0012016062391921878, -0.0011231584940105677, -0.0010447106324136257, -0.0009662628290243447, -0.0008878150256350636, -0.0008093672222457826, -0.0007309194188565016, -0.0006524715572595596, -0.0005740238120779395, -0.0004955759504809976, -0.00041712814709171653, -0.0003386803437024355, -0.00026023254031315446, -0.0001817847223719582, -0.00010333690443076193, -2.48891010414809e-05, 5.3558702347800136e-05, 0.00013200653484091163, 0.00021045433823019266, 0.0002889021416194737, 0.00036734994500875473, 0.00044579774839803576, 0.0005242455517873168, 0.0006026934133842587, 0.0006811411585658789, 0.0007595890201628208, 0.0008380368235521019, 0.0009164846269413829, 0.0009949324885383248, 0.001073380233719945, 0.001151828095316887, 0.001230275840498507, 0.001308723702095449, 0.001387171447277069, 0.001465619308874011, 0.001544067170470953, 0.001622515032067895, 0.001700962777249515, 0.001779410638846457, 0.0018578583840280771, 0.001936306245625019, 0.002014754107221961, 0.002093201968818903, 0.0021716495975852013]}, "gradients/graph_1v_out.bias": {"_type": "histogram", "values": [0.0, 0.0, 0.0, 0.0, 0.0, 0.0, 0.0, 0.0, 0.0, 0.0, 0.0, 0.0, 0.0, 0.0, 0.0, 0.0, 0.0, 0.0, 0.0, 0.0, 0.0, 0.0, 0.0, 0.0, 0.0, 0.0, 0.0, 0.0, 0.0, 0.0, 0.0, 0.0, 1.0, 0.0, 0.0, 0.0, 0.0, 0.0, 0.0, 0.0, 0.0, 0.0, 0.0, 0.0, 0.0, 0.0, 0.0, 0.0, 0.0, 0.0, 0.0, 0.0, 0.0, 0.0, 0.0, 0.0, 0.0, 0.0, 0.0, 0.0, 0.0, 0.0, 0.0, 0.0], "bins": [-0.009933617897331715, -0.009933617897331715, -0.009933617897331715, -0.009933617897331715, -0.009933617897331715, -0.009933617897331715, -0.009933617897331715, -0.009933617897331715, -0.009933617897331715, -0.009933617897331715, -0.009933617897331715, -0.009933617897331715, -0.009933617897331715, -0.009933617897331715, -0.009933617897331715, -0.009933617897331715, -0.009933617897331715, -0.009933617897331715, -0.009933617897331715, -0.009933617897331715, -0.009933617897331715, -0.009933617897331715, -0.009933617897331715, -0.009933617897331715, -0.009933617897331715, -0.009933617897331715, -0.009933617897331715, -0.009933617897331715, -0.009933617897331715, -0.009933617897331715, -0.009933617897331715, -0.009933617897331715, -0.009933617897331715, -0.009933617897331715, -0.009933617897331715, -0.009933617897331715, -0.009933617897331715, -0.009933617897331715, -0.009933617897331715, -0.009933617897331715, -0.009933617897331715, -0.009933617897331715, -0.009933617897331715, -0.009933617897331715, -0.009933617897331715, -0.009933617897331715, -0.009933617897331715, -0.009933617897331715, -0.009933617897331715, -0.009933617897331715, -0.009933617897331715, -0.009933617897331715, -0.009933617897331715, -0.009933617897331715, -0.009933617897331715, -0.009933617897331715, -0.009933617897331715, -0.009933617897331715, -0.009933617897331715, -0.009933617897331715, -0.009933617897331715, -0.009933617897331715, -0.009933617897331715, -0.009933617897331715, -0.009933617897331715]}, "gradients/graph_1v_out.weight": {"_type": "histogram", "values": [1.0, 0.0, 0.0, 0.0, 0.0, 0.0, 0.0, 0.0, 0.0, 0.0, 0.0, 0.0, 0.0, 0.0, 0.0, 0.0, 0.0, 0.0, 0.0, 0.0, 0.0, 0.0, 0.0, 0.0, 0.0, 0.0, 0.0, 1.0, 1.0, 0.0, 0.0, 0.0, 1.0, 3.0, 0.0, 0.0, 1.0, 1.0, 0.0, 0.0, 0.0, 1.0, 1.0, 1.0, 1.0, 0.0, 1.0, 0.0, 1.0, 1.0, 0.0, 0.0, 3.0, 0.0, 1.0, 1.0, 32.0, 4.0, 3.0, 1.0, 0.0, 0.0, 1.0, 2.0], "bins": [-0.051408909261226654, -0.05041832849383354, -0.04942775145173073, -0.048437170684337616, -0.0474465936422348, -0.04645601287484169, -0.045465435832738876, -0.044474855065345764, -0.04348427802324295, -0.04249369725584984, -0.041503120213747025, -0.04051253944635391, -0.0395219624042511, -0.038531381636857986, -0.03754080459475517, -0.03655022382736206, -0.03555964678525925, -0.034569066017866135, -0.03357848897576332, -0.03258790820837021, -0.031597331166267395, -0.030606752261519432, -0.02961617335677147, -0.028625592589378357, -0.027635011821985245, -0.026644432917237282, -0.02565385401248932, -0.024663275107741356, -0.023672696202993393, -0.02268211729824543, -0.021691538393497467, -0.020700957626104355, -0.019710378721356392, -0.01871979981660843, -0.017729220911860466, -0.016738642007112503, -0.01574806310236454, -0.014757484197616577, -0.01376690436154604, -0.012776325456798077, -0.011785746552050114, -0.01079516764730215, -0.009804588742554188, -0.00881400890648365, -0.007823430001735687, -0.006832851562649012, -0.005842272192239761, -0.004851693287491798, -0.0038611143827438354, -0.0028705354779958725, -0.001879956340417266, -0.0008893772028386593, 0.00010120170190930367, 0.0010917806066572666, 0.002082359977066517, 0.00307293888181448, 0.004063517786562443, 0.005054096691310406, 0.006044675596058369, 0.007035254966467619, 0.00802583433687687, 0.009016413241624832, 0.010006992146372795, 0.010997571051120758, 0.011988149955868721]}, "gradients/graph_1base.mlp.fc2.0.2.weight": {"_type": "histogram", "values": [1.0, 0.0, 0.0, 0.0, 0.0, 0.0, 0.0, 0.0, 1.0, 0.0, 1.0, 2.0, 2.0, 1.0, 3.0, 4.0, 3.0, 2.0, 6.0, 3.0, 5.0, 5.0, 4.0, 3.0, 3.0, 1.0, 3.0, 1.0, 4.0, 3.0, 0.0, 0.0, 0.0, 0.0, 0.0, 0.0, 0.0, 0.0, 0.0, 0.0, 1.0, 0.0, 1.0, 0.0, 0.0, 0.0, 0.0, 0.0, 0.0, 0.0, 0.0, 0.0, 0.0, 0.0, 0.0, 0.0, 0.0, 0.0, 0.0, 0.0, 0.0, 0.0, 0.0, 1.0], "bins": [-0.0027954373508691788, -0.002668804954737425, -0.0025421727914363146, -0.0024155403953045607, -0.0022889082320034504, -0.0021622758358716965, -0.0020356434397399426, -0.0019090111600235105, -0.0017823788803070784, -0.0016557466005906463, -0.0015291143208742142, -0.0014024819247424603, -0.0012758496450260282, -0.001149217365309596, -0.0010225849691778421, -0.00089595268946141, -0.000769320409744978, -0.0006426881300285459, -0.0005160557921044528, -0.0003894234832841903, -0.00026279117446392775, -0.00013615889474749565, -9.526556823402643e-06, 0.00011710578110069036, 0.00024373806081712246, 0.000370370369637385, 0.0004970026784576476, 0.0006236350163817406, 0.0007502672960981727, 0.0008768995758146048, 0.0010035319719463587, 0.0011301642516627908, 0.0012567965313792229, 0.001383428811095655, 0.001510061090812087, 0.001636693486943841, 0.001763325766660273, 0.0018899580463767052, 0.002016590442508459, 0.002143222838640213, 0.0022698550019413233, 0.002396487398073077, 0.0025231195613741875, 0.0026497519575059414, 0.0027763843536376953, 0.0029030165169388056, 0.0030296489130705595, 0.0031562810763716698, 0.0032829134725034237, 0.0034095458686351776, 0.003536178031936288, 0.003662810428068042, 0.003789442591369152, 0.003916074987500906, 0.00404270738363266, 0.004169339779764414, 0.004295972175896168, 0.004422604572027922, 0.004549236968159676, 0.004675868898630142, 0.004802501294761896, 0.00492913369089365, 0.005055766087025404, 0.005182398483157158, 0.0053090304136276245]}, "gradients/graph_1base.mlp.fc2.0.2.bias": {"_type": "histogram", "values": [3.0, 1.0, 1.0, 0.0, 0.0, 0.0, 1.0, 0.0, 0.0, 1.0, 1.0, 0.0, 1.0, 3.0, 2.0, 0.0, 2.0, 0.0, 2.0, 1.0, 0.0, 1.0, 3.0, 0.0, 1.0, 3.0, 0.0, 0.0, 1.0, 1.0, 2.0, 2.0, 3.0, 0.0, 2.0, 1.0, 1.0, 0.0, 3.0, 1.0, 2.0, 1.0, 1.0, 0.0, 2.0, 1.0, 2.0, 0.0, 0.0, 1.0, 3.0, 0.0, 0.0, 0.0, 1.0, 1.0, 0.0, 0.0, 2.0, 0.0, 1.0, 0.0, 1.0, 1.0], "bins": [-0.0018777966033667326, -0.0018081966554746032, -0.001738596591167152, -0.0016689966432750225, -0.0015993965789675713, -0.0015297966310754418, -0.0014601966831833124, -0.0013905966188758612, -0.0013209966709837317, -0.0012513967230916023, -0.001181796658784151, -0.0011121967108920217, -0.0010425967629998922, -0.000972996698692441, -0.0009033967508003116, -0.0008337967447005212, -0.0007641967386007309, -0.0006945967325009406, -0.0006249967264011502, -0.0005553967785090208, -0.00048579677240923047, -0.00041619676630944014, -0.00034659678931348026, -0.0002769968123175204, -0.00020739680621773005, -0.00013779681466985494, -6.819682312197983e-05, 1.4031684258952737e-06, 7.100315997377038e-05, 0.00014060316607356071, 0.0002102031430695206, 0.00027980312006548047, 0.00034940289333462715, 0.0004190028994344175, 0.0004886029055342078, 0.0005582028534263372, 0.0006278028595261276, 0.0006974028656259179, 0.0007670028135180473, 0.0008366028196178377, 0.000906202825717628, 0.0009758028318174183, 0.0010454028379172087, 0.001115002785809338, 0.0011846027337014675, 0.0012542027980089188, 0.0013238027459010482, 0.0013934026937931776, 0.0014630027581006289, 0.0015326027059927583, 0.0016022027703002095, 0.001671802718192339, 0.0017414027824997902, 0.0018110027303919196, 0.001880602678284049, 0.0019502027425915003, 0.002019802574068308, 0.002089402638375759, 0.0021590024698525667, 0.002228602534160018, 0.002298202598467469, 0.002367802429944277, 0.002437402494251728, 0.0025070025585591793, 0.0025766026228666306]}, "gradients/graph_1base.mlp.fc2.0.0.bias": {"_type": "histogram", "values": [2.0, 0.0, 0.0, 0.0, 0.0, 0.0, 1.0, 0.0, 0.0, 0.0, 0.0, 0.0, 0.0, 0.0, 1.0, 0.0, 0.0, 0.0, 1.0, 1.0, 0.0, 0.0, 0.0, 0.0, 0.0, 1.0, 1.0, 0.0, 0.0, 1.0, 0.0, 1.0, 0.0, 0.0, 1.0, 2.0, 0.0, 2.0, 2.0, 27.0, 4.0, 1.0, 2.0, 0.0, 2.0, 2.0, 0.0, 0.0, 1.0, 0.0, 1.0, 1.0, 0.0, 1.0, 0.0, 0.0, 1.0, 1.0, 1.0, 0.0, 1.0, 0.0, 0.0, 1.0], "bins": [-0.0017562478315085173, -0.0017120784614235163, -0.0016679090913385153, -0.0016237396048381925, -0.0015795702347531915, -0.0015354008646681905, -0.0014912314945831895, -0.0014470620080828667, -0.0014028926379978657, -0.0013587232679128647, -0.0013145538978278637, -0.0012703844113275409, -0.0012262150412425399, -0.0011820456711575389, -0.001137876301072538, -0.001093706814572215, -0.001049537444487214, -0.001005368074402213, -0.0009611986461095512, -0.0009170292760245502, -0.0008728598477318883, -0.0008286904776468873, -0.0007845211075618863, -0.0007403516792692244, -0.0006961823673918843, -0.0006520129973068833, -0.0006078435690142214, -0.0005636741989292204, -0.0005195047706365585, -0.00047533540055155754, -0.0004311660013627261, -0.00038699660217389464, -0.00034282717388123274, -0.0002986577746924013, -0.00025448837550356984, -0.00021031899086665362, -0.00016614959167782217, -0.00012198019248899072, -7.78108078520745e-05, -3.3641408663243055e-05, 1.0527990525588393e-05, 5.4697386076441035e-05, 9.886678162729368e-05, 0.0001430361735401675, 0.00018720557272899896, 0.0002313749719178304, 0.00027554435655474663, 0.0003197137557435781, 0.0003638831549324095, 0.000408052554121241, 0.0004522219533100724, 0.0004963913233950734, 0.0005405607516877353, 0.0005847301217727363, 0.0006288995500653982, 0.0006730689201503992, 0.0007172382902354002, 0.0007614076603204012, 0.0008055770886130631, 0.0008497464586980641, 0.000893915886990726, 0.000938085257075727, 0.000982254627160728, 0.0010264241136610508, 0.0010705934837460518]}, "gradients/graph_1base.mlp.fc2.0.0.weight": {"_type": "histogram", "values": [1.0, 0.0, 0.0, 0.0, 0.0, 0.0, 0.0, 0.0, 2.0, 1.0, 0.0, 1.0, 2.0, 1.0, 0.0, 1.0, 2.0, 0.0, 1.0, 1.0, 1.0, 3.0, 1.0, 4.0, 3.0, 3.0, 4.0, 2.0, 2.0, 3.0, 6.0, 4.0, 12.0, 6.0, 10.0, 18.0, 43.0, 128.0, 197.0, 349.0, 2461.0, 314.0, 138.0, 143.0, 78.0, 76.0, 24.0, 10.0, 4.0, 8.0, 2.0, 5.0, 4.0, 4.0, 2.0, 3.0, 1.0, 2.0, 2.0, 1.0, 0.0, 1.0, 0.0, 1.0], "bins": [-0.007783592212945223, -0.007591302040964365, -0.007399011868983507, -0.007206721697002649, -0.007014431059360504, -0.006822140887379646, -0.0066298507153987885, -0.006437560543417931, -0.006245270371437073, -0.006052980199456215, -0.005860690027475357, -0.005668399855494499, -0.005476109683513641, -0.005283819045871496, -0.005091528873890638, -0.0048992387019097805, -0.004706948529928923, -0.004514658357948065, -0.004322368185967207, -0.004130078013986349, -0.003937787376344204, -0.0037454974371939898, -0.0035532070323824883, -0.0033609168604016304, -0.0031686266884207726, -0.0029763365164399147, -0.002784046344459057, -0.0025917559396475554, -0.0023994657676666975, -0.0022071755956858397, -0.002014885190874338, -0.0018225950188934803, -0.0016303043812513351, -0.0014380142092704773, -0.0012457239208742976, -0.001053433632478118, -0.0008611434604972601, -0.0006688532303087413, -0.00047656300012022257, -0.0002842727117240429, -9.198253974318504e-05, 0.00010030769044533372, 0.0002925979206338525, 0.00048488815082237124, 0.00067717838101089, 0.0008694686111994088, 0.0010617588413879275, 0.0012540491297841072, 0.001446339301764965, 0.001638629473745823, 0.0018309197621420026, 0.0020232100505381823, 0.00221550022251904, 0.002407790394499898, 0.0026000807993113995, 0.0027923709712922573, 0.002984661143273115, 0.003176951315253973, 0.003369241487234831, 0.0035615318920463324, 0.00375382206402719, 0.003946112468838692, 0.0041384026408195496, 0.004330692812800407, 0.004522982984781265]}, "gradients/graph_1base.mlp.fc1.2.weight": {"_type": "histogram", "values": [2.0, 0.0, 0.0, 2.0, 2.0, 0.0, 1.0, 0.0, 0.0, 0.0, 0.0, 4.0, 4.0, 3.0, 1.0, 2.0, 5.0, 2.0, 4.0, 7.0, 2.0, 4.0, 0.0, 3.0, 0.0, 0.0, 2.0, 3.0, 3.0, 0.0, 0.0, 2.0, 0.0, 2.0, 0.0, 1.0, 0.0, 0.0, 1.0, 0.0, 0.0, 0.0, 0.0, 0.0, 0.0, 0.0, 0.0, 0.0, 0.0, 0.0, 0.0, 0.0, 0.0, 0.0, 0.0, 0.0, 0.0, 1.0, 0.0, 0.0, 0.0, 0.0, 0.0, 1.0], "bins": [-0.0010828727390617132, -0.0010287599870935082, -0.0009746471769176424, -0.0009205343667417765, -0.0008664215565659106, -0.0008123087463900447, -0.0007581959944218397, -0.0007040831842459738, -0.0006499703740701079, -0.000595857563894242, -0.0005417448119260371, -0.0004876320017501712, -0.0004335191915743053, -0.00037940641050226986, -0.00032529362943023443, -0.00027118081925436854, -0.00021706806728616357, -0.0001629552716622129, -0.00010884248331421986, -5.4729694966226816e-05, -6.16899342276156e-07, 5.3495896281674504e-05, 0.00010760867735370994, 0.00016172148752957582, 0.00021583426860161126, 0.0002699470496736467, 0.0003240598598495126, 0.000378172640921548, 0.00043228542199358344, 0.00048639823216944933, 0.0005405109841376543, 0.0005946238525211811, 0.0006487366044893861, 0.000702849414665252, 0.0007569621666334569, 0.0008110749768093228, 0.0008651877869851887, 0.0009193005971610546, 0.0009734133491292596, 0.0010275261010974646, 0.0010816389694809914, 0.0011357517214491963, 0.0011898645898327231, 0.0012439773418009281, 0.001298090093769133, 0.00135220296215266, 0.0014063157141208649, 0.0014604285825043917, 0.0015145412180572748, 0.0015686539700254798, 0.0016227668384090066, 0.0016768795903772116, 0.0017309923423454165, 0.0017851052107289433, 0.0018392179626971483, 0.0018933308310806751, 0.00194744358304888, 0.002001556335017085, 0.002055669203400612, 0.002109781838953495, 0.002163894707337022, 0.0022180075757205486, 0.0022721202112734318, 0.0023262330796569586, 0.0023803459480404854]}, "gradients/graph_1base.mlp.fc1.2.bias": {"_type": "histogram", "values": [1.0, 0.0, 0.0, 1.0, 0.0, 0.0, 0.0, 1.0, 1.0, 1.0, 0.0, 1.0, 0.0, 1.0, 2.0, 0.0, 2.0, 2.0, 2.0, 0.0, 1.0, 1.0, 1.0, 0.0, 0.0, 1.0, 2.0, 3.0, 1.0, 3.0, 3.0, 0.0, 0.0, 4.0, 1.0, 5.0, 3.0, 1.0, 1.0, 1.0, 1.0, 3.0, 0.0, 4.0, 2.0, 0.0, 2.0, 0.0, 0.0, 0.0, 0.0, 0.0, 0.0, 0.0, 0.0, 0.0, 0.0, 1.0, 2.0, 1.0, 0.0, 0.0, 0.0, 1.0], "bins": [-0.0015250258147716522, -0.001473503652960062, -0.0014219814911484718, -0.0013704594457522035, -0.0013189372839406133, -0.001267415122129023, -0.0012158930767327547, -0.0011643709149211645, -0.0011128487531095743, -0.0010613265912979841, -0.001009804429486394, -0.0009582823840901256, -0.0009067602222785354, -0.0008552380604669452, -0.0008037159568630159, -0.0007521938532590866, -0.0007006716914474964, -0.0006491495296359062, -0.0005976274260319769, -0.0005461053224280477, -0.0004945831606164575, -0.0004430610279086977, -0.000391538895200938, -0.00034001676249317825, -0.0002884946297854185, -0.00023697249707765877, -0.00018545036436989903, -0.0001339282316621393, -8.240609895437956e-05, -3.088396624661982e-05, 2.0638166461139917e-05, 7.216029916889966e-05, 0.00012368254829198122, 0.00017520468099974096, 0.0002267268137075007, 0.00027824894641526043, 0.00032977107912302017, 0.0003812932118307799, 0.00043281534453853965, 0.0004843374772462994, 0.0005358596099540591, 0.0005873817717656493, 0.0006389038753695786, 0.0006904259789735079, 0.0007419481407850981, 0.0007934703025966883, 0.0008449924062006176, 0.0008965145098045468, 0.000948036671616137, 0.0009995588334277272, 0.0010510808788239956, 0.0011026030406355858, 0.001154125202447176, 0.0012056473642587662, 0.0012571695260703564, 0.0013086915714666247, 0.001360213733278215, 0.0014117358950898051, 0.0014632579404860735, 0.0015147801022976637, 0.0015663022641092539, 0.001617824425920844, 0.0016693465877324343, 0.0017208686331287026, 0.0017723907949402928]}, "gradients/graph_1base.mlp.fc1.0.bias": {"_type": "histogram", "values": [1.0, 0.0, 0.0, 0.0, 0.0, 0.0, 0.0, 1.0, 0.0, 0.0, 3.0, 2.0, 0.0, 0.0, 0.0, 0.0, 0.0, 0.0, 0.0, 3.0, 0.0, 0.0, 0.0, 0.0, 1.0, 0.0, 1.0, 0.0, 0.0, 0.0, 1.0, 1.0, 0.0, 1.0, 2.0, 4.0, 22.0, 1.0, 2.0, 1.0, 0.0, 1.0, 2.0, 1.0, 3.0, 0.0, 0.0, 0.0, 0.0, 2.0, 0.0, 1.0, 1.0, 0.0, 0.0, 2.0, 1.0, 1.0, 0.0, 1.0, 0.0, 0.0, 0.0, 1.0], "bins": [-0.0005380098009482026, -0.0005232979310676455, -0.0005085860611870885, -0.0004938741913065314, -0.00047916232142597437, -0.0004644504515454173, -0.00044973858166486025, -0.0004350267117843032, -0.00042031484190374613, -0.00040560297202318907, -0.000390891102142632, -0.00037617923226207495, -0.0003614673623815179, -0.0003467554925009608, -0.00033204362262040377, -0.0003173317527398467, -0.0003026199119631201, -0.00028790804208256304, -0.000273196172202006, -0.0002584843023214489, -0.00024377243244089186, -0.0002290605625603348, -0.00021434870723169297, -0.0001996368373511359, -0.00018492496747057885, -0.0001702130975900218, -0.00015550122770946473, -0.0001407893723808229, -0.00012607750250026584, -0.00011136562534375116, -9.665376273915172e-05, -8.194189285859466e-05, -6.722999387420714e-05, -5.251812399365008e-05, -3.7806257751071826e-05, -2.3094391508493572e-05, -8.382521627936512e-06, 6.329348252620548e-06, 2.1041210857219994e-05, 3.5753080737777054e-05, 5.0464950618334115e-05, 6.517682049889117e-05, 7.988869037944824e-05, 9.460055298404768e-05, 0.00010931242286460474, 0.0001240242854692042, 0.00013873615534976125, 0.0001534480252303183, 0.00016815989511087537, 0.00018287176499143243, 0.0001975836348719895, 0.00021229550475254655, 0.0002270073746331036, 0.00024171924451366067, 0.00025643111439421773, 0.0002711429842747748, 0.00028585485415533185, 0.0003005667240358889, 0.00031527859391644597, 0.00032999046379700303, 0.0003447023336775601, 0.00035941420355811715, 0.0003741260734386742, 0.00038883794331923127, 0.0004035497840959579]}, "gradients/graph_1base.mlp.fc1.0.weight": {"_type": "histogram", "values": [1.0, 1.0, 0.0, 0.0, 0.0, 0.0, 0.0, 0.0, 1.0, 0.0, 0.0, 3.0, 0.0, 1.0, 0.0, 0.0, 1.0, 0.0, 0.0, 0.0, 0.0, 0.0, 0.0, 0.0, 1.0, 0.0, 1.0, 0.0, 2.0, 0.0, 1.0, 9.0, 11.0, 31.0, 98.0, 304.0, 529.0, 639.0, 41555.0, 7391.0, 849.0, 305.0, 44.0, 38.0, 9.0, 1.0, 1.0, 1.0, 1.0, 0.0, 1.0, 0.0, 1.0, 2.0, 0.0, 0.0, 1.0, 1.0, 1.0, 1.0, 0.0, 1.0, 1.0, 1.0], "bins": [-0.010603309608995914, -0.010329836048185825, -0.010056362487375736, -0.009782888926565647, -0.009509415365755558, -0.009235941804945469, -0.00896246824413538, -0.00868899468332529, -0.008415521122515202, -0.008142047561705112, -0.007868574000895023, -0.007595100440084934, -0.007321626879274845, -0.007048153318464756, -0.006774679757654667, -0.006501206196844578, -0.006227732170373201, -0.005954258609563112, -0.005680785048753023, -0.005407311487942934, -0.005133837927132845, -0.004860364366322756, -0.004586890339851379, -0.00431341677904129, -0.004039943218231201, -0.003766469657421112, -0.003492996096611023, -0.003219522535800934, -0.0029460489749908447, -0.0026725754141807556, -0.002399101620540023, -0.0021256280597299337, -0.0018521551974117756, -0.0015786816366016865, -0.0013052080757915974, -0.0010317343985661864, -0.0007582608377560973, -0.0004847872769460082, -0.00021131359972059727, 6.215996108949184e-05, 0.00033563352189958096, 0.0006091070827096701, 0.0008825807017274201, 0.0011560543207451701, 0.0014295278815552592, 0.0017030014423653483, 0.0019764751195907593, 0.0022499486804008484, 0.0025234222412109375, 0.0027968958020210266, 0.0030703693628311157, 0.003343842923641205, 0.003617316484451294, 0.003890790045261383, 0.004164263606071472, 0.004437737166881561, 0.00471121072769165, 0.0049846842885017395, 0.005258157849311829, 0.005531631410121918, 0.005805104970932007, 0.006078578531742096, 0.006352052092552185, 0.006625525653362274, 0.006898999679833651]}, "gradients/graph_1base.feature_norm.weight": {"_type": "histogram", "values": [1.0, 0.0, 0.0, 0.0, 0.0, 0.0, 0.0, 0.0, 0.0, 0.0, 0.0, 0.0, 0.0, 0.0, 0.0, 0.0, 0.0, 0.0, 0.0, 0.0, 0.0, 0.0, 0.0, 0.0, 0.0, 0.0, 0.0, 0.0, 1.0, 0.0, 0.0, 0.0, 0.0, 0.0, 0.0, 0.0, 0.0, 0.0, 0.0, 0.0, 0.0, 0.0, 0.0, 0.0, 0.0, 0.0, 0.0, 0.0, 1.0, 3.0, 6.0, 11.0, 7.0, 25.0, 192.0, 422.0, 84.0, 20.0, 16.0, 7.0, 4.0, 5.0, 3.0, 2.0], "bins": [-0.0022110617719590664, -0.002171081956475973, -0.0021311023738235235, -0.0020911225583404303, -0.0020511429756879807, -0.0020111631602048874, -0.001971183344721794, -0.0019312037620693445, -0.0018912239465862513, -0.0018512442475184798, -0.0018112645484507084, -0.0017712847329676151, -0.0017313050338998437, -0.0016913253348320723, -0.0016513456357643008, -0.0016113659366965294, -0.001571386237628758, -0.0015314065385609865, -0.001491426839493215, -0.0014514470240101218, -0.0014114673249423504, -0.001371487625874579, -0.0013315079268068075, -0.001291528227739036, -0.0012515485286712646, -0.0012115688296034932, -0.0011715891305357218, -0.0011316093150526285, -0.001091629615984857, -0.0010516499169170856, -0.0010116702178493142, -0.0009716905187815428, -0.0009317108197137713, -0.0008917311206459999, -0.0008517513633705676, -0.0008117716643027961, -0.0007717919070273638, -0.0007318122079595923, -0.0006918325088918209, -0.0006518528098240495, -0.0006118730525486171, -0.0005718933534808457, -0.0005319135962054133, -0.0004919338971376419, -0.00045195416896604, -0.0004119744407944381, -0.0003719947417266667, -0.0003320150135550648, -0.0002920352853834629, -0.000252055557211861, -0.00021207584359217435, -0.0001720961299724877, -0.0001321164018008858, -9.21366736292839e-05, -5.215696000959724e-05, -1.2177246389910579e-05, 2.7802481781691313e-05, 6.778220267733559e-05, 0.00010776192357297987, 0.00014774163719266653, 0.00018772136536426842, 0.00022770109353587031, 0.00026768079260364175, 0.00030766052077524364, 0.00034764024894684553]}, "gradients/graph_1base.feature_norm.bias": {"_type": "histogram", "values": [2.0, 1.0, 0.0, 0.0, 0.0, 1.0, 0.0, 1.0, 4.0, 4.0, 1.0, 4.0, 7.0, 4.0, 8.0, 14.0, 12.0, 17.0, 20.0, 15.0, 17.0, 32.0, 24.0, 32.0, 39.0, 31.0, 37.0, 44.0, 40.0, 28.0, 38.0, 36.0, 30.0, 28.0, 35.0, 38.0, 25.0, 27.0, 18.0, 14.0, 6.0, 19.0, 10.0, 5.0, 11.0, 5.0, 6.0, 5.0, 6.0, 1.0, 2.0, 0.0, 0.0, 0.0, 2.0, 3.0, 0.0, 0.0, 0.0, 0.0, 0.0, 0.0, 0.0, 1.0], "bins": [-0.00025319086853414774, -0.0002445638529025018, -0.00023593682271894068, -0.00022730979253537953, -0.0002186827769037336, -0.00021005574672017246, -0.00020142871653661132, -0.0001928017009049654, -0.00018417468527331948, -0.00017554765508975834, -0.00016692063945811242, -0.00015829360927455127, -0.00014966659364290535, -0.0001410395634593442, -0.00013241253327578306, -0.00012378551764413714, -0.000115158487460576, -0.00010653146455297247, -9.790444164536893e-05, -8.927741146180779e-05, -8.065039583016187e-05, -7.202336564660072e-05, -6.339634273899719e-05, -5.476931983139366e-05, -4.614229692379013e-05, -3.7515274016186595e-05, -2.888824928959366e-05, -2.0261224563000724e-05, -1.1634201655397192e-05, -3.0071787477936596e-06, 5.61984779778868e-06, 1.4246870705392212e-05, 2.2873893612995744e-05, 3.1500916520599276e-05, 4.012793942820281e-05, 4.875496597378515e-05, 5.738198888138868e-05, 6.600901542697102e-05, 7.463603833457455e-05, 8.326306124217808e-05, 9.189008414978161e-05, 0.00010051710705738515, 0.00010914412996498868, 0.00011777115287259221, 0.00012639818305615336, 0.00013502519868779927, 0.00014365222887136042, 0.00015227924450300634, 0.00016090627468656749, 0.00016953330487012863, 0.00017816032050177455, 0.0001867873506853357, 0.00019541436631698161, 0.00020404139650054276, 0.00021266841213218868, 0.00022129544231574982, 0.00022992247249931097, 0.00023854950268287212, 0.00024717653286643326, 0.0002558035484980792, 0.0002644305641297251, 0.000273057579761371, 0.0002816846244968474, 0.0002903116401284933, 0.0002989386557601392]}, "_wandb": {"runtime": 12640}}