{"value_loss": 0.22621430158615113, "_timestamp": 1666029448.559957, "_runtime": 12337.879224061966, "policy_loss": -0.0008997011043160974, "dist_entropy": 0.970420116186142, "actor_grad_norm": 0.03147741034626961, "critic_grad_norm": 0.2940320372581482, "ratio": 1.0000402927398682, "sm3_ratio_mean": 0.6043795351474248, "drop_ratio_mean": 0.024891918525099754, "drop_ratio_std": 0.1300150454044342, "drop_ratio_min": 0.0, "drop_ratio_max": 1.0, "ue_drop_ratio_mean": 0.035437221030825486, "ue_drop_ratio_std": 0.16275705295425996, "ue_drop_ratio_min": 0.0, "ue_drop_ratio_max": 0.9999996666667778, "delay_ratio_mean": 0.1676093190908432, "delay_ratio_std": 0.23218874633312225, "delay_ratio_min": 0.0, "delay_ratio_max": 1.0, "qos_reward_mean": -0.014676925002693233, "qos_reward_std": 0.09434860856179482, "qos_reward_min": -0.99999950000025, "qos_reward_max": 0.003933329396526999, "pc_kw_mean": 0.16143564403170632, "pc_kw_std": 0.04923390450327047, "pc_kw_min": 0.08555325317382813, "pc_kw_max": 0.6697246704101563, "reward_mean": -0.17611256903439956, "reward_std": 0.10794571054633044, "reward_min": -1.346079810547875, "reward_max": -0.08555325317382813, "_step": 2520000, "gradients/act.action_outs.2.linear.bias": {"_type": "histogram", "values": [1.0, 0.0, 1.0, 0.0, 0.0, 0.0, 0.0, 0.0, 0.0, 0.0, 0.0, 0.0, 0.0, 0.0, 0.0, 0.0, 0.0, 0.0, 0.0, 0.0, 0.0, 0.0, 0.0, 0.0, 0.0, 0.0, 0.0, 0.0, 0.0, 0.0, 0.0, 0.0, 0.0, 0.0, 0.0, 0.0, 0.0, 0.0, 0.0, 0.0, 0.0, 0.0, 0.0, 0.0, 0.0, 0.0, 0.0, 0.0, 0.0, 0.0, 0.0, 0.0, 0.0, 0.0, 0.0, 0.0, 0.0, 0.0, 0.0, 0.0, 0.0, 0.0, 0.0, 1.0], "bins": [-0.0010159695520997047, -0.0009704208932816982, -0.0009248721762560308, -0.0008793235174380243, -0.0008337748004123569, -0.0007882261415943503, -0.0007426774827763438, -0.0006971287657506764, -0.000651580048725009, -0.0006060313899070024, -0.000560482672881335, -0.0005149340140633285, -0.0004693852970376611, -0.00042383663821965456, -0.0003782879502978176, -0.0003327392623759806, -0.0002871906035579741, -0.00024164191563613713, -0.00019609322771430016, -0.0001505445543443784, -0.00010499586642254144, -5.944717850070447e-05, -1.3898505130782723e-05, 3.165018279105425e-05, 7.719887071289122e-05, 0.0001227475586347282, 0.00016829624655656517, 0.0002138449199264869, 0.00025939359329640865, 0.0003049423103220761, 0.0003504909691400826, 0.00039603965706191957, 0.00044158834498375654, 0.0004871370329055935, 0.0005326857208274305, 0.000578234379645437, 0.0006237830966711044, 0.000669331755489111, 0.0007148804143071175, 0.0007604291313327849, 0.0008059778483584523, 0.0008515265071764588, 0.0008970752242021263, 0.0009426238830201328, 0.0009881726000458002, 0.0010337212588638067, 0.0010792699176818132, 0.0011248185764998198, 0.0011703672353178263, 0.0012159158941358328, 0.0012614645529538393, 0.0013070133281871676, 0.0013525619870051742, 0.0013981106458231807, 0.0014436593046411872, 0.0014892080798745155, 0.001534756738692522, 0.0015803053975105286, 0.001625854056328535, 0.0016714028315618634, 0.00171695149037987, 0.0017625001491978765, 0.001808048808015883, 0.0018535975832492113, 0.0018991462420672178]}, "gradients/act.action_outs.2.linear.weight": {"_type": "histogram", "values": [1.0, 0.0, 0.0, 0.0, 0.0, 0.0, 1.0, 0.0, 0.0, 0.0, 0.0, 3.0, 1.0, 3.0, 4.0, 4.0, 3.0, 5.0, 8.0, 7.0, 2.0, 6.0, 7.0, 10.0, 7.0, 9.0, 3.0, 10.0, 13.0, 8.0, 10.0, 14.0, 10.0, 10.0, 5.0, 2.0, 6.0, 3.0, 5.0, 2.0, 3.0, 0.0, 1.0, 0.0, 1.0, 0.0, 1.0, 0.0, 0.0, 0.0, 0.0, 1.0, 0.0, 0.0, 1.0, 0.0, 0.0, 0.0, 0.0, 0.0, 0.0, 0.0, 0.0, 2.0], "bins": [-0.003909173421561718, -0.003767379093915224, -0.003625584999099374, -0.00348379067145288, -0.0033419965766370296, -0.0032002022489905357, -0.003058407921344042, -0.002916613593697548, -0.0027748194988816977, -0.0026330251712352037, -0.0024912310764193535, -0.0023494367487728596, -0.0022076424211263657, -0.0020658483263105154, -0.0019240539986640215, -0.0017822597874328494, -0.0016404655762016773, -0.0014986713649705052, -0.0013568771537393332, -0.0012150828260928392, -0.0010732886148616672, -0.0009314944036304951, -0.0007897001341916621, -0.0006479058647528291, -0.000506111653521657, -0.00036431741318665445, -0.0002225231728516519, -8.072893251664937e-05, 6.106530781835318e-05, 0.00020285951904952526, 0.00034465378848835826, 0.00048644805792719126, 0.0006282422691583633, 0.0007700364803895354, 0.0009118307498283684, 0.0010536250192672014, 0.0011954192304983735, 0.0013372134417295456, 0.0014790077693760395, 0.0016208019806072116, 0.0017625961918383837, 0.0019043904030695558, 0.002046184614300728, 0.0021879789419472218, 0.0023297732695937157, 0.002471567364409566, 0.00261336169205606, 0.00275515578687191, 0.002896950114518404, 0.003038744442164898, 0.003180538536980748, 0.003322332864627242, 0.0034641269594430923, 0.0036059212870895863, 0.00374771561473608, 0.003889509942382574, 0.004031304270029068, 0.004173098597675562, 0.004314892925322056, 0.004456686787307262, 0.004598481114953756, 0.00474027544260025, 0.004882069770246744, 0.005023864097893238, 0.005165657959878445]}, "gradients/act.action_outs.1.linear.bias": {"_type": "histogram", "values": [1.0, 0.0, 0.0, 0.0, 0.0, 0.0, 0.0, 0.0, 0.0, 0.0, 0.0, 0.0, 0.0, 0.0, 0.0, 0.0, 0.0, 0.0, 0.0, 1.0, 0.0, 0.0, 0.0, 1.0, 0.0, 0.0, 0.0, 0.0, 0.0, 0.0, 0.0, 0.0, 0.0, 0.0, 0.0, 0.0, 0.0, 0.0, 0.0, 0.0, 0.0, 0.0, 0.0, 0.0, 0.0, 0.0, 0.0, 0.0, 0.0, 0.0, 0.0, 0.0, 0.0, 0.0, 0.0, 0.0, 0.0, 0.0, 0.0, 0.0, 0.0, 0.0, 0.0, 1.0], "bins": [-0.00048126664478331804, -0.00046318097156472504, -0.00044509529834613204, -0.00042700962512753904, -0.00040892395190894604, -0.00039083827869035304, -0.00037275260547176003, -0.0003546669613569975, -0.00033658125903457403, -0.00031849558581598103, -0.00030040991259738803, -0.00028232423937879503, -0.000264238566160202, -0.000246152892941609, -0.00022806723427493125, -0.00020998156105633825, -0.00019189590238966048, -0.00017381022917106748, -0.00015572455595247447, -0.00013763888273388147, -0.00011955321679124609, -0.00010146754357265308, -8.33818776300177e-05, -6.52962044114247e-05, -4.7210531192831695e-05, -2.9124859793228097e-05, -1.10391883936245e-05, 7.046481186989695e-06, 2.5132154405582696e-05, 4.32178276241757e-05, 6.130349356681108e-05, 7.938916678540409e-05, 9.747484000399709e-05, 0.00011556051322259009, 0.0001336461864411831, 0.0001517318596597761, 0.0001698175328783691, 0.0001879032060969621, 0.00020598886476363987, 0.00022407453798223287, 0.00024216021120082587, 0.00026024586986750364, 0.00027833154308609664, 0.00029641721630468965, 0.00031450288952328265, 0.00033258856274187565, 0.00035067423596046865, 0.00036875990917906165, 0.00038684558239765465, 0.00040493125561624765, 0.00042301692883484066, 0.00044110260205343366, 0.00045918827527202666, 0.00047727394849061966, 0.0004953595926053822, 0.0005134452949278057, 0.0005315309390425682, 0.0005496165831573308, 0.0005677022854797542, 0.0005857879295945168, 0.0006038736319169402, 0.0006219592760317028, 0.0006400449783541262, 0.0006581306224688888, 0.0006762163247913122]}, "gradients/act.action_outs.1.linear.weight": {"_type": "histogram", "values": [1.0, 0.0, 0.0, 1.0, 0.0, 2.0, 1.0, 0.0, 0.0, 0.0, 3.0, 2.0, 0.0, 1.0, 1.0, 1.0, 2.0, 3.0, 3.0, 5.0, 1.0, 4.0, 6.0, 9.0, 5.0, 5.0, 9.0, 1.0, 9.0, 12.0, 8.0, 12.0, 12.0, 7.0, 17.0, 12.0, 8.0, 7.0, 13.0, 7.0, 10.0, 9.0, 8.0, 7.0, 4.0, 4.0, 2.0, 3.0, 1.0, 3.0, 4.0, 1.0, 2.0, 1.0, 2.0, 0.0, 2.0, 0.0, 0.0, 0.0, 0.0, 1.0, 0.0, 2.0], "bins": [-0.001970207318663597, -0.0019113182788714767, -0.0018524292390793562, -0.0017935401992872357, -0.0017346511594951153, -0.001675762003287673, -0.0016168729634955525, -0.001557983923703432, -0.0014990948839113116, -0.0014402058441191912, -0.0013813168043270707, -0.0013224277645349503, -0.001263538608327508, -0.0012046496849507093, -0.001145760528743267, -0.0010868714889511466, -0.0010279824491590261, -0.0009690934093669057, -0.0009102043695747852, -0.0008513152715750039, -0.0007924262317828834, -0.000733537191990763, -0.0006746480939909816, -0.0006157590541988611, -0.0005568700144067407, -0.0004979809746146202, -0.0004390919057186693, -0.0003802028368227184, -0.0003213137970305979, -0.00026242475723847747, -0.00020353568834252656, -0.00014464661944657564, -8.575746323913336e-05, -2.6868408895097673e-05, 3.202064544893801e-05, 9.09096997929737e-05, 0.00014979875413700938, 0.00020868779392912984, 0.00026757686282508075, 0.00032646593172103167, 0.0003853549715131521, 0.0004442440113052726, 0.000503133051097393, 0.0005620221490971744, 0.0006209111888892949, 0.0006798002286814153, 0.0007386893266811967, 0.0007975783664733171, 0.0008564674062654376, 0.0009153564460575581, 0.0009742454858496785, 0.001033134525641799, 0.0010920236818492413, 0.0011509126052260399, 0.0012098017614334822, 0.0012686908012256026, 0.001327579841017723, 0.0013864688808098435, 0.001445357920601964, 0.0015042469603940845, 0.001563136000186205, 0.0016220251563936472, 0.0016809141961857677, 0.001739803235977888, 0.0017986922757700086]}, "gradients/act.action_outs.0.linear.bias": {"_type": "histogram", "values": [1.0, 0.0, 0.0, 0.0, 0.0, 0.0, 0.0, 0.0, 0.0, 0.0, 0.0, 0.0, 0.0, 0.0, 0.0, 0.0, 0.0, 0.0, 0.0, 0.0, 0.0, 0.0, 0.0, 0.0, 0.0, 0.0, 0.0, 1.0, 0.0, 0.0, 0.0, 0.0, 0.0, 0.0, 0.0, 0.0, 0.0, 0.0, 0.0, 0.0, 0.0, 0.0, 0.0, 0.0, 0.0, 0.0, 0.0, 0.0, 0.0, 0.0, 0.0, 0.0, 0.0, 0.0, 0.0, 0.0, 0.0, 0.0, 0.0, 0.0, 0.0, 0.0, 0.0, 1.0], "bins": [-0.0027405424043536186, -0.0026507428847253323, -0.0025609435979276896, -0.002471144078299403, -0.0023813447915017605, -0.002291545271873474, -0.0022017459850758314, -0.002111946465447545, -0.0020221471786499023, -0.0019323477754369378, -0.0018425483722239733, -0.0017527489690110087, -0.0016629495657980442, -0.0015731501625850797, -0.0014833507593721151, -0.0013935512397438288, -0.0013037518365308642, -0.0012139524333178997, -0.0011241530301049352, -0.0010343536268919706, -0.0009445542236790061, -0.0008547548204660416, -0.0007649553590454161, -0.0006751559558324516, -0.000585356552619487, -0.0004955571494065225, -0.000405757746193558, -0.000315958313876763, -0.00022615891066379845, -0.00013635950745083392, -4.6560075134038925e-05, 4.323932807892561e-05, 0.00013303873129189014, 0.00022283813450485468, 0.0003126375377178192, 0.0004024369700346142, 0.0004922363441437483, 0.0005820357473567128, 0.0006718352087773383, 0.0007616346119903028, 0.0008514340152032673, 0.0009412334184162319, 0.0010310328798368573, 0.0011208322830498219, 0.0012106316862627864, 0.001300431089475751, 0.0013902304926887155, 0.00148002989590168, 0.0015698292991146445, 0.001659628702327609, 0.0017494281055405736, 0.0018392275087535381, 0.0019290269119665027, 0.002018826315179467, 0.0021086258348077536, 0.0021984251216053963, 0.0022882246412336826, 0.002378024160861969, 0.0024678234476596117, 0.002557622967287898, 0.0026474222540855408, 0.002737221773713827, 0.00282702106051147, 0.002916820580139756, 0.003006619866937399]}, "gradients/act.action_outs.0.linear.weight": {"_type": "histogram", "values": [1.0, 0.0, 0.0, 0.0, 0.0, 1.0, 0.0, 2.0, 0.0, 2.0, 1.0, 0.0, 0.0, 0.0, 0.0, 0.0, 0.0, 0.0, 1.0, 3.0, 3.0, 3.0, 6.0, 7.0, 5.0, 7.0, 4.0, 3.0, 6.0, 6.0, 8.0, 8.0, 7.0, 8.0, 8.0, 6.0, 14.0, 7.0, 7.0, 8.0, 8.0, 7.0, 3.0, 2.0, 1.0, 7.0, 7.0, 1.0, 2.0, 0.0, 1.0, 3.0, 1.0, 2.0, 1.0, 0.0, 2.0, 1.0, 0.0, 0.0, 0.0, 0.0, 0.0, 1.0], "bins": [-0.0054922145791351795, -0.005331186577677727, -0.005170158576220274, -0.005009130574762821, -0.004848103038966656, -0.004687075037509203, -0.00452604703605175, -0.004365019034594297, -0.004203991033136845, -0.004042963031679392, -0.003881935030221939, -0.00372090726159513, -0.003559879260137677, -0.0033988512586802244, -0.0032378234900534153, -0.0030767954885959625, -0.0029157674871385098, -0.002754739485681057, -0.002593711484223604, -0.002432683715596795, -0.0022716557141393423, -0.0021106277126818895, -0.0019495998276397586, -0.0017885719425976276, -0.0016275439411401749, -0.001466515939682722, -0.0013054880546405911, -0.0011444601695984602, -0.0009834321681410074, -0.0008224042248912156, -0.0006613762816414237, -0.0005003483965992928, -0.0003393208608031273, -0.00017829291755333543, -1.7264974303543568e-05, 0.0001437629689462483, 0.00030479091219604015, 0.000465818855445832, 0.0006268467986956239, 0.0007878746837377548, 0.0009489026851952076, 0.0011099306866526604, 0.0012709585716947913, 0.0014319864567369223, 0.001593014458194375, 0.0017540424596518278, 0.0019150703446939588, 0.0020760982297360897, 0.0022371262311935425, 0.0023981542326509953, 0.002559182234108448, 0.002720210002735257, 0.00288123800419271, 0.0030422660056501627, 0.003203293774276972, 0.0033643217757344246, 0.0035253497771918774, 0.00368637777864933, 0.003847405780106783, 0.004008433781564236, 0.004169461317360401, 0.004330489318817854, 0.004491517320275307, 0.0046525453217327595, 0.004813573323190212]}, "gradients/base.mlp.fc2.0.2.weight": {"_type": "histogram", "values": [1.0, 0.0, 0.0, 0.0, 0.0, 0.0, 1.0, 0.0, 0.0, 0.0, 1.0, 0.0, 2.0, 1.0, 1.0, 0.0, 0.0, 3.0, 1.0, 0.0, 2.0, 5.0, 3.0, 1.0, 4.0, 3.0, 8.0, 3.0, 2.0, 3.0, 2.0, 3.0, 1.0, 6.0, 1.0, 3.0, 0.0, 2.0, 0.0, 0.0, 0.0, 0.0, 0.0, 0.0, 0.0, 0.0, 0.0, 0.0, 0.0, 0.0, 0.0, 0.0, 0.0, 0.0, 0.0, 0.0, 0.0, 0.0, 0.0, 0.0, 0.0, 0.0, 0.0, 1.0], "bins": [-0.0005382540402933955, -0.0005184933543205261, -0.0004987326683476567, -0.0004789720114786178, -0.0004592113255057484, -0.000439450639532879, -0.00041968998266384006, -0.00039992929669097066, -0.00038016861071810126, -0.00036040792474523187, -0.00034064723877236247, -0.00032088658190332353, -0.00030112589593045413, -0.00028136520995758474, -0.0002616045530885458, -0.0002418438671156764, -0.000222083181142807, -0.0002023224951699376, -0.00018256182374898344, -0.00016280115232802927, -0.00014304046635515988, -0.00012327978038229048, -0.00010351910896133631, -8.375843754038215e-05, -6.399775156751275e-05, -4.423707287060097e-05, -2.4476394173689187e-05, -4.7157154767774045e-06, 1.5044963220134377e-05, 3.480564191704616e-05, 5.456632061395794e-05, 7.432699203491211e-05, 9.408761980012059e-05, 0.00011384829849703237, 0.00013360897719394416, 0.00015336964861489832, 0.00017313033458776772, 0.00019289102056063712, 0.00021265169198159128, 0.00023241236340254545, 0.00025217304937541485, 0.00027193373534828424, 0.00029169442132115364, 0.0003114550781901926, 0.000331215764163062, 0.00035097645013593137, 0.0003707371070049703, 0.0003904977929778397, 0.0004102584789507091, 0.0004300191649235785, 0.0004497798508964479, 0.00046954050776548684, 0.0004893011646345258, 0.0005090618506073952, 0.0005288225365802646, 0.000548583222553134, 0.0005683439085260034, 0.0005881045944988728, 0.0006078652804717422, 0.0006276259664446115, 0.0006473866524174809, 0.0006671472801826894, 0.0006869079661555588, 0.0007066686521284282, 0.0007264293381012976]}, "gradients/base.mlp.fc2.0.2.bias": {"_type": "histogram", "values": [1.0, 2.0, 0.0, 1.0, 0.0, 0.0, 0.0, 3.0, 1.0, 0.0, 2.0, 0.0, 3.0, 2.0, 4.0, 4.0, 2.0, 2.0, 2.0, 0.0, 0.0, 0.0, 1.0, 1.0, 3.0, 1.0, 2.0, 0.0, 1.0, 2.0, 1.0, 2.0, 2.0, 0.0, 2.0, 2.0, 0.0, 1.0, 3.0, 2.0, 0.0, 1.0, 1.0, 0.0, 2.0, 1.0, 1.0, 0.0, 1.0, 0.0, 0.0, 0.0, 0.0, 1.0, 0.0, 0.0, 0.0, 0.0, 0.0, 0.0, 0.0, 0.0, 0.0, 1.0], "bins": [-0.00040250387974083424, -0.0003884865727741271, -0.00037446926580742, -0.0003604519588407129, -0.0003464346518740058, -0.0003324173449072987, -0.0003184000379405916, -0.0003043827600777149, -0.00029036542400717735, -0.00027634811704047024, -0.00026233081007376313, -0.000248313503107056, -0.0002342961961403489, -0.0002202788891736418, -0.00020626159675884992, -0.0001922442897921428, -0.00017822699737735093, -0.00016420969041064382, -0.0001501923834439367, -0.0001361750764772296, -0.00012215776951052248, -0.00010814046981977299, -9.412317012902349e-05, -8.010586316231638e-05, -6.608855619560927e-05, -5.207124922890216e-05, -3.805394590017386e-05, -2.4036642571445554e-05, -1.0019335604738444e-05, 3.997971361968666e-06, 1.8015271052718163e-05, 3.203257801942527e-05, 4.604988498613238e-05, 6.0067191952839494e-05, 7.40844989195466e-05, 8.81017986102961e-05, 0.00010211910557700321, 0.00011613641254371032, 0.00013015371223445982, 0.00014417101920116693, 0.00015818832616787404, 0.00017220563313458115, 0.00018622294010128826, 0.00020024023251608014, 0.00021425753948278725, 0.00022827484644949436, 0.00024229215341620147, 0.0002563094603829086, 0.0002703267673496157, 0.0002843440743163228, 0.0002983613812830299, 0.000312378688249737, 0.00032639599521644413, 0.00034041330218315125, 0.0003544305800460279, 0.00036844791611656547, 0.0003824651939794421, 0.00039648250094614923, 0.00041049980791285634, 0.00042451711487956345, 0.00043853442184627056, 0.00045255172881297767, 0.0004665690357796848, 0.00048058631364256144, 0.000494603649713099]}, "gradients/base.mlp.fc2.0.0.bias": {"_type": "histogram", "values": [1.0, 0.0, 1.0, 1.0, 0.0, 1.0, 1.0, 1.0, 0.0, 0.0, 0.0, 1.0, 2.0, 1.0, 2.0, 2.0, 2.0, 2.0, 1.0, 2.0, 2.0, 9.0, 7.0, 2.0, 4.0, 0.0, 1.0, 1.0, 2.0, 1.0, 2.0, 2.0, 2.0, 1.0, 3.0, 0.0, 0.0, 1.0, 0.0, 0.0, 0.0, 0.0, 0.0, 0.0, 0.0, 0.0, 1.0, 0.0, 0.0, 0.0, 0.0, 0.0, 0.0, 1.0, 0.0, 0.0, 0.0, 0.0, 0.0, 0.0, 0.0, 0.0, 0.0, 1.0], "bins": [-0.00042336038313806057, -0.00040453477413393557, -0.00038570916512981057, -0.00036688355612568557, -0.0003480579471215606, -0.00032923236722126603, -0.00031040675821714103, -0.00029158114921301603, -0.00027275554020889103, -0.00025392993120476604, -0.00023510432220064104, -0.00021627872774843127, -0.00019745311874430627, -0.00017862750974018127, -0.0001598019152879715, -0.0001409763062838465, -0.0001221506972797215, -0.0001033250882755965, -8.449948654742911e-05, -6.567388481926173e-05, -4.684827581513673e-05, -2.802266681101173e-05, -9.197065082844347e-06, 9.628536645323038e-06, 2.8454145649448037e-05, 4.727975101559423e-05, 6.610535638174042e-05, 8.49309581099078e-05, 0.0001037565671140328, 0.0001225821761181578, 0.00014140777057036757, 0.00016023337957449257, 0.00017905893037095666, 0.00019788453937508166, 0.00021671014837920666, 0.00023553574283141643, 0.00025436136638745666, 0.0002731869462877512, 0.0002920125552918762, 0.0003108381642960012, 0.0003296637733001262, 0.0003484893823042512, 0.0003673149913083762, 0.0003861406003125012, 0.00040496618021279573, 0.0004237918183207512, 0.00044261739822104573, 0.00046144300722517073, 0.00048026861622929573, 0.0004990941961295903, 0.0005179198342375457, 0.0005367454141378403, 0.0005555710522457957, 0.0005743966321460903, 0.0005932222702540457, 0.0006120478501543403, 0.0006308734882622957, 0.0006496990681625903, 0.0006685247062705457, 0.0006873502861708403, 0.0007061759242787957, 0.0007250015041790903, 0.0007438271422870457, 0.0007626527221873403, 0.0007814783020876348]}, "gradients/base.mlp.fc2.0.0.weight": {"_type": "histogram", "values": [2.0, 1.0, 2.0, 1.0, 1.0, 3.0, 4.0, 8.0, 11.0, 9.0, 6.0, 22.0, 19.0, 23.0, 42.0, 40.0, 93.0, 132.0, 246.0, 345.0, 598.0, 1032.0, 529.0, 306.0, 186.0, 126.0, 94.0, 92.0, 36.0, 23.0, 19.0, 8.0, 10.0, 3.0, 1.0, 4.0, 1.0, 1.0, 6.0, 1.0, 2.0, 0.0, 0.0, 3.0, 0.0, 0.0, 0.0, 0.0, 2.0, 0.0, 0.0, 0.0, 0.0, 1.0, 0.0, 0.0, 0.0, 0.0, 0.0, 1.0, 0.0, 0.0, 0.0, 1.0], "bins": [-0.0009553876589052379, -0.0009108296944759786, -0.0008662717300467193, -0.0008217138238251209, -0.0007771558593958616, -0.0007325978949666023, -0.000688039930537343, -0.0006434819661080837, -0.0005989240016788244, -0.0005543660372495651, -0.0005098080728203058, -0.000465250137494877, -0.00042069220216944814, -0.00037613423774018884, -0.00033157627331092954, -0.0002870183379855007, -0.00024246040266007185, -0.00019790245278272778, -0.0001533445029053837, -0.0001087865384761244, -6.422858859878033e-05, -1.9670638721436262e-05, 2.4887325707823038e-05, 6.944526103325188e-05, 0.00011400322546251118, 0.00015856117533985525, 0.00020311912521719933, 0.0002476770896464586, 0.0002922350540757179, 0.00033679298940114677, 0.00038135095383040607, 0.0004259088891558349, 0.0004704669117927551, 0.0005150248762220144, 0.0005595828406512737, 0.000604140805080533, 0.0006486987113021314, 0.0006932566757313907, 0.00073781464016065, 0.0007823725463822484, 0.0008269305108115077, 0.000871488475240767, 0.0009160464396700263, 0.0009606044040992856, 0.001005162368528545, 0.0010497202165424824, 0.0010942781809717417, 0.001138836145401001, 0.0011833941098302603, 0.0012279520742595196, 0.0012725100386887789, 0.0013170680031180382, 0.0013616259675472975, 0.0014061839319765568, 0.001450741896405816, 0.0014952997444197536, 0.0015398578252643347, 0.001584415789693594, 0.0016289737541228533, 0.0016735317185521126, 0.0017180896829813719, 0.0017626476474106312, 0.0018072056118398905, 0.001851763459853828, 0.0018963214242830873]}, "gradients/base.mlp.fc1.2.weight": {"_type": "histogram", "values": [1.0, 0.0, 0.0, 0.0, 0.0, 0.0, 0.0, 1.0, 0.0, 0.0, 0.0, 0.0, 0.0, 0.0, 0.0, 1.0, 3.0, 3.0, 2.0, 2.0, 2.0, 4.0, 7.0, 1.0, 2.0, 2.0, 6.0, 3.0, 1.0, 2.0, 8.0, 1.0, 3.0, 1.0, 2.0, 1.0, 1.0, 1.0, 0.0, 0.0, 1.0, 0.0, 0.0, 0.0, 0.0, 0.0, 0.0, 0.0, 1.0, 0.0, 0.0, 0.0, 0.0, 0.0, 0.0, 0.0, 0.0, 0.0, 0.0, 0.0, 0.0, 0.0, 0.0, 1.0], "bins": [-0.0009097399306483567, -0.0008750157430768013, -0.0008402915555052459, -0.0008055673679336905, -0.0007708432385697961, -0.0007361189927905798, -0.0007013948634266853, -0.00066667067585513, -0.0006319464882835746, -0.0005972223007120192, -0.0005624981131404638, -0.0005277739255689085, -0.0004930497379973531, -0.00045832557952962816, -0.00042360142106190324, -0.00038887723349034786, -0.0003541530459187925, -0.0003194288583472371, -0.00028470467077568173, -0.0002499805123079568, -0.00021525632473640144, -0.00018053213716484606, -0.00014580796414520591, -0.00011108379112556577, -7.635960355401039e-05, -4.163542325841263e-05, -6.9112429628148675e-06, 2.7812937332782894e-05, 6.253711762838066e-05, 9.726130519993603e-05, 0.00013198547821957618, 0.00016670965123921633, 0.00020143389701843262, 0.000236158084589988, 0.00027088227216154337, 0.0003056064306292683, 0.00034033061820082366, 0.00037505480577237904, 0.00040977896424010396, 0.00044450315181165934, 0.0004792273393832147, 0.0005139515269547701, 0.0005486757145263255, 0.0005833999020978808, 0.0006181240314617753, 0.0006528482772409916, 0.0006875724066048861, 0.0007222965941764414, 0.0007570207817479968, 0.0007917449693195522, 0.0008264691568911076, 0.0008611933444626629, 0.0008959175320342183, 0.0009306416613981128, 0.0009653658489696681, 0.0010000900365412235, 0.001034814165905118, 0.0010695382952690125, 0.0011042625410482287, 0.0011389866704121232, 0.0011737109161913395, 0.001208435045555234, 0.0012431592913344502, 0.0012778834206983447, 0.001312607666477561]}, "gradients/base.mlp.fc1.2.bias": {"_type": "histogram", "values": [1.0, 1.0, 0.0, 0.0, 0.0, 1.0, 0.0, 0.0, 1.0, 2.0, 0.0, 1.0, 1.0, 2.0, 1.0, 1.0, 0.0, 2.0, 0.0, 2.0, 4.0, 3.0, 4.0, 1.0, 1.0, 2.0, 0.0, 0.0, 2.0, 2.0, 2.0, 1.0, 0.0, 2.0, 1.0, 3.0, 0.0, 4.0, 1.0, 0.0, 0.0, 2.0, 1.0, 0.0, 2.0, 1.0, 0.0, 2.0, 1.0, 1.0, 0.0, 0.0, 0.0, 2.0, 1.0, 0.0, 1.0, 0.0, 0.0, 0.0, 0.0, 0.0, 0.0, 1.0], "bins": [-0.0007985297124832869, -0.000771442661061883, -0.0007443556096404791, -0.0007172685582190752, -0.0006901815650053322, -0.0006630945135839283, -0.0006360074621625245, -0.0006089204107411206, -0.0005818333593197167, -0.0005547463078983128, -0.0005276592564769089, -0.000500572263263166, -0.0004734851827379316, -0.0004463981604203582, -0.0004193111089989543, -0.0003922240575775504, -0.000365137035259977, -0.0003380499838385731, -0.00031096296152099967, -0.0002838759100995958, -0.0002567888586781919, -0.00022970182180870324, -0.0002026147849392146, -0.0001755277335178107, -0.00014844069664832205, -0.00012135365250287578, -9.42666083574295e-05, -6.717957148794085e-05, -4.009252734249458e-05, -1.3005483197048306e-05, 1.408155367244035e-05, 4.1168605093844235e-05, 6.825564196333289e-05, 9.534268610877916e-05, 0.00012242973025422543, 0.0001495167671237141, 0.00017660381854511797, 0.00020369085541460663, 0.0002307778922840953, 0.00025786494370549917, 0.00028495199512690306, 0.00031203904654830694, 0.00033912606886588037, 0.00036621312028728426, 0.00039330017170868814, 0.00042038719402626157, 0.00044747424544766545, 0.00047456129686906934, 0.0005016482900828123, 0.0005287353415042162, 0.0005558223929256201, 0.000582909444347024, 0.0006099964375607669, 0.0006370834889821708, 0.0006641705404035747, 0.0006912575918249786, 0.0007183446432463825, 0.0007454316946677864, 0.0007725187460891902, 0.0007996057393029332, 0.0008266927907243371, 0.000853779842145741, 0.0008808668935671449, 0.0009079539449885488, 0.0009350409964099526]}, "gradients/base.mlp.fc1.0.bias": {"_type": "histogram", "values": [2.0, 0.0, 0.0, 0.0, 0.0, 0.0, 1.0, 1.0, 1.0, 1.0, 0.0, 0.0, 1.0, 1.0, 2.0, 1.0, 1.0, 1.0, 2.0, 1.0, 0.0, 4.0, 2.0, 3.0, 5.0, 7.0, 4.0, 0.0, 0.0, 5.0, 2.0, 2.0, 1.0, 2.0, 1.0, 0.0, 0.0, 0.0, 0.0, 0.0, 3.0, 1.0, 2.0, 0.0, 0.0, 1.0, 1.0, 0.0, 0.0, 1.0, 0.0, 0.0, 0.0, 0.0, 0.0, 0.0, 0.0, 0.0, 0.0, 0.0, 0.0, 0.0, 0.0, 1.0], "bins": [-0.0008868945296853781, -0.0008522274438291788, -0.0008175603579729795, -0.0007828932721167803, -0.0007482261280529201, -0.0007135590421967208, -0.0006788919563405216, -0.0006442248704843223, -0.0006095577264204621, -0.0005748906405642629, -0.0005402235547080636, -0.0005055564688518643, -0.00047088932478800416, -0.0004362222389318049, -0.00040155515307560563, -0.00036688806721940637, -0.0003322209813632071, -0.00029755389550700784, -0.0002628867805469781, -0.00022821969469077885, -0.00019355259428266436, -0.00015888549387454987, -0.0001242184080183506, -8.955130761023611e-05, -5.4884207202121615e-05, -2.021711043198593e-05, 1.4449986338149756e-05, 4.9117079470306635e-05, 8.378417987842113e-05, 0.00011845128028653562, 0.00015311836614273489, 0.00018778546655084938, 0.00022245256695896387, 0.00025711965281516314, 0.00029178676777519286, 0.0003264538536313921, 0.00036112096859142184, 0.0003957880544476211, 0.00043045514030382037, 0.00046512222616001964, 0.0004997893702238798, 0.0005344564560800791, 0.0005691235419362783, 0.0006037906277924776, 0.0006384577718563378, 0.000673124857712537, 0.0007077919435687363, 0.0007424590294249356, 0.0007771261152811348, 0.0008117932011373341, 0.0008464602869935334, 0.0008811274310573936, 0.0009157945169135928, 0.0009504616027697921, 0.0009851286886259913, 0.0010197957744821906, 0.0010544628603383899, 0.0010891299461945891, 0.0011237970320507884, 0.0011584641179069877, 0.001193131203763187, 0.001227798406034708, 0.0012624654918909073, 0.0012971325777471066, 0.0013317996636033058]}, "gradients/base.mlp.fc1.0.weight": {"_type": "histogram", "values": [2.0, 3.0, 6.0, 4.0, 8.0, 6.0, 10.0, 11.0, 11.0, 15.0, 13.0, 11.0, 12.0, 12.0, 21.0, 11.0, 40.0, 61.0, 101.0, 76.0, 258.0, 517.0, 549.0, 1151.0, 2384.0, 801.0, 456.0, 258.0, 176.0, 48.0, 35.0, 28.0, 32.0, 21.0, 22.0, 23.0, 15.0, 9.0, 15.0, 7.0, 9.0, 4.0, 5.0, 4.0, 9.0, 3.0, 2.0, 3.0, 5.0, 3.0, 1.0, 1.0, 3.0, 2.0, 1.0, 1.0, 0.0, 0.0, 0.0, 0.0, 0.0, 0.0, 0.0, 1.0], "bins": [-0.0019488795660436153, -0.0018681071233004332, -0.0017873345641419291, -0.001706562121398747, -0.0016257896786555648, -0.0015450171194970608, -0.0014642446767538786, -0.0013834722340106964, -0.0013026997912675142, -0.001221927348524332, -0.001141154789365828, -0.0010603823466226459, -0.0009796099038794637, -0.0008988374029286206, -0.0008180649019777775, -0.0007372924592345953, -0.0006565199000760913, -0.0005757473991252482, -0.000494974956382066, -0.0004142024554312229, -0.0003334299835842103, -0.00025265751173719764, -0.00017188501078635454, -9.111256804317236e-05, -1.0340067092329264e-05, 7.043241203064099e-05, 0.00015120489115361124, 0.0002319773775525391, 0.00031274984939955175, 0.0003935223212465644, 0.0004742948221974075, 0.0005550672649405897, 0.0006358397658914328, 0.0007166122668422759, 0.000797384709585458, 0.0008781572105363011, 0.0009589296532794833, 0.0010397022124379873, 0.0011204746551811695, 0.0012012470979243517, 0.0012820195406675339, 0.001362791983410716, 0.00144356454256922, 0.0015243369853124022, 0.0016051094280555844, 0.0016858819872140884, 0.0017666544299572706, 0.0018474268727004528, 0.0019281994318589568, 0.002008971991017461, 0.002089744433760643, 0.002170516876503825, 0.0022512893192470074, 0.0023320617619901896, 0.0024128342047333717, 0.0024936068803071976, 0.0025743793230503798, 0.002655151765793562, 0.002735924208536744, 0.0028166966512799263, 0.002897469326853752, 0.0029782417695969343, 0.0030590142123401165, 0.0031397866550832987, 0.003220559097826481]}, "gradients/base.feature_norm.weight": {"_type": "histogram", "values": [1.0, 0.0, 0.0, 0.0, 0.0, 0.0, 0.0, 0.0, 0.0, 0.0, 0.0, 0.0, 0.0, 0.0, 0.0, 0.0, 0.0, 0.0, 0.0, 0.0, 0.0, 1.0, 0.0, 0.0, 0.0, 0.0, 0.0, 0.0, 2.0, 0.0, 1.0, 0.0, 0.0, 1.0, 0.0, 0.0, 6.0, 2.0, 12.0, 21.0, 24.0, 17.0, 10.0, 5.0, 3.0, 1.0, 2.0, 2.0, 1.0, 0.0, 0.0, 1.0, 0.0, 0.0, 0.0, 0.0, 0.0, 0.0, 0.0, 0.0, 0.0, 0.0, 0.0, 1.0], "bins": [-0.0036639743484556675, -0.003572673536837101, -0.0034813727252185345, -0.0033900721464306116, -0.003298771334812045, -0.0032074705231934786, -0.003116169711574912, -0.003024869132786989, -0.0029335683211684227, -0.002842267509549856, -0.0027509666979312897, -0.002659666119143367, -0.0025683653075248003, -0.002477064495906234, -0.0023857636842876673, -0.0022944631054997444, -0.002203162293881178, -0.0021118614822626114, -0.002020560670644045, -0.0019292599754408002, -0.0018379592802375555, -0.001746658468618989, -0.0016553576570004225, -0.0015640569617971778, -0.0014727560337632895, -0.001381455222144723, -0.0012901545269414783, -0.0011988537153229117, -0.001107553020119667, -0.0010162522085011005, -0.0009249514550901949, -0.0008336507016792893, -0.0007423500064760447, -0.0006510492530651391, -0.0005597484996542335, -0.0004684477171394974, -0.0003771469637285918, -0.0002858462103176862, -0.00019454542780295014, -0.00010324467439204454, -1.1943920981138945e-05, 7.935683970572427e-05, 0.00017065760039258748, 0.0002619583683554083, 0.0003532591217663139, 0.0004445598751772195, 0.0005358606576919556, 0.0006271614111028612, 0.0007184621645137668, 0.0008097629179246724, 0.000901063671335578, 0.0009923644829541445, 0.0010836651781573892, 0.0011749659897759557, 0.0012662666849792004, 0.0013575674965977669, 0.0014488683082163334, 0.0015401691198349, 0.0016314698150381446, 0.001722770626656711, 0.0018140713218599558, 0.0019053721334785223, 0.001996672945097089, 0.0020879735238850117, 0.002179274335503578]}, "gradients/base.feature_norm.bias": {"_type": "histogram", "values": [1.0, 0.0, 0.0, 0.0, 0.0, 0.0, 0.0, 0.0, 1.0, 1.0, 0.0, 0.0, 1.0, 0.0, 3.0, 3.0, 4.0, 2.0, 2.0, 1.0, 4.0, 1.0, 6.0, 7.0, 7.0, 8.0, 9.0, 7.0, 4.0, 12.0, 4.0, 1.0, 3.0, 3.0, 5.0, 1.0, 1.0, 2.0, 2.0, 3.0, 1.0, 0.0, 0.0, 0.0, 0.0, 1.0, 1.0, 0.0, 0.0, 0.0, 0.0, 0.0, 0.0, 0.0, 0.0, 0.0, 1.0, 0.0, 0.0, 0.0, 0.0, 0.0, 0.0, 1.0], "bins": [-0.0016737235710024834, -0.0016126795671880245, -0.0015516354469582438, -0.0014905913267284632, -0.0014295473229140043, -0.0013685033190995455, -0.0013074591988697648, -0.0012464150786399841, -0.0011853710748255253, -0.0011243270710110664, -0.0010632829507812858, -0.001002238830551505, -0.0009411948267370462, -0.0008801507647149265, -0.0008191067026928067, -0.000758062640670687, -0.0006970185786485672, -0.0006359745166264474, -0.0005749304546043277, -0.0005138863925822079, -0.00045284233056008816, -0.0003917982685379684, -0.00033075420651584864, -0.0002697101444937289, -0.00020866608247160912, -0.00014762202044948936, -8.65779584273696e-05, -2.5533896405249834e-05, 3.5510165616869926e-05, 9.655422763898969e-05, 0.00015759828966110945, 0.0002186423516832292, 0.0002796866465359926, 0.0003407307085581124, 0.00040177477058023214, 0.0004628188326023519, 0.0005238628946244717, 0.0005849069566465914, 0.0006459510186687112, 0.000706995080690831, 0.0007680391427129507, 0.0008290832047350705, 0.0008901272667571902, 0.00095117132877931, 0.0010122153908014297, 0.0010732593946158886, 0.0011343035148456693, 0.00119534763507545, 0.0012563916388899088, 0.0013174356427043676, 0.0013784797629341483, 0.001439523883163929, 0.0015005678869783878, 0.0015616118907928467, 0.0016226560110226274, 0.001683700131252408, 0.0017447441350668669, 0.0018057881388813257, 0.0018668322591111064, 0.001927876379340887, 0.001988920383155346, 0.0020499643869698048, 0.0021110083907842636, 0.002172052627429366, 0.002233096631243825]}, "gradients/graph_1v_out.bias": {"_type": "histogram", "values": [0.0, 0.0, 0.0, 0.0, 0.0, 0.0, 0.0, 0.0, 0.0, 0.0, 0.0, 0.0, 0.0, 0.0, 0.0, 0.0, 0.0, 0.0, 0.0, 0.0, 0.0, 0.0, 0.0, 0.0, 0.0, 0.0, 0.0, 0.0, 0.0, 0.0, 0.0, 1.0, 0.0, 0.0, 0.0, 0.0, 0.0, 0.0, 0.0, 0.0, 0.0, 0.0, 0.0, 0.0, 0.0, 0.0, 0.0, 0.0, 0.0, 0.0, 0.0, 0.0, 0.0, 0.0, 0.0, 0.0, 0.0, 0.0, 0.0, 0.0, 0.0, 0.0, 0.0, 0.0], "bins": [-0.021734047681093216, -0.021734047681093216, -0.021734047681093216, -0.021734047681093216, -0.021734047681093216, -0.021734047681093216, -0.021734047681093216, -0.021734047681093216, -0.021734047681093216, -0.021734047681093216, -0.021734047681093216, -0.021734047681093216, -0.021734047681093216, -0.021734047681093216, -0.021734047681093216, -0.021734047681093216, -0.021734047681093216, -0.021734047681093216, -0.021734047681093216, -0.021734047681093216, -0.021734047681093216, -0.021734047681093216, -0.021734047681093216, -0.021734047681093216, -0.021734047681093216, -0.021734047681093216, -0.021734047681093216, -0.021734047681093216, -0.021734047681093216, -0.021734047681093216, -0.021734047681093216, -0.021734047681093216, -0.021734047681093216, -0.021734047681093216, -0.021734047681093216, -0.021734047681093216, -0.021734047681093216, -0.021734047681093216, -0.021734047681093216, -0.021734047681093216, -0.021734047681093216, -0.021734047681093216, -0.021734047681093216, -0.021734047681093216, -0.021734047681093216, -0.021734047681093216, -0.021734047681093216, -0.021734047681093216, -0.021734047681093216, -0.021734047681093216, -0.021734047681093216, -0.021734047681093216, -0.021734047681093216, -0.021734047681093216, -0.021734047681093216, -0.021734047681093216, -0.021734047681093216, -0.021734047681093216, -0.021734047681093216, -0.021734047681093216, -0.021734047681093216, -0.021734047681093216, -0.021734047681093216, -0.021734047681093216, -0.021734047681093216]}, "gradients/graph_1v_out.weight": {"_type": "histogram", "values": [1.0, 0.0, 0.0, 0.0, 0.0, 0.0, 0.0, 0.0, 0.0, 0.0, 0.0, 0.0, 0.0, 0.0, 0.0, 0.0, 0.0, 0.0, 0.0, 0.0, 0.0, 0.0, 0.0, 0.0, 0.0, 0.0, 0.0, 0.0, 0.0, 0.0, 0.0, 2.0, 0.0, 2.0, 0.0, 1.0, 1.0, 1.0, 0.0, 0.0, 0.0, 1.0, 1.0, 0.0, 1.0, 0.0, 1.0, 1.0, 1.0, 1.0, 1.0, 0.0, 2.0, 1.0, 0.0, 1.0, 4.0, 1.0, 9.0, 26.0, 2.0, 0.0, 1.0, 1.0], "bins": [-0.11086596548557281, -0.10879378765821457, -0.10672160983085632, -0.10464943200349808, -0.10257725417613983, -0.10050507634878159, -0.09843289852142334, -0.0963607206940651, -0.09428854286670685, -0.0922163650393486, -0.09014418721199036, -0.08807200938463211, -0.08599983155727386, -0.08392765372991562, -0.08185547590255737, -0.07978329807519913, -0.07771112024784088, -0.07563894242048264, -0.07356676459312439, -0.07149458676576614, -0.0694224089384079, -0.06735023111104965, -0.0652780532836914, -0.06320587545633316, -0.061133697628974915, -0.05906151980161667, -0.05698934197425842, -0.05491716414690018, -0.05284498631954193, -0.050772808492183685, -0.04870063066482544, -0.046628452837467194, -0.04455626755952835, -0.042484089732170105, -0.04041191190481186, -0.03833973407745361, -0.03626755625009537, -0.03419537842273712, -0.032123200595378876, -0.03005102276802063, -0.027978844940662384, -0.025906667113304138, -0.023834489285945892, -0.021762311458587646, -0.0196901336312294, -0.017617955803871155, -0.015545777976512909, -0.013473600149154663, -0.011401422321796417, -0.009329244494438171, -0.0072570666670799255, -0.00518488883972168, -0.003112711012363434, -0.001040533185005188, 0.0010316446423530579, 0.0031038224697113037, 0.0051760002970695496, 0.007248178124427795, 0.009320355951786041, 0.011392533779144287, 0.013464711606502533, 0.015536889433860779, 0.017609067261219025, 0.01968124508857727, 0.021753422915935516]}, "gradients/graph_1base.mlp.fc2.0.2.weight": {"_type": "histogram", "values": [1.0, 0.0, 0.0, 0.0, 0.0, 0.0, 0.0, 0.0, 0.0, 0.0, 0.0, 0.0, 0.0, 0.0, 0.0, 0.0, 0.0, 0.0, 1.0, 1.0, 1.0, 4.0, 4.0, 2.0, 4.0, 7.0, 5.0, 3.0, 6.0, 6.0, 1.0, 6.0, 2.0, 2.0, 1.0, 4.0, 0.0, 0.0, 0.0, 0.0, 1.0, 0.0, 0.0, 1.0, 0.0, 0.0, 0.0, 0.0, 0.0, 0.0, 0.0, 0.0, 0.0, 0.0, 0.0, 0.0, 0.0, 0.0, 0.0, 0.0, 0.0, 0.0, 0.0, 1.0], "bins": [-0.008980434387922287, -0.008669935166835785, -0.008359435014426708, -0.008048935793340206, -0.007738436106592417, -0.007427936419844627, -0.007117436733096838, -0.006806937046349049, -0.0064964378252625465, -0.006185938138514757, -0.005875438451766968, -0.005564939230680466, -0.005254439543932676, -0.004943939857184887, -0.0046334401704370975, -0.004322940483689308, -0.004012440796941519, -0.0037019411101937294, -0.0033914416562765837, -0.0030809419695287943, -0.0027704425156116486, -0.002459942828863859, -0.00214944314211607, -0.001838943688198924, -0.0015284440014511347, -0.0012179444311186671, -0.0009074448025785387, -0.0005969451740384102, -0.00028644560370594263, 2.4053966626524925e-05, 0.0003345536533743143, 0.00064505310729146, 0.0009555527940392494, 0.001266052364371717, 0.0015765519347041845, 0.001887051621451974, 0.0021975510753691196, 0.002508050762116909, 0.0028185504488646984, 0.003129049902781844, 0.0034395495895296335, 0.003750049276277423, 0.004060548730194569, 0.004371048416942358, 0.004681548103690147, 0.0049920473247766495, 0.005302547477185726, 0.005613046698272228, 0.005923546385020018, 0.006234046071767807, 0.006544545758515596, 0.006855045445263386, 0.007165544666349888, 0.007476044353097677, 0.007786544039845467, 0.008097043260931969, 0.008407543413341045, 0.008718042634427547, 0.009028542786836624, 0.009339042007923126, 0.009649542160332203, 0.009960041381418705, 0.010270541533827782, 0.010581040754914284, 0.010891539976000786]}, "gradients/graph_1base.mlp.fc2.0.2.bias": {"_type": "histogram", "values": [1.0, 2.0, 1.0, 1.0, 0.0, 0.0, 0.0, 1.0, 0.0, 0.0, 2.0, 0.0, 1.0, 2.0, 1.0, 2.0, 0.0, 1.0, 3.0, 1.0, 1.0, 0.0, 2.0, 1.0, 1.0, 2.0, 1.0, 0.0, 1.0, 2.0, 2.0, 3.0, 1.0, 0.0, 1.0, 2.0, 1.0, 1.0, 2.0, 2.0, 2.0, 1.0, 0.0, 1.0, 2.0, 1.0, 1.0, 1.0, 1.0, 0.0, 2.0, 0.0, 0.0, 0.0, 1.0, 2.0, 0.0, 0.0, 1.0, 1.0, 0.0, 0.0, 1.0, 1.0], "bins": [-0.0042057279497385025, -0.004048926755785942, -0.0038921255618333817, -0.0037353241350501776, -0.003578522941097617, -0.0034217217471450567, -0.0032649203203618526, -0.0031081191264092922, -0.002951317932456732, -0.0027945167385041714, -0.002637715544551611, -0.002480914117768407, -0.0023241129238158464, -0.002167311729863286, -0.002010510303080082, -0.0018537091091275215, -0.001696907915174961, -0.0015401067212224007, -0.0013833054108545184, -0.0012265041004866362, -0.0010697029065340757, -0.0009129016543738544, -0.0007561004022136331, -0.0005992990918457508, -0.0004424978978931904, -0.00028569664573296905, -0.0001288953935727477, 2.790585858747363e-05, 0.00018470711074769497, 0.0003415083629079163, 0.0004983096150681376, 0.0006551109254360199, 0.0008119125850498676, 0.000968713837210089, 0.0011255150893703103, 0.0012823163997381926, 0.001439117593690753, 0.0015959187876433134, 0.0017527200980111957, 0.001909521408379078, 0.0020663226023316383, 0.0022231237962841988, 0.002379924990236759, 0.0025367264170199633, 0.0026935276109725237, 0.002850328804925084, 0.003007130231708288, 0.0031639314256608486, 0.003320732619613409, 0.0034775338135659695, 0.00363433500751853, 0.003791136434301734, 0.003947937861084938, 0.0041047390550374985, 0.004261540248990059, 0.004418341442942619, 0.00457514263689518, 0.00473194383084774, 0.004888745024800301, 0.005045546218752861, 0.0052023474127054214, 0.005359149072319269, 0.00551595026627183, 0.00567275146022439, 0.0058295526541769505]}, "gradients/graph_1base.mlp.fc2.0.0.bias": {"_type": "histogram", "values": [1.0, 0.0, 0.0, 0.0, 0.0, 0.0, 0.0, 0.0, 1.0, 1.0, 0.0, 1.0, 0.0, 1.0, 0.0, 1.0, 0.0, 1.0, 0.0, 0.0, 0.0, 1.0, 0.0, 0.0, 0.0, 0.0, 2.0, 3.0, 1.0, 2.0, 5.0, 19.0, 7.0, 2.0, 3.0, 2.0, 1.0, 1.0, 0.0, 0.0, 0.0, 0.0, 0.0, 1.0, 0.0, 1.0, 0.0, 1.0, 0.0, 0.0, 0.0, 2.0, 1.0, 0.0, 0.0, 0.0, 0.0, 1.0, 0.0, 0.0, 0.0, 0.0, 0.0, 1.0], "bins": [-0.0036640779580920935, -0.0035471771843731403, -0.0034302761778235435, -0.0033133754041045904, -0.0031964746303856373, -0.0030795736238360405, -0.0029626728501170874, -0.0028457720763981342, -0.0027288710698485374, -0.0026119702961295843, -0.0024950692895799875, -0.0023781685158610344, -0.0022612675093114376, -0.0021443667355924845, -0.0020274659618735313, -0.0019105650717392564, -0.0017936641816049814, -0.0016767632914707065, -0.0015598624013364315, -0.0014429616276174784, -0.0013260607374832034, -0.0012091598473489285, -0.0010922590736299753, -0.0009753581834957004, -0.0008584572933614254, -0.0007415564032271504, -0.0006246555713005364, -0.0005077547393739223, -0.0003908538492396474, -0.00027395295910537243, -0.00015705212717875838, -4.015129525214434e-05, 7.674936205148697e-05, 0.00019365022308193147, 0.000310551084112376, 0.0004274519451428205, 0.000544352806173265, 0.0006612536963075399, 0.000778154528234154, 0.000895055360160768, 0.001011956250295043, 0.001128857140429318, 0.001245758030563593, 0.001362658804282546, 0.001479559694416821, 0.001596460584551096, 0.001713361358270049, 0.001830262248404324, 0.001947163138538599, 0.002064063912257552, 0.002180964918807149, 0.002297865692526102, 0.002414766699075699, 0.002531667472794652, 0.002648568246513605, 0.002765469253063202, 0.002882370026782155, 0.002999270800501108, 0.003116171807050705, 0.003233072580769658, 0.0033499733544886112, 0.003466874361038208, 0.003583775134757161, 0.0037006759084761143, 0.003817576915025711]}, "gradients/graph_1base.mlp.fc2.0.0.weight": {"_type": "histogram", "values": [1.0, 0.0, 0.0, 0.0, 0.0, 0.0, 0.0, 0.0, 0.0, 0.0, 0.0, 1.0, 1.0, 4.0, 1.0, 0.0, 1.0, 0.0, 1.0, 3.0, 3.0, 4.0, 7.0, 3.0, 2.0, 4.0, 10.0, 10.0, 36.0, 63.0, 142.0, 145.0, 180.0, 2547.0, 448.0, 128.0, 164.0, 67.0, 50.0, 11.0, 12.0, 8.0, 5.0, 7.0, 4.0, 2.0, 3.0, 6.0, 1.0, 2.0, 0.0, 2.0, 2.0, 1.0, 0.0, 2.0, 0.0, 0.0, 0.0, 1.0, 0.0, 0.0, 0.0, 1.0], "bins": [-0.01656654104590416, -0.016075117513537407, -0.01558369304984808, -0.015092269517481327, -0.014600845053792, -0.014109421521425247, -0.013617997989058495, -0.013126574456691742, -0.012635149993002415, -0.012143726460635662, -0.011652301996946335, -0.011160878464579582, -0.01066945493221283, -0.010178030468523502, -0.00968660693615675, -0.009195182472467422, -0.00870375894010067, -0.008212335407733917, -0.00772091094404459, -0.007229487411677837, -0.0067380634136497974, -0.0062466394156217575, -0.005755215883255005, -0.005263791885226965, -0.004772367887198925, -0.004280943889170885, -0.003789520123973489, -0.0032980963587760925, -0.0028066723607480526, -0.0023152483627200127, -0.0018238245975226164, -0.00133240083232522, -0.0008409759029746056, -0.00034955202136188745, 0.00014187186025083065, 0.0006332957418635488, 0.0011247196234762669, 0.0016161436215043068, 0.002107567386701703, 0.0025989911518990993, 0.0030904151499271393, 0.003581839147955179, 0.004073263145983219, 0.004564686678349972, 0.005056110676378012, 0.005547534674406052, 0.006038958206772804, 0.006530382204800844, 0.007021806202828884, 0.007513230200856924, 0.008004654198884964, 0.008496077731251717, 0.00898750126361847, 0.009478925727307796, 0.009970349259674549, 0.010461773723363876, 0.010953197255730629, 0.011444620788097382, 0.011936045251786709, 0.012427468784153461, 0.012918893247842789, 0.013410316780209541, 0.013901740312576294, 0.014393163844943047, 0.014884588308632374]}, "gradients/graph_1base.mlp.fc1.2.weight": {"_type": "histogram", "values": [1.0, 0.0, 0.0, 0.0, 0.0, 0.0, 0.0, 0.0, 0.0, 2.0, 0.0, 1.0, 0.0, 0.0, 0.0, 1.0, 2.0, 0.0, 0.0, 2.0, 4.0, 2.0, 3.0, 0.0, 1.0, 1.0, 5.0, 6.0, 4.0, 4.0, 2.0, 2.0, 3.0, 0.0, 4.0, 1.0, 2.0, 2.0, 3.0, 1.0, 0.0, 0.0, 0.0, 1.0, 1.0, 0.0, 0.0, 1.0, 0.0, 0.0, 0.0, 0.0, 0.0, 0.0, 0.0, 0.0, 0.0, 0.0, 0.0, 0.0, 0.0, 0.0, 1.0, 1.0], "bins": [-0.003591203596442938, -0.003466979367658496, -0.003342755138874054, -0.0032185311429202557, -0.0030943069141358137, -0.0029700826853513718, -0.0028458586893975735, -0.0027216344606131315, -0.0025974102318286896, -0.0024731860030442476, -0.0023489617742598057, -0.0022247377783060074, -0.0021005135495215654, -0.0019762893207371235, -0.0018520652083680034, -0.0017278410959988832, -0.0016036168672144413, -0.0014793926384299994, -0.0013551685260608792, -0.0012309444136917591, -0.0011067201849073172, -0.0009824959561228752, -0.0008582718437537551, -0.0007340476731769741, -0.000609823502600193, -0.000485599332023412, -0.00036137516144663095, -0.00023715099086984992, -0.00011292682029306889, 1.1297350283712149e-05, 0.00013552152086049318, 0.0002597456914372742, 0.00038397032767534256, 0.0005081944982521236, 0.0006324186688289046, 0.0007566428394056857, 0.0008808670099824667, 0.0010050912387669086, 0.0011293153511360288, 0.0012535394635051489, 0.0013777636922895908, 0.0015019879210740328, 0.001626212033443153, 0.001750436145812273, 0.001874660374596715, 0.001998884603381157, 0.002123108599334955, 0.002247332828119397, 0.002371557056903839, 0.002495781285688281, 0.002620005514472723, 0.0027442295104265213, 0.0028684537392109632, 0.002992677967995405, 0.0031169019639492035, 0.0032411261927336454, 0.0033653504215180874, 0.0034895746503025293, 0.0036137988790869713, 0.0037380228750407696, 0.0038622471038252115, 0.0039864713326096535, 0.004110695328563452, 0.004234919790178537, 0.004359143786132336]}, "gradients/graph_1base.mlp.fc1.2.bias": {"_type": "histogram", "values": [1.0, 0.0, 1.0, 0.0, 0.0, 0.0, 0.0, 0.0, 1.0, 1.0, 1.0, 2.0, 1.0, 4.0, 1.0, 2.0, 1.0, 1.0, 0.0, 0.0, 2.0, 2.0, 1.0, 0.0, 6.0, 2.0, 3.0, 5.0, 2.0, 0.0, 2.0, 0.0, 3.0, 3.0, 2.0, 1.0, 5.0, 0.0, 0.0, 1.0, 0.0, 1.0, 2.0, 0.0, 1.0, 0.0, 0.0, 1.0, 0.0, 0.0, 0.0, 1.0, 0.0, 0.0, 0.0, 0.0, 0.0, 0.0, 0.0, 0.0, 0.0, 0.0, 0.0, 1.0], "bins": [-0.003605459351092577, -0.003461184212937951, -0.003316909074783325, -0.003172634169459343, -0.003028359031304717, -0.002884083893150091, -0.002739808987826109, -0.002595533849671483, -0.002451258711516857, -0.0023069835733622313, -0.0021627084352076054, -0.002018433529883623, -0.0018741583917289972, -0.0017298832535743713, -0.0015856082318350673, -0.0014413332100957632, -0.0012970580719411373, -0.0011527829337865114, -0.0010085079120472074, -0.0008642328321002424, -0.0007199577521532774, -0.0005756826722063124, -0.00043140759225934744, -0.0002871325705200434, -0.00014285743236541748, 1.4176475815474987e-06, 0.00014569272752851248, 0.00028996780747547746, 0.00043424288742244244, 0.0005785179673694074, 0.0007227930473163724, 0.0008670680690556765, 0.0010113432072103024, 0.0011556183453649282, 0.0012998933671042323, 0.0014441683888435364, 0.0015884435269981623, 0.0017327186651527882, 0.0018769936868920922, 0.0020212687086313963, 0.002165543846786022, 0.002309818984940648, 0.002454094123095274, 0.002598369028419256, 0.002742644166573882, 0.002886919304728508, 0.0030311942100524902, 0.003175469348207116, 0.003319744486361742, 0.003464019624516368, 0.003608294762670994, 0.003752569667994976, 0.003896844806149602, 0.004041119944304228, 0.00418539484962821, 0.00432967022061348, 0.004473945125937462, 0.004618220031261444, 0.004762495402246714, 0.004906770307570696, 0.005051045678555965, 0.005195320583879948, 0.00533959548920393, 0.005483870394527912, 0.005628145765513182]}, "gradients/graph_1base.mlp.fc1.0.bias": {"_type": "histogram", "values": [1.0, 0.0, 0.0, 0.0, 1.0, 0.0, 0.0, 0.0, 2.0, 0.0, 0.0, 0.0, 0.0, 0.0, 1.0, 1.0, 0.0, 1.0, 0.0, 0.0, 1.0, 1.0, 0.0, 0.0, 0.0, 1.0, 0.0, 0.0, 1.0, 1.0, 0.0, 2.0, 4.0, 3.0, 14.0, 9.0, 2.0, 4.0, 3.0, 0.0, 0.0, 0.0, 1.0, 0.0, 2.0, 0.0, 1.0, 1.0, 0.0, 1.0, 0.0, 1.0, 0.0, 2.0, 0.0, 0.0, 1.0, 0.0, 0.0, 0.0, 0.0, 0.0, 0.0, 1.0], "bins": [-0.001524715800769627, -0.001481131766922772, -0.001437547616660595, -0.0013939635828137398, -0.0013503794325515628, -0.0013067953987047076, -0.0012632112484425306, -0.0012196272145956755, -0.0011760431807488203, -0.0011324591469019651, -0.0010888749966397882, -0.001045290962792933, -0.001001706812530756, -0.0009581227786839008, -0.0009145386866293848, -0.0008709545945748687, -0.0008273704443126917, -0.0007837863522581756, -0.0007402022602036595, -0.0006966182263568044, -0.0006530340760946274, -0.0006094500422477722, -0.0005658659501932561, -0.0005222818581387401, -0.000478697766084224, -0.0004351136740297079, -0.00039152958197519183, -0.0003479455190245062, -0.00030436142696999013, -0.00026077733491547406, -0.00021719327196478844, -0.00017360917991027236, -0.0001300252042710781, -8.644111949251965e-05, -4.2857034713961184e-05, 7.270427886396646e-07, 4.431113484315574e-05, 8.789522689767182e-05, 0.00013147928984835744, 0.00017506338190287352, 0.0002186474739573896, 0.00026223156601190567, 0.00030581565806642175, 0.00034939972101710737, 0.00039298381307162344, 0.0004365679051261395, 0.00048015196807682514, 0.0005237360601313412, 0.0005673201521858573, 0.0006109042442403734, 0.0006544883362948895, 0.0006980723701417446, 0.0007416565204039216, 0.0007852405542507768, 0.0008288246463052928, 0.0008724087383598089, 0.000915992830414325, 0.0009595769224688411, 0.0010031609563156962, 0.0010467451065778732, 0.0010903291404247284, 0.0011339132906869054, 0.0011774973245337605, 0.0012210814747959375, 0.0012646655086427927]}, "gradients/graph_1base.mlp.fc1.0.weight": {"_type": "histogram", "values": [1.0, 0.0, 0.0, 0.0, 0.0, 0.0, 0.0, 0.0, 0.0, 1.0, 0.0, 2.0, 1.0, 1.0, 0.0, 0.0, 0.0, 0.0, 0.0, 0.0, 2.0, 0.0, 0.0, 2.0, 0.0, 0.0, 0.0, 0.0, 6.0, 7.0, 48.0, 190.0, 659.0, 1216.0, 41977.0, 6654.0, 809.0, 202.0, 51.0, 1.0, 0.0, 1.0, 0.0, 0.0, 3.0, 0.0, 1.0, 0.0, 0.0, 0.0, 0.0, 0.0, 1.0, 1.0, 0.0, 1.0, 0.0, 0.0, 0.0, 0.0, 0.0, 0.0, 1.0, 1.0], "bins": [-0.023641444742679596, -0.022960767149925232, -0.022280089557170868, -0.021599413827061653, -0.02091873623430729, -0.020238058641552925, -0.01955738291144371, -0.018876705318689346, -0.018196027725934982, -0.01751535013318062, -0.016834672540426254, -0.01615399681031704, -0.015473319217562675, -0.014792641624808311, -0.014111964963376522, -0.013431288301944733, -0.012750610709190369, -0.012069933116436005, -0.011389256455004215, -0.010708579793572426, -0.010027902200818062, -0.009347224608063698, -0.008666547946631908, -0.007985871285200119, -0.007305193692445755, -0.006624516565352678, -0.005943839438259602, -0.005263162311166525, -0.004582485184073448, -0.0039018080569803715, -0.0032211309298872948, -0.002540453802794218, -0.0018597766757011414, -0.0011790995486080647, -0.0004984224215149879, 0.00018225470557808876, 0.0008629318326711655, 0.0015436089597642422, 0.002224286086857319, 0.0029049632139503956, 0.0035856403410434723, 0.004266317468136549, 0.004946994595229626, 0.005627671722322702, 0.006308348849415779, 0.006989025976508856, 0.0076697031036019325, 0.008350379765033722, 0.009031057357788086, 0.00971173495054245, 0.01039241161197424, 0.011073088273406029, 0.011753765866160393, 0.012434443458914757, 0.013115120120346546, 0.013795796781778336, 0.0144764743745327, 0.015157151967287064, 0.015837829560041428, 0.016518505290150642, 0.017199182882905006, 0.01787986047565937, 0.018560536205768585, 0.01924121379852295, 0.019921891391277313]}, "gradients/graph_1base.feature_norm.weight": {"_type": "histogram", "values": [1.0, 0.0, 0.0, 0.0, 0.0, 0.0, 0.0, 0.0, 0.0, 0.0, 0.0, 0.0, 0.0, 0.0, 0.0, 0.0, 0.0, 0.0, 0.0, 0.0, 0.0, 0.0, 0.0, 0.0, 0.0, 0.0, 0.0, 0.0, 0.0, 0.0, 0.0, 0.0, 0.0, 0.0, 0.0, 0.0, 0.0, 0.0, 1.0, 0.0, 0.0, 0.0, 0.0, 0.0, 0.0, 0.0, 0.0, 0.0, 0.0, 0.0, 0.0, 1.0, 3.0, 2.0, 0.0, 14.0, 43.0, 280.0, 364.0, 62.0, 24.0, 8.0, 4.0, 3.0], "bins": [-0.007898904383182526, -0.0077628386206924915, -0.007626772858202457, -0.007490707561373711, -0.0073546417988836765, -0.007218576036393642, -0.007082510739564896, -0.0069464449770748615, -0.006810379214584827, -0.006674313452094793, -0.006538247689604759, -0.006402182392776012, -0.006266116630285978, -0.006130050867795944, -0.005993985570967197, -0.005857919808477163, -0.005721854045987129, -0.005585788283497095, -0.005449722521007061, -0.005313657224178314, -0.00517759146168828, -0.005041525699198246, -0.004905460402369499, -0.004769394639879465, -0.004633328877389431, -0.004497263114899397, -0.004361197352409363, -0.004225132055580616, -0.004089066293090582, -0.003953000530600548, -0.0038169350009411573, -0.003680869471281767, -0.003544803708791733, -0.0034087379463016987, -0.0032726724166423082, -0.003136606886982918, -0.0030005411244928837, -0.0028644753620028496, -0.002728409832343459, -0.0025923443026840687, -0.0024562785401940346, -0.0023202127777040005, -0.00218414724804461, -0.0020480817183852196, -0.0019120159558951855, -0.0017759503098204732, -0.001639884663745761, -0.0015038190176710486, -0.0013677532551810145, -0.0012316876091063023, -0.00109562196303159, -0.0009595563169568777, -0.0008234906708821654, -0.0006874250248074532, -0.0005513593787327409, -0.0004152937326580286, -0.0002792280865833163, -0.00014316244050860405, -7.096794433891773e-06, 0.0001289688516408205, 0.0002650344977155328, 0.00040110014379024506, 0.0005371657898649573, 0.0006732314359396696, 0.0008092970820143819]}, "gradients/graph_1base.feature_norm.bias": {"_type": "histogram", "values": [1.0, 0.0, 0.0, 0.0, 0.0, 0.0, 0.0, 0.0, 1.0, 0.0, 0.0, 3.0, 1.0, 2.0, 3.0, 4.0, 6.0, 9.0, 4.0, 5.0, 4.0, 16.0, 10.0, 6.0, 15.0, 20.0, 15.0, 33.0, 30.0, 33.0, 25.0, 32.0, 36.0, 38.0, 38.0, 40.0, 27.0, 29.0, 30.0, 32.0, 32.0, 33.0, 30.0, 31.0, 13.0, 22.0, 18.0, 11.0, 8.0, 10.0, 13.0, 4.0, 7.0, 5.0, 4.0, 3.0, 5.0, 3.0, 4.0, 2.0, 1.0, 1.0, 1.0, 1.0], "bins": [-0.0007751266239210963, -0.000753477041143924, -0.0007318274583667517, -0.0007101778755895793, -0.000688528292812407, -0.0006668787682428956, -0.0006452291272580624, -0.000623579602688551, -0.0006019300199113786, -0.0005802804371342063, -0.000558630854357034, -0.0005369812715798616, -0.0005153316888026893, -0.000493682106025517, -0.0004720325523521751, -0.00045038299867883325, -0.00042873338679783046, -0.00040708380402065814, -0.0003854342212434858, -0.00036378466757014394, -0.0003421350847929716, -0.0003204855020157993, -0.00029883591923862696, -0.00027718633646145463, -0.0002555367536842823, -0.00023388717090710998, -0.00021223760268185288, -0.00019058801990468055, -0.00016893845167942345, -0.00014728886890225112, -0.0001256392861250788, -0.0001039897178998217, -8.23401496745646e-05, -6.069057417334989e-05, -3.904099503415637e-05, -1.7391415894962847e-05, 4.258159606251866e-06, 2.590773510746658e-05, 4.7557317884638906e-05, 6.9206886109896e-05, 9.085646888706833e-05, 0.00011250604438828304, 0.00013415561988949776, 0.00015580520266667008, 0.0001774547854438424, 0.0001991043536690995, 0.00022075393644627184, 0.00024240350467152894, 0.00026405308744870126, 0.0002857026702258736, 0.0003073522530030459, 0.0003290018066763878, 0.0003506513894535601, 0.00037230097223073244, 0.00039395055500790477, 0.0004156001377850771, 0.0004372497205622494, 0.00045889930333942175, 0.0004805488861165941, 0.0005021984688937664, 0.0005238480516709387, 0.0005454976344481111, 0.0005671471590176225, 0.0005887967417947948, 0.0006104463245719671]}, "_wandb": {"runtime": 12337}}